weights: 
0.310844 0.265998 0.370737 0.475683 0.171904 -0.187449 -0.258604 -0.206807 -0.0456027 0.390783 -0.596253 -0.583076 -0.479334 -0.200205 0.374047 -0.489449 -0.52784 -0.468974 0.0890272 0.31036 -0.696215 -0.66846 -0.0807852 0.113033 0.240428 -0.555302 -0.197339 -0.413079 -0.098164 -0.337338 -0.121001 -0.175039 0.0945798 0.0798401 -0.184132 0.102585 0.0500087 0.570902 0.298675 -0.0180149 0.59738 0.76857 0.792102 0.538791 0.550532 0.628481 0.272341 0.0662136 0.67453 0.546521 -0.154044 0.296279 0.66934 0.961373 0.413929 0.0409636 0.391657 -0.0197194 0.232634 0.391247 -0.517908 -0.4184 -0.564705 -0.512609 -0.351753 -0.58036 -0.534082 -0.80781 -0.801762 -0.558914 -0.421273 -0.597296 -0.292487 -0.561939 -0.493755 -0.0874914 0.59169 0.659204 0.15556 0.131783 0.538248 1.07337 0.859352 0.776708 0.546562 0.10483 0.597738 0.554702 0.337715 -0.116312 0.160401 -0.0696559 -0.00181967 -0.257558 0.0669074 -0.148974 -0.210029 -0.588512 -0.40254 -0.255378 -0.236146 -0.535487 -0.0555967 0.000875575 0.25477 -0.180321 0.448814 0.221542 0.665934 0.880892 0.0734663 0.0108703 0.265697 0.184064 0.523981 -0.122833 -0.391881 -0.128661 -0.00565118 -0.328239 -0.380044 -0.456927 -0.487902 -0.15655 -0.115103 -0.401847 -0.658171 -0.739651 -0.781727 -0.241367 -0.237546 -0.553987 -0.584749 -0.39802 -0.111549 0.215696 -0.295714 -0.48836 -0.297931 0.192035 -0.0201713 0.0244479 -0.00328962 0.0444055 0.368334 0.0465856 0.304168 0.458077 0.728797 0.698272 
bias: 
-0.139607 -0.32764 -0.0571191 -0.768761 -0.0655887 -0.377779 
weights: 
-0.025727 -0.090621 -0.284756 -0.316743 -0.362372 0.0703603 -0.0631575 -0.0997249 0.399567 0.11677 -0.165924 0.00368213 0.0857671 0.424582 0.266797 -0.0679196 -0.0500926 -0.160675 -0.0395568 -0.0151877 0.0534788 0.0522966 -0.0633901 -0.157567 -0.121917 -0.0593422 -0.126389 -0.042681 0.210383 0.384113 -0.100692 -0.0921751 -0.225971 -0.0550264 0.0692822 -0.00422707 -0.205673 -0.131271 -0.348244 0.0131915 0.145739 0.00596312 -0.109154 -0.103583 -0.198769 0.0024885 0.233346 0.286501 0.0624953 0.0486461 -0.183606 -0.137736 -0.0584567 -0.155155 -0.325071 0.0351383 0.143983 0.466994 0.401101 0.121097 0.0778215 0.283231 0.173113 0.462975 0.511128 0.00593559 0.0182789 -0.128872 0.0408804 0.275227 0.0209738 -0.00873322 -0.168317 0.00416634 -0.0383241 -0.152565 -0.304124 -0.165892 0.00253202 0.146107 -0.118474 0.0966054 0.240924 0.364988 0.438364 -0.128624 -0.0260732 -0.211907 -0.0229962 0.280514 0.184557 0.0853092 -0.284886 -0.310754 -0.107148 0.18663 -0.107981 -0.0308284 -0.148748 0.0356999 -0.354904 -0.154732 -0.0853744 0.0929445 0.160498 -0.0193015 0.115735 0.104678 0.426347 0.303897 -0.0802287 -0.19205 -0.262397 0.041867 0.144519 -0.0681784 -0.0401235 -0.278615 -0.0869064 0.0902933 -0.116095 0.011366 -0.160056 -0.248748 0.106917 0.194764 0.246122 0.0878491 0.3488 0.350421 0.0784101 -0.0642245 -0.145011 -0.207502 -0.25448 0.150786 0.0656169 0.173606 0.191849 -0.0890443 0.173923 0.014711 0.218509 0.334502 0.121135 -0.0178956 0.135595 0.204159 0.0617079 0.117428 0.00674665 0.18916 0.0792409 -0.219766 -0.116199 -0.179667 -0.308454 -0.382102 -0.211724 -0.14981 -0.11939 -0.168707 -0.091576 0.0306104 0.00181721 0.202573 0.115021 0.108864 0.254292 0.26252 0.154504 0.12311 0.0408727 0.0302754 0.102444 -0.145494 -0.0175018 -0.0296491 0.165073 0.139421 0.237239 0.20428 0.260496 0.12913 0.151593 0.0959878 -0.0411722 -0.195145 -0.292915 -0.23956 -0.167984 -0.246776 -0.306332 -0.283856 -0.439107 0.0724907 -0.0790554 -0.02369 -0.104055 0.029143 0.0989938 0.02302 -0.100047 -0.019328 0.0902361 -0.240767 -0.225966 -0.0842997 0.0647545 -0.102082 -0.0470925 0.284918 0.320639 0.336921 0.139997 0.51311 0.355636 0.238652 0.391861 0.226581 0.286805 0.209244 0.00693081 -0.137959 0.0258723 0.267012 0.0489891 -0.0690872 0.174151 0.206498 -0.0563134 -0.103032 0.0617892 0.2056 0.0849668 0.314829 0.623727 0.51064 0.26534 0.313085 0.235066 0.157093 -0.1064 -0.0977358 0.0607583 -0.0263935 -0.258095 -0.0496647 -0.500024 -0.558304 -0.0903409 0.0405051 -0.0154779 0.010681 0.102821 -0.039051 -0.153355 0.136154 0.076474 0.0711595 0.348073 0.304035 0.092764 0.155444 0.212401 0.131817 -0.214968 -0.184847 -0.0330966 0.146842 -0.21296 -0.0122648 -0.229374 -0.318306 -0.246848 0.0558331 0.0954736 0.0811886 -0.147642 -0.117528 0.286175 0.203228 -0.0326121 0.0264423 0.124098 -0.307841 -0.424049 -0.328937 -0.21328 -0.121881 -0.263135 -0.0441621 -0.0160443 -0.0482474 -0.123982 -0.0390205 0.126449 0.243835 0.285035 0.337875 -0.184516 0.34703 0.574195 0.269828 -0.210266 -0.169199 0.237386 0.365107 0.132718 -0.252908 -0.166276 -0.134331 0.000538331 -0.163539 -0.159436 -0.264608 -0.197493 -0.195972 -0.116463 -0.115447 -0.37716 -0.0955763 0.0512739 -0.014794 -0.376731 -0.194521 -0.202322 -0.0494301 0.0683147 0.23471 -0.223029 -0.396079 -0.253893 -0.00953085 -0.117455 0.246521 0.0967465 0.0262831 -0.0990856 -0.0767637 0.1056 0.0844779 -0.0707851 0.0274517 -0.155598 0.153703 0.214105 -0.00280125 0.0789393 -0.0362925 0.209742 0.255992 0.161877 0.208063 -0.0189087 0.132791 0.252732 0.334025 -0.0335238 -0.17313 -0.00270142 0.0981832 0.0598505 0.0829275 0.0845646 -0.0458479 0.0440674 0.055939 0.0211062 -0.0726357 -0.0199239 0.149788 -0.0395759 -0.204901 -0.143132 0.134913 -0.0585406 -0.0387674 0.1869 0.413176 -0.0880621 -0.272372 -0.0452739 0.00585583 0.148669 -0.285917 -0.429752 -0.160821 0.000998027 0.192493 0.0846747 0.107174 -0.0316761 -0.0858614 -0.172765 0.0928771 -0.0898262 -0.114789 -0.216772 0.0319836 -0.0178243 0.168013 0.239309 0.206422 -0.00820279 -0.169045 0.129332 0.21812 0.104476 -0.0841378 -0.305534 -0.168831 -0.0228734 0.0489733 -0.160775 -0.0448385 0.215299 0.136847 -0.164501 -0.268695 -0.0294113 0.0960516 -0.0245465 -0.0357865 -0.111674 -0.242708 -0.100483 0.108233 -0.193898 -0.155058 -0.110958 0.0635282 0.0574432 -0.151073 -0.381253 0.353344 0.318023 0.0197733 -0.22249 -0.140708 0.297592 0.272399 0.0185167 0.0724081 0.211543 -0.0936168 -0.0412058 0.133805 0.112741 0.131137 -0.0839109 -0.0442221 0.196681 0.319949 0.00540933 -0.338792 -0.19457 0.246766 0.262284 -0.141608 -0.464238 -0.115738 0.308346 0.4284 -0.214183 -0.397089 -0.114361 0.255876 0.0335421 0.0112372 -0.389152 -0.0831508 0.1373 -0.0403717 -0.00657486 0.146738 -0.0871337 -0.201828 -0.285321 0.0460785 0.200243 -0.100936 -0.214831 -0.00366825 0.0339634 0.250526 -0.186049 -0.193956 -0.0947597 0.137042 -0.00613916 -0.197973 -0.187673 0.080929 0.213283 -0.0442482 -0.287937 -0.132716 -0.0242807 -0.186381 0.218162 0.187349 0.347313 0.312632 -0.0788657 -0.0943795 -0.0315946 0.266744 -0.0430138 -0.212241 -0.211196 0.0840973 0.202051 -0.0341777 -0.391018 -0.166194 -0.111261 -0.00893153 -0.0874316 -0.0737568 -0.0632131 -0.0696778 0.0125248 -0.00907017 0.126536 0.188881 0.257636 0.106698 -0.0408855 -0.0501815 0.467503 -0.0209527 -0.163274 -0.088138 0.0588049 0.2996 0.000828648 -0.408523 -0.169971 0.136401 0.327369 0.0159998 -0.370482 -0.0309306 0.253528 0.219187 -0.095944 -0.28392 -0.114787 0.344332 0.0899082 -0.0421502 -0.203196 -0.0184872 0.0299789 0.0237448 -0.198169 -0.0117344 0.0764394 0.00447553 -0.167705 -0.36374 0.0287521 0.128907 0.189627 -0.135299 -0.395736 0.128404 0.09512 -0.0183093 -0.171284 -0.153136 0.138113 0.109116 -0.0601967 0.0572961 -0.253174 -0.158905 -0.0925555 -0.0800012 0.0547764 -0.261278 -0.00485191 0.187081 0.097335 0.0179731 0.0354635 0.031301 -0.107621 -0.0511438 -0.24989 0.0505211 0.286015 0.0548574 -0.406392 -0.280116 0.0249663 0.241983 0.02796 0.112046 -0.16799 -0.147026 -0.115977 -0.217562 -0.215517 -0.0796943 0.197284 0.0915737 0.0255829 0.027395 0.204225 0.374557 0.345284 0.136324 0.0687108 -0.238265 -0.0618268 0.0837813 0.121596 0.0928842 -0.274363 -0.192202 0.06818 0.219717 0.266647 -0.113475 0.114919 0.0319161 0.150106 0.0700236 -0.438234 -0.224126 -0.0475381 0.131609 0.134092 -0.364412 -0.385816 -0.275812 0.0582243 0.235857 0.0347989 0.03912 -0.263444 -0.142984 -0.187995 0.333101 0.179966 -0.0837022 -0.262321 -0.201234 -0.0319626 -0.0831806 -0.17772 -0.170375 -0.168089 0.391888 0.239817 0.170169 0.0612512 -0.182431 0.325588 0.432553 0.139945 0.109812 -0.229155 -0.165042 0.000614955 0.00668574 0.203156 0.0525269 -0.106288 -0.03814 0.205028 0.419883 0.310786 -0.0693229 0.0323626 0.0987028 0.161184 0.0761068 -0.0453488 0.296939 0.17118 0.198561 -0.00536436 -0.257487 -0.0258975 0.0622234 0.0992126 0.0286519 -0.424465 -0.365969 -0.200335 -0.0115216 0.27565 0.0418612 -0.176735 -0.318706 -0.0596384 0.0677227 0.0221104 0.0649336 0.071584 0.0596633 0.124138 0.067733 0.27801 0.137122 0.109385 0.212284 -0.225917 -0.0865826 0.0564186 -0.0302084 0.185188 -0.412997 -0.246421 -0.126243 0.0503917 0.145117 -0.0879792 -0.320657 -0.30575 -0.142248 0.0914816 0.176957 0.091267 0.00749283 -0.110072 0.121921 -0.186542 -0.169227 -0.137344 -0.208289 0.0601475 0.0841952 -0.0697934 -0.169068 0.0596482 0.132438 0.403266 0.257044 -0.140303 -0.15399 -0.203798 0.198763 0.194529 0.0692924 -0.00105036 -0.024866 -0.0630926 -0.116962 0.0299922 0.209865 0.258438 0.0390731 0.0578299 -0.110084 0.0899293 0.0487391 0.221422 -0.0219409 0.042988 0.206194 0.088332 -0.0202125 -0.222864 0.0479223 -0.0607117 0.0544203 0.0414968 -0.32921 -0.115712 -0.0505283 0.0117734 -0.00586222 -0.0846462 -0.257082 -0.151214 -0.0218818 0.122374 -0.189527 -0.189875 -0.0233472 -0.0564605 0.127071 -0.178596 0.00656592 -0.432071 -0.400774 0.229698 -0.0060809 -0.224797 -0.237769 -0.180039 0.395882 0.265654 0.227327 0.0323511 0.0711305 0.124988 0.112687 0.0401874 0.0293142 0.0111474 0.0452492 0.00176691 0.0977444 0.117473 0.110155 0.0297354 0.0121287 0.312834 0.229615 0.385936 -0.127416 -0.00953983 0.200138 0.225365 0.211073 -0.247144 -0.191022 -5.95752e-06 0.0442003 -0.27466 -0.169782 -0.19826 -0.249564 -0.0298445 0.0378633 -0.262599 -0.143554 -0.0817593 -0.214019 -0.0406009 -0.209437 0.210408 -0.307423 -0.0927891 0.0294072 -0.198124 -0.0639051 -0.330442 -0.316818 -0.470862 0.246002 0.0990357 -0.0249965 -0.475856 -0.31801 -0.175411 -0.180786 -0.0678421 0.0435012 0.227962 0.00878577 -0.230979 -0.21291 0.0368161 0.259248 0.139479 -0.203097 -0.0173968 0.0213843 0.0850432 0.0227577 -0.304571 -0.237488 -0.210368 -0.269516 0.141792 -0.0531953 -0.24249 -0.0982273 -0.0396309 0.0236841 0.168215 -0.164592 -0.0147111 0.0188686 0.296197 0.0840603 0.0622139 0.0271542 -0.0814359 0.0907649 -0.128938 -0.149087 -0.153678 -0.0763101 0.151842 -0.0363241 -0.00139363 -0.00581089 0.128967 0.0965552 0.0679388 0.303915 0.146801 0.412204 0.206366 -0.0124519 0.00844952 0.08685 -0.11476 -0.0937413 0.102093 0.198757 0.0120203 -0.238524 0.159225 0.133128 0.175958 0.19813 -0.0903695 0.017237 0.0617766 0.351797 0.123492 -0.0787123 0.0473907 -0.157525 -0.105697 -0.270146 -0.335369 0.0855779 0.301633 0.384014 0.313447 0.175522 -0.0328189 0.0849627 0.0335401 0.087228 0.100795 -0.24812 -0.218177 -0.321594 -0.135522 -0.0363062 -0.2934 -0.19022 0.015012 0.00692171 0.202897 0.0618432 0.133376 0.235201 0.289802 0.370391 -0.0748678 -0.114486 -0.100576 -0.176523 -0.150428 0.112619 0.234091 -0.0183158 -0.105704 -0.1893 0.236229 0.140184 0.198533 0.0832251 -0.0396996 0.0508987 0.118268 0.0784125 -0.124864 -0.157916 -0.102537 -0.275055 -0.345428 -0.33327 -0.137174 -0.23343 0.0260534 0.115669 9.40563e-05 -0.00961822 0.0874992 0.155655 0.244133 0.245053 0.294062 0.192256 0.00544611 0.133214 0.319906 0.318461 -0.106143 -0.385193 -0.286888 -0.129616 -0.0345717 -0.27907 -0.317675 -0.150433 0.0884434 0.111831 -0.0259256 -0.0828596 0.103103 -0.00443087 0.0361178 0.119084 0.137443 0.284103 0.273617 0.152219 -0.0622764 -0.048676 0.205112 0.226213 0.15054 -0.206305 -0.0354808 -0.204671 0.014843 0.0708088 -0.253469 -0.173012 -0.108265 0.13146 0.0137829 0.333988 -0.0658611 0.159782 0.184524 0.0418095 0.0444256 -0.0655152 0.000466063 -0.125133 -0.311395 -0.186604 -0.106676 -0.167112 -0.264476 -0.357074 -0.0703081 0.038178 0.131114 0.00953406 -0.113188 0.116028 0.256938 0.296281 0.174454 0.0580702 -0.120283 -0.415165 -0.040938 -0.0181869 0.219527 -0.250492 -0.333703 -0.392355 -0.208821 0.0822751 0.24825 -0.035253 -0.446208 -0.60024 -0.519741 0.051395 0.153685 0.329029 0.159802 0.00256193 -0.120936 0.0520558 0.203708 0.0623654 -0.143982 0.0973143 -0.0586971 -0.298917 -0.356374 -0.234941 -0.0211336 -0.0445723 0.0750658 0.0126111 -0.130947 0.0164002 0.125442 0.150131 0.142082 0.169351 -0.143168 -0.170104 -0.400551 -0.227673 0.0784497 -0.034794 -0.133774 -0.158091 -0.052051 -0.0183363 -0.14486 -0.327634 -0.142278 0.117752 0.326562 -0.165937 -0.132956 -0.131242 -0.0614104 0.159413 0.203181 0.165782 -0.0408099 -0.114639 -0.0415833 0.0276637 0.342734 0.575708 0.430781 0.0464327 0.0652552 0.144272 0.312035 0.287315 0.00892312 0.247939 -0.14579 -0.179896 0.00279215 0.0256367 0.414629 0.28682 0.0807362 -0.183154 -0.344247 0.149664 0.0807155 0.176684 -0.0490684 -0.0741521 0.229362 0.288714 0.580115 0.381009 0.364183 0.0567181 -0.0752271 -0.193501 0.0730715 0.327935 -0.153824 -0.14405 -0.213767 -0.185231 -0.0323028 0.0416517 0.138732 -0.229095 -0.15512 -0.173139 0.144485 0.0962584 -0.128383 -0.0344163 -0.14007 0.209027 0.368405 0.27242 0.0873359 0.109951 -0.0416492 -0.16399 -0.131087 0.0177732 0.0838948 0.0100791 0.130367 -0.0935806 -0.210352 -0.0358343 -0.239743 0.0893849 0.347005 0.389039 0.166744 -0.0652131 -0.0702788 -0.0720916 0.184381 0.374243 0.216779 -0.0376221 -0.364559 -0.374837 0.0326364 0.0110449 0.217596 0.346539 -0.00591786 -0.145574 0.25946 0.187397 0.139246 -0.0536343 -0.085162 -0.17108 0.106917 0.264923 -0.138125 -0.0968947 -0.26614 0.0655405 0.246421 -0.156941 -0.428432 -0.0190187 -0.0206934 -0.0817632 -0.382075 -0.0982649 0.0686346 -0.00504408 -0.130457 -0.331092 -0.0410634 -0.23642 -0.0110593 -0.0975748 0.204274 0.185623 -0.10274 -0.109084 0.0573556 0.122742 -0.0219145 -0.248181 -0.294221 -0.112723 0.0102444 -0.0669813 -0.326064 -0.114594 0.0136277 -0.0714747 -0.286591 -0.277561 -0.0671166 -4.56871e-05 -0.0743332 -0.0294212 0.400163 0.554639 0.298916 0.143331 -0.109996 0.273936 0.265865 0.00869292 -0.195435 -0.188087 0.0781404 0.0746175 -0.0993717 -0.39303 -0.172901 0.019867 -0.0418987 -0.233589 -0.240892 -0.0666352 0.0281006 -0.240081 -0.11808 0.0256639 0.0798385 0.0326104 0.121128 0.106653 0.259546 -0.11215 -0.28114 -0.0185297 0.0535148 -0.0568518 0.0460727 -0.293229 -0.349398 -0.133009 0.175898 0.181624 -0.0762255 -0.331848 -0.155345 0.124062 -0.0542872 -0.395565 -0.175727 -0.055393 0.237909 -0.197501 0.187075 0.352289 0.197102 -0.0232473 -0.00720549 -0.0245259 0.140729 0.0727712 0.147682 -0.0735269 -0.195354 0.0674992 0.0350167 4.81019e-05 -0.12657 -0.247792 -0.029429 0.183084 -0.0513723 -0.301385 -0.190124 -0.0811521 -0.0400632 -0.317951 -0.17776 -0.0110441 -0.173912 -0.282998 0.128322 0.26766 0.0320115 0.0924065 0.0125456 0.123714 -0.107068 0.067131 0.0945351 0.0845267 -0.111404 -0.267312 0.0382827 0.289063 0.0318076 -0.181264 -0.100934 0.210144 0.222226 -0.134379 -0.267013 0.446636 -0.139693 -0.0952583 -0.116727 -0.131497 -0.128819 -0.156217 -0.0405424 -0.109716 -0.0956056 -0.0120143 0.127893 0.311674 0.340047 0.0715068 0.185559 0.122716 0.164009 0.0654042 -0.0861349 0.0303242 -0.00597655 0.0241104 0.210722 0.0235815 -0.208887 0.256634 0.000676916 -0.0608558 0.038087 0.144653 -0.00551955 -0.0494358 -0.249356 -0.210783 -0.0748151 -0.269699 -0.319088 -0.49859 -0.329015 -0.333728 -0.259277 -0.287232 -0.173532 -0.0907521 -0.266601 -0.111648 -0.142895 -0.0357905 0.00268884 -0.0096956 -0.158006 -0.150399 -0.0242212 -0.153133 -0.241249 0.153196 -0.00456086 0.0416873 0.0126281 0.107836 0.567117 0.42831 0.302937 0.249963 0.242204 0.262382 0.204938 0.0525169 -0.0506908 0.0266118 -0.0603156 -0.0623254 -0.119979 -0.178082 -0.159996 0.0609898 0.1244 0.0542601 -0.0373929 -0.0380889 0.282442 0.196712 0.181732 0.0644549 0.13334 0.178733 -0.0582071 -0.0324602 -0.0736923 -0.0337696 -0.129287 -0.251587 -0.419407 -0.386136 -0.32088 -0.36237 -0.376383 -0.406186 -0.38896 -0.320249 -0.0319783 -0.0792821 -0.10024 0.0197349 -0.0183791 -0.0123546 0.0396166 0.164081 0.0423134 0.175613 -0.148403 -0.0879252 0.0535825 0.0985597 0.0412547 -0.188994 -0.297615 -0.278242 -0.174457 -0.14941 -0.193812 -0.22693 -0.0603623 -0.0278768 -0.00137739 -0.014003 0.0358983 0.0230898 -0.0246373 -0.0190704 -0.121924 -0.197863 -0.11884 -0.211329 -0.310462 -0.235227 0.0752339 -0.115964 -0.168517 -0.286208 0.216187 0.0446716 0.125409 0.219584 0.0362345 0.0845992 0.109673 0.262419 0.470744 0.204804 0.0787216 -0.0683016 -0.385425 0.265628 0.454367 -0.119354 -0.111684 -0.275973 0.189868 0.259156 -0.20372 -0.111243 -0.133599 0.225296 0.165615 -0.0585745 -0.0233591 0.246818 0.265148 0.0458834 0.111693 -0.214709 0.174826 0.138086 -0.00386127 0.300432 0.0946522 -0.112933 -0.00828264 -0.0431247 0.182239 0.0391281 -0.0283211 -0.0729602 0.0425422 0.0214679 -0.237447 -0.183495 -0.218425 0.130327 0.00362307 -0.19964 -0.267506 -0.299491 -0.261749 -0.126969 0.114389 0.0842602 -0.224778 -0.238894 -0.0055311 -0.0779189 -0.0364286 0.168514 -0.0832129 0.0560404 0.0728999 -0.181715 -0.0133874 -0.09783 0.0643298 -0.020239 -0.0723745 0.0914421 -0.0504787 0.0115989 0.023897 0.183306 0.255052 0.0702883 0.0698974 -0.0518467 0.0259395 -0.157933 0.0497958 0.0180216 0.326557 0.278419 -0.00368007 -0.229735 0.024848 0.291867 -0.032578 -0.429289 -0.0647169 0.212403 0.0769559 -0.150884 -0.360375 -0.0148404 0.150746 -0.117644 -0.283047 -0.282909 0.0976701 0.025652 -0.0901589 -0.373629 -0.425849 -0.146248 0.253935 0.197997 -0.123504 -0.037503 0.0883811 0.183328 0.0475153 -0.241815 0.139417 0.249522 0.177919 -0.10827 -0.149965 0.14116 0.309206 -0.0212468 -0.337259 0.0247201 0.12547 0.178695 -0.0124158 -0.310905 -0.154753 0.0504397 -0.242743 0.228307 -0.0803901 -0.558266 0.0474877 0.333703 0.00557873 -0.464317 -0.23282 0.40462 0.384853 -0.0525673 -0.368092 -0.0179522 0.165057 -0.118741 -0.0399711 -0.183187 0.0349005 0.102405 -0.205871 -0.0436109 -0.0375603 0.209582 0.121588 -0.34145 -0.0188971 0.0857452 0.127793 -0.203312 -0.0630173 -0.0750134 0.150295 0.103553 -0.0687383 -0.203147 0.0571893 0.175893 -0.00568221 -0.162357 -0.190962 0.0617598 -0.0809086 -0.00312318 0.0466417 -0.21371 0.0753513 -0.164268 0.134503 0.0475344 0.00200234 -0.0399438 -0.176026 -0.0820315 0.0686422 0.0480297 0.00586833 -0.190291 0.124939 0.149888 0.160342 -0.228389 -0.0687775 0.213954 0.150962 0.0252261 0.0224281 0.0776043 0.0426128 -0.0229708 -0.0839297 -0.105649 -0.149578 -0.263678 -0.0784662 -0.30757 0.0514854 0.0228592 -0.0889187 -0.0530699 -0.0159317 0.0357833 0.030248 -0.151249 -0.055478 -0.292297 0.126944 0.0215312 -0.195768 -0.0960321 -0.0687419 0.163418 0.0184108 0.0709721 0.151998 0.174966 0.12519 0.135971 0.243565 0.350021 0.233427 -0.00590137 -0.354925 -0.220819 0.135786 0.24426 0.163642 -0.031805 -0.124673 -0.0448527 0.145395 -0.120846 -0.154153 0.0678801 0.140197 0.345567 -0.146959 -0.0905279 0.290455 0.399406 0.314607 0.056019 0.0986883 0.13854 -0.0554479 -0.086973 -0.281637 -0.20682 0.189994 -0.0274722 -0.0149627 -0.0310203 -0.0441688 0.131474 0.0160199 -0.0641826 -0.141523 -0.011123 0.0933076 0.216124 0.0609422 -0.0357823 0.172621 0.28468 0.345459 -0.0566945 0.0393515 -0.150111 -0.021788 -0.0248137 -0.297672 0.10206 0.257351 0.236175 0.0585669 0.0208814 -0.069872 0.383876 0.243594 0.00121324 0.0247175 0.214224 0.224403 0.172756 0.17487 -0.253928 0.388722 0.178408 0.00806701 -0.228394 -0.196468 0.0462911 -0.0812184 -0.106276 -0.1061 0.00133833 -0.121618 -0.0778403 -0.0343808 0.0417071 0.0285971 -0.0402883 -0.0404674 -0.0983449 0.151305 0.163581 0.0825597 -0.0784236 0.0523394 0.144144 0.219834 -0.103218 -0.227732 0.18201 0.165688 0.296418 -0.204045 -0.168016 0.0576337 -0.117304 0.158702 -0.039471 -0.108209 -0.135427 -0.153819 -0.283314 -0.0976808 -0.128167 -0.124442 -0.320461 -0.324436 0.0182831 -0.179164 -0.378916 -0.353333 -0.0822825 -0.0664623 -0.00436173 -0.0927061 -0.137728 -0.0128188 0.262862 0.10101 -0.0621791 0.167664 0.168031 -0.0851772 -0.0984024 -0.131137 0.020007 -0.000890959 -0.162578 -0.0949528 -0.0568792 0.0347448 0.198101 0.0731876 0.0356083 0.0490376 -0.0156372 0.217568 -0.330262 0.0100952 -0.0109168 0.00181621 0.0511772 -0.231402 -0.199042 -0.256318 -0.091527 0.00935175 -0.253501 -0.222494 -0.0944705 -0.109952 -0.0441186 -0.0173271 -0.0600464 0.0133034 -0.176767 -0.0793976 0.00126289 -0.0732082 -0.259372 -0.377899 -0.383794 -0.055583 -0.228088 -0.206315 -0.349514 -0.306889 -0.00104238 -0.0704051 -0.181187 -0.225392 -0.253501 -0.252589 -0.213088 -0.155916 0.0796323 -0.167865 0.0193143 0.0117195 -0.250931 -0.0978906 0.0134532 0.00734473 -0.188989 -0.315343 -0.143577 -0.0975739 -0.107783 -0.237223 -0.14657 -0.111358 0.165336 -0.0997547 -0.138693 -0.107838 -0.124858 0.236587 0.0673692 0.0742677 -0.0702066 -0.0513802 -0.00608156 -0.00623453 0.00461593 -0.173055 -0.145484 -0.0537072 -0.0720906 -0.24372 -0.105637 -0.0469422 0.192888 0.00697063 -0.0395929 -0.0055519 0.114357 0.414832 0.00148681 0.221182 0.202423 0.365747 0.411808 -0.139728 -0.118689 -0.0975396 -0.311145 -0.21386 0.12476 0.295116 -0.016765 -0.330598 -0.298954 0.206146 0.270752 0.180614 0.0482523 -0.0854749 -0.113178 -0.0773603 0.0469341 0.098139 0.148912 -0.0801314 -0.320751 -0.0527665 0.0120645 -0.13462 -0.0646516 0.223808 0.293938 0.313088 0.329704 -0.14051 0.1378 0.143506 0.130019 0.160438 0.00214405 0.00999334 -0.0143777 -0.112807 -0.129595 0.165083 -0.106336 -0.210137 -0.28087 -0.189622 0.285167 0.0378302 0.0216553 -0.109075 -0.115325 0.00977451 -0.0282295 -0.067923 -0.335132 -0.210251 0.234367 0.0610382 -0.0856643 -0.17793 -0.0247648 0.196274 0.301397 0.220054 0.2549 0.246811 -0.213411 0.0201833 0.0374964 0.292499 0.376969 -0.104384 -0.151583 -0.0249811 -0.0871933 -0.021343 -0.0715535 -0.163584 -0.289088 -0.195253 0.0453177 -0.238826 0.126552 0.369166 0.352794 0.210433 -0.0959902 0.0498308 0.331909 0.285578 0.170876 -0.0815332 -0.0549751 0.182515 -0.0277443 -0.00871898 -0.0735639 -0.00522435 -0.0674239 -0.49314 -0.125881 -0.0944475 -0.090113 -0.160737 0.134543 0.144237 -0.018609 0.258902 0.19496 0.118162 0.16025 -0.0285422 0.159455 0.238842 0.221982 0.127436 -0.0830098 0.0502786 -0.0440745 -0.0427393 0.138198 0.0876836 0.0374668 -0.166938 -0.110275 -0.00910987 -0.0535925 0.206681 0.281413 0.168893 -0.00729427 0.0522418 0.0696654 0.249693 -0.0870333 -0.0486035 0.190506 0.0264578 -0.402603 -0.352879 -0.245912 0.187387 -0.130836 -0.283313 -0.131366 -0.100324 -0.179173 -0.112601 0.0900493 0.329403 0.177245 -0.241391 0.117961 0.143137 0.140557 0.0362847 -0.176524 0.0430571 0.0120961 -0.163199 0.333859 -0.105607 -0.0114408 0.128086 -0.312534 0.112257 -0.139597 -0.155046 -0.0608989 -0.352291 -0.282556 -0.0949358 0.211431 0.353931 0.0207858 -0.0581634 0.120122 -0.105464 -0.105598 -0.102844 -0.199346 -0.0994154 -0.0832581 -0.0617051 -0.031744 -0.126631 -0.0762449 0.0471193 0.232353 0.198856 0.132003 -0.00549616 0.284889 0.445625 0.383739 0.250047 -0.21969 -0.17018 -0.107545 0.0288558 0.0432064 -0.28165 0.0594803 -0.0712458 0.0383532 0.175062 -0.101421 -0.0483035 -0.208501 0.0296999 0.307626 0.105387 0.20661 -0.0794526 -0.0044321 0.156474 -0.0368754 0.209618 -0.0796296 -0.183667 -0.165259 0.314557 0.249963 0.248733 0.128737 0.119751 0.106722 0.105846 0.05295 0.221704 0.122587 0.150043 0.0535185 -0.00841296 -0.076588 0.102034 -0.0231812 -0.34056 0.0180979 -0.0845362 -0.152516 0.235231 0.218585 0.100213 0.208985 0.00896844 0.287683 0.333399 0.452081 0.494396 0.332747 0.0355123 -0.0984478 -0.0134908 0.0411997 -0.143016 -0.0423563 0.0741057 -0.0518767 -0.254576 0.0804598 -0.180321 0.0703377 -0.214145 -0.390591 -0.144639 0.111145 0.144581 0.00239302 0.0558286 0.141887 -0.0169657 0.309561 0.2691 0.121018 0.106202 -0.163738 -0.0220314 -0.0405853 -0.0518221 -0.146341 -0.393962 -0.127361 0.0649543 0.0247229 -0.0334083 -0.0728578 0.0020817 0.124405 0.362371 0.37575 -0.168381 0.0122792 0.067674 0.282171 0.268581 -0.453259 -0.145343 -0.165729 -0.155479 -0.161487 -0.154265 -0.150278 0.192123 0.110222 -0.110209 0.0470574 0.0502416 0.295441 0.242103 0.0014399 -0.0303512 0.135793 0.223042 0.12315 0.00760555 -0.217737 -0.100874 0.258709 0.0281721 -0.292221 -0.0332834 -0.0434641 0.13381 -0.260951 -0.335499 0.0725906 -0.0131516 -0.167158 -0.241388 -0.218276 -0.145801 -0.20929 -0.237957 -0.149707 -0.124546 -0.304563 -0.149574 -0.0745009 0.0756679 0.121025 -0.0348858 0.0488891 0.217171 0.106404 0.0707038 0.0727474 0.331367 0.359183 0.273898 -0.132698 -0.0134821 0.138323 0.177981 0.154987 0.127613 0.162421 0.239764 0.289708 0.267772 0.255046 0.283351 0.091043 -0.0225221 0.0886217 -0.202945 0.14116 0.0117128 -0.0558801 -0.175331 -0.239508 0.0743553 -0.146372 -0.24328 -0.319952 0.122294 0.238256 0.253772 0.132494 0.254048 0.225626 0.277853 0.120719 -0.0364859 -0.0876453 -0.154345 0.0149891 0.0115879 -0.250874 -0.378422 -0.248431 -0.307752 -0.415273 -0.219439 -0.0306073 0.124601 -0.120499 -0.0220934 -0.106694 0.0339637 0.211201 0.103709 0.0121036 0.139392 0.236739 0.423906 -0.017237 2.16039e-05 -0.021659 0.114706 0.0860821 -0.047622 -0.0516461 -0.0983517 -0.019243 -0.167972 -0.168734 -0.0890914 -0.0198303 0.198208 -0.062985 0.070208 -0.0413043 0.159335 0.0519226 -0.136472 -0.18406 -0.366548 -0.256474 -0.301131 -0.238838 -0.103701 -0.0748099 0.000417412 -0.0666024 -0.132037 0.0770871 0.0769017 0.27414 0.406774 0.340791 0.271483 0.143603 0.410368 0.328745 -0.0656698 0.0770489 0.352032 0.4016 -0.117795 -0.227239 
bias: 
-1.55501 -1.55581 -0.527968 -1.54609 -0.745654 -0.327281 -0.601225 -1.49252 -1.10498 -0.980846 -0.0708753 -0.358026 -0.445945 -0.457227 -0.557239 -0.915545 
weights: 
0.22163 0.196703 0.0980952 0.0929101 0.280714 -0.0624238 0.103954 0.165703 0.0963632 -0.0479931 -0.237281 -0.0349165 0.178963 -0.0156512 0.034672 0.0444408 -0.30734 -0.082389 0.00286185 0.293054 0.128721 0.0854651 -0.167328 -0.0297098 0.215399 0.0749038 -0.12391 -0.0566975 -0.119048 -0.0132383 -0.255961 -0.207349 0.270348 0.294968 0.0489816 -0.404772 -0.0694955 -0.105604 -0.319743 -0.107624 -0.0312157 -0.231083 -0.358208 0.0231894 0.167391 0.16802 0.111768 0.130971 0.221646 -0.112828 -0.00966519 -0.0388004 -0.357254 -0.0291228 -0.0333065 0.104585 -0.216242 -0.0537368 -0.251556 -0.17801 -0.216929 -0.0212782 0.0727022 0.421639 -0.13264 -0.151468 -0.0117225 0.102537 0.479488 -0.0324015 0.024954 -0.110726 -0.031754 0.196392 0.157812 -0.0226488 0.15756 0.0439354 -0.0589631 -0.0761514 0.108164 0.155147 -0.168371 0.186902 -0.0447268 0.0710032 0.280282 0.179161 0.488412 0.043639 0.0415931 0.164185 0.261187 -0.184559 -0.1178 -0.00134054 -0.0186913 -0.149244 0.14848 0.229239 -0.0756718 0.140682 0.274341 0.0842871 -0.107181 -0.221877 -0.0707049 0.242476 -0.146295 -0.192571 -0.233523 -0.472429 -0.00894372 0.11829 -0.0212292 0.0386408 -0.276348 -0.33221 0.0134106 -0.00766665 -0.124586 -0.127383 -0.199378 -0.117755 0.0991117 -0.0711702 0.0131473 -0.326166 -0.194243 -0.177536 -0.15766 -0.0736755 0.0737669 -0.28014 -0.486219 -0.39715 -0.00206573 0.287057 0.023799 -0.383402 -0.258587 0.117437 0.049843 0.0197579 -0.111622 -0.064401 -0.0580889 -0.0207392 -0.0296615 -0.106915 -0.144378 -0.127252 -0.190695 -0.277192 -0.327459 -0.0552527 -0.0669533 -0.215081 0.148137 -0.175496 -0.0944579 -0.0776811 -0.065843 0.0929705 -0.0343035 0.0326457 -0.227562 0.0101297 0.0502249 0.120313 0.00978925 -0.0939703 -0.000940732 0.0909775 0.223724 0.0691191 0.0335082 0.135958 0.0200793 0.0131887 -0.103038 -0.22214 -0.134642 0.318319 0.375659 0.0123218 -0.215047 -0.361282 -0.230458 0.0375821 -0.028671 0.234106 -0.139521 -0.408217 0.0741019 0.066755 0.228495 0.218595 -0.121673 -0.0413967 0.108889 -0.0332628 -0.0301672 0.0135582 -0.0971065 -0.0405726 0.154363 -0.0251063 0.00425997 0.101289 -0.0391155 -0.0147999 -0.552611 0.396811 0.121213 -0.0576181 -0.204812 -0.0798689 0.239439 0.0767471 -0.120818 -0.0298457 -0.21482 0.0527128 0.20371 0.0739169 -0.00691492 -0.0550217 -0.239788 -0.274258 -0.187284 0.00151991 -0.234467 -0.242056 -0.151971 -0.583255 -0.131726 -0.127764 0.0477669 0.041268 -0.00896034 -0.351005 -0.306931 -0.148151 0.0286756 0.0833937 0.0966949 -0.0561094 -0.227831 -0.0926582 -0.161887 0.0703805 -0.0526031 -0.275792 -0.206991 -0.275342 0.0911622 0.166823 -0.0489143 -0.391288 -0.383226 -0.21484 0.119654 -0.0698787 -0.377613 -0.102595 0.072885 0.341869 -0.0876857 -0.146613 -0.162114 -0.0133612 -0.165447 -0.144405 -0.131306 -0.171403 -0.153802 -0.0435693 -0.0196794 -0.056258 -0.1152 0.0391709 -0.0603043 -0.205182 -0.0597797 0.240412 -0.0532826 -0.813255 0.199712 0.0824819 0.093302 -0.122435 -0.185855 0.195573 0.152606 0.0343264 -0.28606 -0.271594 0.0893115 0.139256 0.0251859 0.0362959 0.0329272 -0.126441 0.0154528 -0.109339 -0.032291 -0.165382 -0.168684 -0.255101 -0.273421 0.159996 0.189281 -0.0861914 -0.392711 -0.199032 0.193859 0.174103 -0.0182221 -0.0838291 -0.130257 -0.00075506 0.198505 0.131718 -0.0490671 -0.09593 -0.0495211 -0.0704684 -0.0917059 -0.0970468 -0.164822 0.0186987 0.177055 -0.164283 -0.0719396 0.0755264 0.0694562 -0.0382522 -0.113012 0.187097 0.226231 -0.135605 -0.566362 0.308523 0.271011 0.15458 -0.0972627 -0.193504 -0.0715507 -0.0769853 0.0458247 -0.0416618 -0.0992134 0.199961 0.0263405 0.14768 -0.236849 -0.480146 -0.138267 -0.0817984 -0.120513 -0.126372 -0.257967 0.0511734 -0.0378582 -0.198729 0.161771 0.0835737 0.109842 -0.172833 0.0520077 -0.00213076 -0.000402853 0.0336826 -0.00427818 0.0648773 0.074679 -0.000214376 -0.241333 -0.22814 0.162738 -0.0778994 -0.302939 -0.122206 -0.10548 -0.315771 -0.143047 0.119374 0.206034 -0.149024 -0.298574 0.065179 0.173008 0.0110005 -0.0476084 -0.0680728 -0.152318 -0.235898 0.0785908 0.0871168 0.171039 -0.0232714 0.0989355 0.0806706 0.167061 -0.185798 -0.0211128 -0.335063 0.0160438 0.0136235 -0.175541 0.0518761 -0.136712 0.0124729 -0.0278591 -0.318739 -0.0458232 -0.101778 0.130625 -0.0413289 -0.119888 0.153419 0.114604 -0.171372 0.0440221 0.00761038 -0.0138555 -0.183199 -0.137156 0.149856 -0.125136 -0.13946 -0.385958 -0.0301309 0.00396438 -0.142159 0.0380567 0.0574227 -0.179651 -0.0453952 -0.203672 -0.144938 -0.103186 -0.0642987 -0.171633 -0.102142 0.149695 0.0704714 -0.201544 -0.0211307 -0.0164643 -0.108078 0.101591 -0.0316257 -0.0686145 0.0864688 0.104292 -0.181526 0.0832596 0.00251085 -0.0788708 -0.124371 -0.0404277 -0.034505 -0.0467082 -0.0616882 0.0855452 0.085066 0.172284 0.110801 -0.281267 0.0763914 0.0197564 0.0941079 -0.0465806 -0.147675 0.0786965 0.31201 0.363113 0.251857 -0.196676 0.049566 0.00211709 0.219714 0.112461 -0.276625 0.169317 -0.319869 0.359006 0.00182925 -0.116299 0.300775 0.0191023 0.141215 -0.21032 0.0502037 0.369879 0.230969 -0.00356886 -0.151152 -0.0193197 0.14084 -0.240139 0.182866 -0.0531652 -0.115263 0.0228696 -0.218528 -0.100167 -0.0408575 -0.148743 0.063138 -0.0486072 -0.14231 0.274359 -0.16798 -0.0602589 -0.0947195 -0.0260267 0.290967 -0.0686722 -0.0528391 0.0193091 -0.142343 -0.0948375 0.0711363 -0.104898 0.0540376 0.00825232 -0.0580979 -0.0931868 0.0761857 -0.209662 0.166898 -0.115955 -0.0242319 0.0286888 0.214045 0.149019 -0.106924 0.190153 0.070769 0.279471 0.114233 -0.0957567 -0.0534132 0.0691803 0.0155659 -0.226425 -0.0882445 -0.140049 -0.126835 -0.140631 -0.101741 -0.0909416 -0.331386 -0.126671 -0.192023 -0.633987 -0.0611302 -0.380732 -0.106609 -0.100902 -0.228298 -0.0395133 -0.226223 -0.0495179 -0.299363 -0.187492 -0.0149865 -0.0821568 -0.0143387 -0.068145 0.051222 -0.0796878 -0.00202681 -0.0652321 -0.320816 -0.228887 0.00476425 0.0515459 0.0553244 -0.153188 -0.125072 -0.11525 0.22472 -0.19561 -0.300581 0.184893 -0.115731 0.134601 -0.275908 -0.0959476 -0.0437977 -0.245878 0.00249256 -0.17977 0.0471813 0.154477 -0.0785186 -0.175655 0.138576 0.206138 0.218574 0.121525 -0.0350367 -0.0767922 0.32476 -0.0769332 0.193586 -0.0457264 -0.224775 0.302089 -0.370964 0.0394512 -0.116735 -0.124356 0.081784 -0.103409 0.17538 -0.0824356 0.0465857 -0.182336 -0.0889601 0.000185418 0.123929 -0.135147 -0.0567224 0.100501 0.130777 -0.006577 -0.191153 -0.237978 -0.00148381 0.123983 -0.0347147 0.0332688 0.097584 0.0725265 0.105097 -0.0210778 -0.0900004 0.0125845 -0.0448721 -0.0325675 -0.162696 0.00162772 0.269881 -0.0184868 -0.325178 -0.0309679 0.0525979 0.173862 0.299769 -0.0161692 -0.220075 -0.0228365 -0.00943206 0.0283014 -0.141151 -0.209709 0.341243 -0.348888 0.157846 -0.154251 -0.0447906 0.310638 -0.0590352 -0.138598 -0.0190517 -0.00613676 -0.332692 -0.00753778 -0.16042 -0.125665 -0.172149 -0.227608 -0.235283 -0.167254 -0.0465676 -0.0857628 -0.156497 -0.132759 -0.328985 -0.0355238 -0.329075 0.0273936 -0.0981822 -0.478508 0.0374327 -0.209405 0.0392775 -0.0290215 -0.431944 0.0168104 -0.0169165 -0.0115289 -0.220511 -0.114785 0.0818039 -0.13799 -0.0412082 -0.0710599 0.0862084 -0.0556024 -0.00492071 0.049561 0.085441 0.234023 0.00731998 0.132332 0.154107 -0.0348685 0.139107 -0.171432 0.141671 0.199402 0.199042 0.111628 -0.0295882 0.0965124 0.00381511 0.230574 0.000777169 -0.182612 0.083422 0.0188518 0.0617662 0.265649 0.00718783 -0.134865 -0.391363 -0.175598 -0.293607 0.00970546 -0.143968 -0.217558 0.113686 -0.229269 -0.0267176 -0.138756 -0.243578 -0.149118 -0.609529 0.290498 0.0331126 0.0304338 -0.186161 0.0198092 0.0148427 -0.298887 -0.0599588 -0.0972205 -0.330272 -0.11188 -0.0115231 -0.112416 0.0581733 -0.0774006 0.0341925 -0.0987278 -0.438538 -0.295459 -0.274256 -0.117853 0.00916755 -0.323456 0.0464867 0.0313974 0.0706019 0.0276706 -0.255362 -0.0900692 0.230324 0.168629 -0.156921 -0.0548608 0.102267 -0.0610511 -0.199609 0.0494987 -0.0402782 0.189231 -0.0307973 0.0286922 -0.16301 0.0315481 0.102917 -0.0974235 -0.0146298 0.00517696 0.0292508 0.121061 0.10476 0.20763 -0.121619 -0.162012 -0.137304 -0.15145 -0.201621 0.224724 0.426095 0.253501 -0.0220797 -0.0410776 0.547647 0.429613 -0.183377 -0.268771 -0.159068 -0.0955306 -0.0265155 0.198532 0.0537673 -0.0547796 -0.657496 -0.266115 0.000379505 0.321519 0.340981 0.199985 0.204747 0.27221 0.404541 0.480141 0.241253 0.281066 0.328231 -0.0831627 -0.1435 0.555157 0.543598 0.442373 -0.0873402 -0.188106 -0.0797908 0.0355221 0.212565 -0.0837634 0.186598 -0.237022 0.107132 0.252227 0.248062 0.360036 0.242659 0.156624 0.0228635 0.0284417 0.189412 0.0199389 -0.0303545 -0.209186 -0.15878 0.0537535 0.0621698 0.0996378 -0.0476521 0.0344728 0.0163273 -0.0576173 0.204188 0.368863 0.191218 0.07243 -0.372618 -0.239532 -0.242106 -0.159443 -0.0413704 -0.176488 -0.20069 0.14846 0.0915892 0.0395209 0.0121089 0.140587 0.080126 -0.174885 0.201626 -0.0790239 -0.0224668 -0.0261602 0.0506408 0.1911 0.0320925 -0.252751 -0.0940721 -0.0819789 0.150167 0.188508 0.0762009 -0.292453 -0.20201 -0.0987835 0.0542997 0.0345613 0.086807 0.169787 -0.0797045 0.223772 0.395653 0.342328 0.280753 -0.0406936 0.139842 0.213366 0.189231 -0.0735968 -0.193474 -0.487436 -0.00688816 -0.0342127 0.0416683 -0.101657 -0.149447 -0.3604 0.00677235 -0.0488538 0.34102 -0.0925336 -0.0261077 0.185893 0.31667 0.0238957 0.0116188 -0.0884377 -0.251863 -0.151156 -0.199409 0.471472 0.246637 -0.0204875 -0.305395 -0.0576323 0.0581881 0.044279 -0.199861 0.251246 0.0604337 -0.133209 -0.443601 -0.196259 0.0802402 -0.213194 0.0257813 0.17795 0.0410456 -0.0503654 -0.0969126 -0.136011 -0.169931 -0.0229703 0.00874866 -0.236244 0.0530324 -0.0707973 -0.0220529 -0.300077 -0.180768 -0.106106 -0.20387 -0.23034 -0.0088155 0.212548 -0.161552 -0.0521281 -0.330651 0.00840592 0.76682 0.0892525 -0.0151795 0.133319 0.266118 0.308367 0.243719 0.109343 0.238978 -0.0976937 0.064375 0.245598 0.209847 0.20158 -0.0412182 -0.162837 -0.0646996 -0.163957 -0.336465 -0.158029 0.142573 -0.0244358 0.0209076 0.210379 0.158604 0.134152 0.053811 0.0699319 -0.0983496 -0.23527 0.157412 -0.163835 -0.0638896 0.0844045 0.0211773 0.0814443 -0.106322 -0.0994796 0.189058 0.17311 0.205588 -0.1664 -0.242793 0.286756 0.15631 -0.00371555 0.100295 -0.0515472 -0.0431657 -0.351243 -0.185675 -0.0136831 -0.170821 -0.122497 0.0457717 0.0593864 0.123266 0.121501 0.214137 0.0591979 0.0300715 0.413548 0.369849 0.189486 0.247827 -0.0327927 0.0819877 0.0334113 0.28123 0.0298518 0.0490349 -0.453685 -0.208151 -0.0936615 -0.0209578 -0.0401882 0.0358083 0.250584 0.187514 -0.13753 -0.270073 -0.113824 -0.000588667 -0.178685 0.0911811 -0.0189325 -0.0904076 0.0571519 -0.138965 -0.117148 0.22165 -0.325804 -0.443511 -0.190448 -0.0119573 0.0580038 -0.130528 -0.214334 0.001075 0.0938635 -0.319364 -0.191775 -0.222957 0.12115 -0.104469 -0.320065 0.0972617 0.0982105 -0.0359342 -0.317398 -0.225342 -0.204432 -0.358635 -0.115165 -0.298875 -0.183908 -0.148172 -0.312421 0.049394 0.0317103 0.108037 -0.0696445 -0.0245163 -0.0504974 0.175026 0.491958 -0.0965601 -0.610873 -0.642249 0.099072 0.407276 -0.153485 -0.0523367 -0.217189 0.0661511 -0.201083 0.196144 -0.0196447 -0.198506 -0.213486 -0.0152276 0.44062 -0.102229 0.00208397 0.157023 0.190078 -0.109794 -0.176835 -0.11083 0.0777638 -0.176469 -0.0706454 0.43243 0.127697 -0.295897 -0.158927 -0.0253012 0.2938 0.138752 0.0109351 -0.0814152 0.217906 0.107939 -0.061063 -0.243698 -0.168848 -0.247168 -0.23967 0.115728 -0.00500142 0.00422554 -0.190012 -0.11284 0.0602048 -0.0906122 -0.132075 0.162126 0.000716335 -0.186416 0.0120866 0.675852 -0.0475706 -0.131511 -0.0790963 -0.00203592 -0.0344455 -0.142493 -0.15468 -0.169513 0.0162101 -0.259064 0.198307 0.398221 0.0486393 -0.180628 -0.282138 0.223274 0.108097 0.161504 0.115129 0.281865 -0.174587 -0.252262 -0.205169 0.015938 0.17286 -0.141346 0.110775 0.0126265 -0.221167 -0.276972 -0.013908 0.077046 0.12994 0.0244371 0.014664 0.36857 0.0783825 -0.0306928 0.132961 0.219275 -0.187977 -0.23227 -0.386759 -0.215612 0.304286 -0.236335 0.0243628 0.100716 0.00347133 0.0496292 0.110479 0.252648 0.291341 -0.0218858 0.0910063 0.369398 0.475177 -0.194728 -0.0743303 -0.208182 0.0354326 -0.146808 -0.272284 0.136227 0.319195 0.629405 0.616429 0.436768 0.090473 0.0272777 -0.203406 0.167764 0.0775311 -0.202846 -0.309674 0.179564 0.275801 0.196369 -0.255549 -0.277833 0.415993 0.339966 -0.0744245 -0.0806318 0.123837 0.0163201 0.413254 0.41079 0.304895 0.0832314 0.0181741 0.223182 0.238353 -0.023663 -0.0650294 -0.0107581 -0.00808778 -0.166267 0.258079 -0.0143799 -0.0156367 -0.062479 -0.130073 -0.110276 0.0126742 -0.0576238 0.0203449 -0.0772865 -0.451173 -0.235767 -0.224503 -0.0410162 -0.0835977 -0.241682 0.250418 -0.0401324 0.516117 0.0543487 0.0568193 -0.0432039 -0.272134 -0.190927 0.0464657 -0.174164 0.0196999 -0.0335964 0.305214 0.0270773 0.151197 0.303201 -0.254583 0.0190101 -0.318962 -0.130421 0.156273 -0.126521 0.251274 -0.418367 -0.236534 -0.186355 -0.393894 -0.0698766 -0.0532007 -0.420714 0.110902 -0.22799 0.00131177 -0.359804 -0.0665511 0.0768894 0.105109 0.221647 0.116019 0.00633556 -0.138425 -0.134614 0.333872 0.624595 -0.11854 0.132328 0.364621 0.332446 0.08242 0.142341 0.233396 -0.427686 0.299109 0.62084 0.300289 -0.092019 -0.212379 -0.473197 0.33441 0.115927 -0.197772 -0.139358 -0.184676 -0.434495 -0.274177 -0.0524955 0.234361 -0.033813 -0.406696 -0.255871 -0.162492 0.230428 0.272944 0.165563 -0.344579 -0.0143264 0.228462 0.467725 -0.0616798 -0.145096 -0.0536712 -0.316049 0.0631208 0.0981653 -0.114901 -0.224242 -0.392306 -0.284778 -0.193162 -0.032048 -0.116868 -0.233342 -0.202533 -0.0176303 -0.278271 -0.225759 -0.19062 -0.0964989 -0.35602 0.0772096 0.0933553 -0.31039 -0.33797 -0.00699141 0.0293129 0.103111 0.022647 -0.19949 -0.0405706 0.256848 0.124117 0.123116 0.529121 0.239163 -0.0291839 -0.165954 0.141932 -0.0011067 0.12986 0.204588 0.23622 0.111938 -0.0677913 0.243204 0.0788379 -0.0170964 0.478818 0.283312 0.0933184 0.00442736 0.029767 0.7694 0.532698 -0.0582711 -0.145666 -0.0428728 0.0226506 -0.341726 -0.0358153 0.185547 -0.00436519 0.0510052 -0.320174 0.122744 -0.0290066 -0.111134 -0.141939 0.110523 0.343098 -0.30447 -0.343096 -0.424024 -0.279926 0.185863 0.0905537 0.0941655 -0.353606 -0.396163 0.252077 0.177524 0.132785 -0.225187 0.144425 -0.03173 -0.10718 -0.243438 0.354598 0.633992 -0.101744 -0.391674 -0.178513 0.03386 -0.217006 -0.122564 -0.0055779 -0.0264146 -0.090909 0.427012 0.36647 0.0896203 -0.0280383 -0.0668125 -0.217421 -0.263979 0.109704 -0.0291131 -0.124077 -0.110292 -0.160146 -0.102765 -0.105778 -0.171359 0.019233 -0.481233 0.129935 -0.0324867 0.436832 0.203298 -0.420116 -0.058283 -0.123193 -0.0726845 -0.116846 -0.269153 -0.12141 -0.1029 -0.223003 -0.284559 -0.00269592 -0.151283 -0.161974 0.0537542 0.0525455 -0.28547 -0.137944 -0.166859 -0.191593 -0.0153549 0.118491 -0.0408354 0.190244 -0.305834 -0.0987627 -0.219356 -0.0612088 -0.0870381 -0.0551671 0.0139342 -0.207193 -0.0151041 -0.334667 0.274054 -0.131385 0.0642223 -0.0347501 0.0827888 -0.260253 -0.0582433 -0.364224 -0.11387 -0.271495 -0.0818187 0.144875 -0.198381 -0.292664 -0.0641224 0.107337 0.133378 -0.116608 -0.116141 -0.199865 0.0409428 0.2239 0.182088 -0.0791582 -0.00786358 -0.335388 0.0637301 0.159042 0.129478 -0.0330382 0.126508 0.183266 -0.236209 -0.225524 -0.261626 0.294136 -0.0813227 -0.24066 -0.141372 0.00658328 0.00670857 -0.0683894 0.131818 -0.206629 -0.0177502 -0.0993342 -0.205204 -0.0243234 0.264699 -0.00878723 0.0259497 -0.477174 -0.267609 -0.0606765 -0.0785707 -0.0238976 -0.184522 -0.315289 -0.179678 -0.101082 -0.118408 -0.257065 -0.0689179 -0.141276 0.00593835 0.0172622 -0.04205 -0.0943706 -0.191133 0.202093 0.0613049 -0.0393868 0.133238 -0.0598685 -0.0128225 0.397388 0.183575 0.243875 -0.072901 -0.104834 -0.304965 -0.386265 -0.0887766 -0.238529 -0.110243 -0.0607506 0.193299 0.0161846 -0.172611 0.21856 0.133855 0.169291 0.0168363 -0.0428183 0.19773 -0.0492628 0.379339 0.328033 0.168223 -0.105796 0.160301 -0.000343888 0.107535 0.127706 0.00332969 0.181809 0.143539 0.0755387 -0.0665913 0.00787695 0.232267 -0.152743 -0.310025 -0.451738 -0.000371395 -0.0271406 -0.124382 -0.0137941 -0.299848 0.0433987 0.236248 0.397234 0.0214736 0.117622 0.440493 -0.123129 0.0902044 -0.029308 -0.0782981 0.0596056 0.161529 -0.107956 -0.289196 -0.329715 -0.0220219 -0.0357089 -0.464425 -0.569326 -0.827109 -0.0683279 0.187666 0.0305734 -0.0396831 -0.076152 0.206262 0.0846598 0.0747094 0.113442 0.432554 0.232266 -0.354372 -0.171157 0.16508 -0.305243 -0.277579 -0.176556 -0.0323007 0.102112 0.15776 -0.0798056 0.101548 0.0596793 0.105439 0.303607 -0.21215 -0.20531 0.220395 -0.150535 0.0846807 -0.0311266 -0.0592033 -0.172767 -0.147116 -0.0118361 0.0218254 -0.0666205 0.285934 0.295199 0.171263 -0.0618803 -0.0361932 0.0171474 0.582739 0.802756 0.213584 0.211826 0.201444 0.104756 0.274076 0.117265 -0.0326176 0.0691657 -0.0680489 -0.13021 0.086771 -0.184038 0.111886 0.0263999 0.0710927 0.0857306 -0.244524 0.177055 0.374363 0.252834 0.0294716 0.0603882 0.0400616 0.130946 -0.0562255 -0.443076 0.0140278 0.0970612 -0.109778 -0.265712 -0.20603 0.0804887 0.0491973 -0.129482 -0.0974849 -0.240271 -0.0842086 -0.0778567 0.346977 0.0529769 0.187472 -0.068956 -0.0585 -0.0659682 -0.0895745 -0.228352 -0.0901309 0.0826478 0.230051 0.000976661 -0.374869 0.189598 -0.219768 0.0287274 -0.121526 -0.177762 -0.285236 0.222604 0.107448 0.120521 -0.0478225 0.108986 0.120855 -0.0186308 0.189769 0.0572497 -0.070701 0.0140971 -0.0550458 -0.340665 -0.161513 -0.056385 -0.226994 -0.334692 -0.0843848 -0.0485672 -0.0393805 -0.14489 0.00471358 -0.102242 -0.0737265 -0.105417 -0.0544871 -0.092437 0.130862 -0.0645873 -0.243429 0.00726651 0.290506 -0.167454 0.372718 -0.24989 -0.102866 -0.366649 -0.185224 -0.186317 0.162836 -0.253455 -0.68802 -0.549659 -0.0871978 0.253676 0.216781 -0.350818 -0.707482 -0.239132 0.22108 0.30016 0.299633 0.0460602 0.158902 0.199533 0.435007 0.0969933 0.17612 0.220491 -0.083107 -0.406026 -0.251846 0.0800391 0.123448 -0.0579372 0.202753 0.146828 0.6162 0.237301 -0.279233 0.214051 -0.0334742 0.580122 0.243064 0.0062508 -0.0547919 -0.246007 0.0585713 -0.205363 0.0127651 -0.21898 0.297959 -0.0388684 0.115645 -0.0918033 0.0744076 0.0256335 0.0670166 0.0467647 -0.134502 -0.206052 -0.29883 -0.226667 -0.221754 0.017962 -0.16565 -0.594134 -0.690957 -0.115208 -0.255706 -0.0299612 0.0156111 -0.296043 0.0583327 0.195315 0.490063 0.368603 0.281983 0.193713 -0.138272 -0.10228 0.0972963 0.282876 -0.153097 0.12123 0.147301 0.455546 0.034778 -0.364531 -0.100423 0.00923256 0.343512 0.106159 -0.151505 -0.0889112 -0.300494 0.199005 0.109939 -0.0838543 -0.08378 0.123153 0.103206 -0.17484 -0.0542855 -0.213819 -0.0533952 -0.0948366 -0.170539 -0.152505 0.101708 -0.108498 -0.429612 -0.017609 0.32916 0.0698733 -0.0619065 -0.100289 0.318702 0.195927 0.260865 -0.123296 0.0107412 0.161894 0.248161 -0.126998 -0.202701 -0.141708 -0.17062 -0.270741 -0.162754 -0.464075 0.0958879 0.121902 0.103379 -0.12603 -0.0639084 0.211564 0.0158494 -0.286577 0.00624717 0.0262023 0.0971716 -0.117516 -0.174274 -0.034261 0.0652975 0.0390336 0.064944 -0.100617 -0.0648604 -0.0902452 -0.0925088 -0.0102457 0.0293931 0.1462 0.0296052 -0.0781916 -0.155161 -0.118761 -0.0196779 -0.0597808 -0.209366 -0.199041 0.0479134 -0.0476495 -0.265072 -0.488009 0.280112 0.356885 0.076867 0.0586451 -0.289355 0.0510142 -0.0786302 0.290023 -0.0547136 0.288405 0.195568 -0.0825994 -0.216553 -0.0273568 0.100086 -0.206797 -0.133515 0.189018 -0.00614917 -0.0793529 0.0602694 -0.207572 0.148436 0.0531461 -0.137537 -0.0222117 -0.0969404 0.13685 -0.00226715 0.0558502 0.0667701 -0.107348 -0.213541 -0.401541 -0.505471 -0.228135 -0.393428 0.14826 0.0215726 0.165663 0.236374 0.253324 -0.123685 0.0285337 0.0636846 -0.103303 -0.360297 -0.159166 -0.00499144 -0.123959 0.0218278 -0.120762 -0.216099 -0.418023 -0.271073 0.0343014 -0.0502806 -0.0382465 0.103375 0.0424145 -0.00518072 0.171976 0.0563573 0.0424605 -0.142631 -0.00601519 -0.156476 0.00474631 -0.0174573 0.190707 0.00944039 0.0389339 -0.0737224 -0.403369 0.0101487 0.586599 1.09654 0.237858 -0.0706492 0.386698 0.575162 0.60598 0.294314 0.660162 0.391691 0.0160975 -0.109142 -0.0495759 0.149267 -0.0810873 -0.0769293 -0.0225239 -0.144255 -0.00723227 0.189937 0.589417 0.678723 -0.279692 -0.21289 0.267477 0.427251 0.668884 0.245105 0.287896 0.271216 -0.104902 0.0234615 0.376631 0.20008 0.15048 -0.302579 -0.392522 0.0839724 0.0340569 -0.082231 0.0528078 -0.322739 0.0316147 -0.11015 0.211627 0.133019 -0.298187 0.0451729 -0.164036 -0.155099 0.0778028 0.0974099 -0.0983133 -0.0274229 -0.254527 0.293722 0.118915 0.0477956 0.194347 0.132538 0.181256 0.0361221 -0.0763216 -0.132531 0.0722834 0.179518 0.0608317 0.0255934 0.0155977 -0.0705204 -0.0880448 0.0704313 0.0637653 0.16635 -0.206876 -0.523323 -0.395102 -0.25347 -0.169004 -0.284909 -0.196196 -0.116218 -0.133633 -0.43517 0.101222 -0.0538405 0.0547755 0.0770522 -0.065078 -0.163474 0.140354 -0.0498485 0.0608581 -0.309108 -0.0241308 0.221715 0.0234751 0.0758336 0.0388568 -0.145418 0.380097 0.635148 0.0937759 0.351931 -0.186778 0.451926 0.263087 -0.107542 0.0219357 0.288728 0.000706632 -0.0321268 -0.203837 -0.0709184 -0.0763604 -0.0703877 -0.140608 -0.261714 -0.063083 0.542567 0.282099 -0.401317 0.0154191 -0.177005 0.300001 0.357457 0.108401 0.136056 0.163265 0.108586 0.0105701 0.0106201 0.0927812 0.204931 -0.130681 0.153385 -0.104337 0.177428 0.265525 -0.00451539 -0.121604 -0.0754375 -0.205961 -0.202901 0.00289377 0.154335 0.446703 -0.230588 -0.0386806 -0.335971 -0.233479 0.672789 -0.159473 0.00701428 -0.162725 0.0231318 -0.0600537 0.0769852 -0.27139 -0.045096 -0.19593 -0.0681727 0.134258 -0.0469834 0.0839464 -0.0992945 -0.184665 -0.0898678 -0.0370657 -0.118041 0.200523 0.213203 -0.0846575 0.272599 0.461668 0.0818986 -0.091287 0.100552 0.252475 0.266497 0.40984 -0.12059 0.322312 -0.0666571 -0.133438 0.0515966 0.0667998 0.236077 0.328986 -0.180912 0.171061 -0.0726074 -0.116625 0.0992586 0.190687 -0.190693 0.0268564 -0.165664 0.150285 -0.244122 -0.427225 -0.150664 -0.258819 -0.0769511 -0.452801 0.138798 0.687742 -0.334169 0.0682335 0.221377 0.0444403 0.317506 -0.0168213 0.0822387 0.0940933 0.0040615 0.0943191 -0.25576 -0.187197 0.406979 0.526019 0.240065 -0.108968 -0.0875178 0.0335121 0.564355 0.528981 0.156813 -0.157561 0.197883 0.353261 -0.19081 0.210198 0.419501 0.0671644 0.120255 -0.0364425 -0.123962 -0.00705679 -0.0230968 -0.195221 -0.205928 -0.00811345 -0.017467 0.229777 0.292071 -0.0365904 -0.143489 0.0359634 0.234489 0.319913 0.234722 0.18991 -0.194725 0.0310963 -0.310235 -0.187739 -0.120475 -0.23362 -0.0228269 0.149381 -0.161649 -0.172428 0.079148 -0.281497 -0.153703 -0.14252 -0.0843 -0.307723 -0.191176 0.166206 0.486686 -0.15852 -0.0499361 -0.153983 -0.488932 -0.0771326 -0.131405 -0.0889464 -0.207366 -0.469456 -0.219485 -0.0844851 0.17094 -0.350872 -0.0626109 -0.0714241 -0.0095387 -0.220504 -0.229067 -0.108094 0.408869 -0.220241 -0.137697 0.2443 0.401556 -0.231677 -0.123043 -0.214189 0.00446308 0.220962 -0.294669 -0.020444 -0.17534 -0.161268 -0.0751466 0.147833 0.00492751 0.233279 0.00105597 0.0839795 -0.174472 0.0194018 0.165941 0.171356 0.0010667 -0.110051 -0.236336 0.0756935 -0.0719329 -0.0877076 0.0708732 -0.232007 -0.160553 -0.167858 -0.106364 0.466077 -0.110322 0.0482463 0.00587761 0.0339847 0.12037 0.0396238 -0.137466 0.153769 -0.134394 -0.194491 0.141876 -0.0368902 -0.0152373 -0.023917 0.154847 -0.313503 0.151919 0.118919 0.028971 0.303292 -0.31364 0.292204 0.35498 0.293312 0.0892602 -0.114898 -0.0703503 -0.137414 0.0240197 -0.0622037 0.267959 0.225589 0.107053 0.0253363 -0.25083 -0.100388 0.0592323 0.075357 0.0361727 0.0258366 -0.332691 0.108558 0.0764288 0.303679 0.202589 -0.278588 -0.334454 -0.25403 0.293802 0.375796 -0.104087 0.0564329 -0.095821 0.341204 0.132077 -0.0643922 0.275044 0.121897 -0.135895 -0.00296885 0.187919 0.345758 0.067304 -0.144495 -0.0423614 0.0178054 -0.0851491 -0.109698 0.139249 0.183652 -0.235798 -0.251109 -0.411695 -0.0698833 0.218011 0.0029459 -0.108193 -0.0253247 -0.00144838 0.131274 0.412208 -0.34562 0.117979 0.0801162 0.0745616 0.0984706 0.184165 0.093318 0.079697 0.0296561 -0.000520504 -0.102217 -0.0975241 0.256905 0.436887 -0.0131808 -0.192554 -0.368914 -0.0818074 0.0817277 -0.115234 -0.142315 -0.00506581 0.132856 0.214828 0.15776 0.0703119 -0.00739247 -0.136048 0.25348 0.0176341 -0.0130007 -0.0603257 0.274822 0.0925136 -0.0258193 0.0168262 -0.0578711 0.0390175 -0.176997 -0.0130319 0.152686 0.0140748 0.113072 0.345895 -0.155881 -0.114834 -0.147348 -0.200742 -0.161615 -0.143938 -0.149924 -0.21934 -0.273551 -0.278372 0.115509 0.221682 -0.0599788 -0.160094 -0.0499601 0.117068 0.254853 0.255642 0.176309 0.0460724 0.0925602 0.157764 -0.0911961 -0.0483465 -0.109308 0.0575343 0.181874 -0.0895041 0.0534429 -0.118934 0.294755 0.185834 -0.102743 -0.141081 0.0237012 0.202221 -0.115891 -0.267931 -0.164629 0.139406 -0.0183628 -0.105621 -0.0339524 -0.103647 0.186006 -0.167238 -0.358177 -0.325742 0.0788689 0.429337 0.0610215 -0.141591 -0.114987 0.123123 0.193323 0.0614934 0.226853 -0.112683 -0.156365 -0.0723988 -0.249663 -0.0685047 0.220899 0.159142 0.136949 -0.139472 0.193732 0.156806 0.246297 -0.0720731 -0.0417502 -0.229718 0.170996 0.101286 -0.229669 -0.226724 -0.16526 -0.103328 -0.191741 -0.206155 -0.0263449 -0.351715 -0.436445 -0.297184 -0.160317 0.0538827 0.0881901 0.182802 -0.0198177 -0.147375 -0.0545142 -0.147681 -0.0837401 0.0623861 0.401129 -0.167505 -0.217266 -0.181413 -0.012162 0.150611 -0.0849992 -0.111345 -0.216089 0.0875382 0.0590441 0.0180453 -0.0287212 -0.0882528 -0.136743 -0.0250222 -0.100487 -0.035015 0.190692 0.280945 0.167232 -0.0637849 -0.0587727 -0.425657 -0.094989 0.0899002 0.115063 -0.20904 -0.207904 0.00303807 -0.354155 -0.0319307 -0.193079 0.117109 0.163202 -0.0461595 -0.079909 0.0660075 0.159129 0.0352198 -0.0301609 -0.207394 0.0715697 0.0258939 -0.128569 0.0267362 0.130021 -0.0706027 0.324307 0.126 0.084547 0.0152113 0.0693802 0.219972 -0.193396 0.0553415 -0.140791 0.0585791 -0.167552 -0.292552 0.0790321 -0.104583 0.0439079 -0.278988 -0.0464892 0.0356676 -0.287371 0.0868296 0.0633897 -0.11835 -0.0672135 -0.185915 0.0399835 0.147301 0.546063 0.558524 -0.1983 -0.0686015 -0.0775645 0.135002 0.078993 -0.27752 -0.296909 -0.196642 -0.121451 -0.178096 0.0176441 -0.19277 -0.261146 -0.296113 0.0465184 -0.104797 0.0565619 0.0486709 -0.0258232 -0.0737432 -0.0856821 0.129404 0.368453 0.0499935 0.0984374 -0.0801501 0.122269 -0.0749944 -0.138813 -0.163057 0.107318 0.095105 0.0210317 -0.206882 -0.0828266 0.1221 -0.236905 -0.279574 -0.0366258 -0.0464588 -0.109683 -0.0229308 -0.0377641 -0.0912598 -0.0832538 0.079091 -0.205334 -0.152056 -0.397877 -0.156706 -0.0582109 -0.0838441 -0.0607161 -0.126077 0.0590298 0.0246155 -0.227216 -0.111959 -0.274696 0.203541 0.00323013 -0.0678556 -0.197135 0.112259 0.176005 -0.171364 0.00978133 -0.085002 -0.203654 0.0622596 -0.0117574 -0.142424 0.0475717 -0.00751276 -0.105247 -0.155267 0.151474 0.427385 0.0588074 -0.008425 0.0424334 -0.249338 0.225209 0.000706972 -0.2412 0.0240698 -0.188279 -0.11631 -0.183088 -0.17544 0.0498413 -0.0717013 -0.0423947 0.14454 -0.00416702 0.182915 0.186532 0.249055 0.217362 0.207975 -0.0619906 -0.28313 -0.146052 -0.330274 -0.12236 -0.0658208 -0.0137517 0.0858527 -0.361638 0.149561 0.123406 -0.0623614 -0.400991 -0.0959994 0.0569448 -0.203246 -0.0435032 -0.0700607 -0.0117062 -0.137984 0.0803292 -0.173525 -0.316992 -0.281936 -0.178929 0.129314 0.0818949 0.030703 0.113867 0.208648 -0.0994607 0.0284169 -0.0615654 0.0363884 0.19278 -0.210374 0.2635 0.205916 0.0825433 -0.0333079 0.0591241 -0.126037 -0.308251 -0.183078 -0.0274848 -0.0265751 -0.0679097 0.0151426 0.0513179 0.321865 -0.175144 0.171275 -0.0255162 0.403334 0.439733 -0.340408 -0.131332 -0.363391 -0.114932 -0.13093 -0.285204 -0.430863 -0.41806 -0.126536 -0.215707 -0.0390393 0.135756 0.14795 0.233652 0.0985043 0.0830338 0.131028 0.158759 0.0124446 0.0699771 0.475682 0.0737286 -0.072813 -0.366409 -0.12965 0.0366426 0.0999305 0.524798 0.11801 0.142661 0.167928 -0.294695 -0.586767 0.158819 0.183671 -0.263396 -0.127285 -0.165169 0.0198987 0.0785715 0.149478 0.167782 0.121717 0.0683545 -0.03097 0.409226 0.428151 0.481759 0.545868 0.187991 -0.0106685 -0.000132126 -0.035531 -0.389695 0.109549 0.230505 0.0400057 -0.311282 0.19185 0.224615 -0.548577 -0.342419 -0.582816 -0.426255 -0.251142 -0.0564759 0.109533 0.169779 0.167973 0.00924711 0.164474 -0.0503772 0.0381227 -0.25377 0.0655722 0.0604517 0.124583 0.214164 0.120553 -0.124587 0.0248335 -0.299481 0.0809226 0.0989267 -0.158159 -0.0456755 0.109291 0.0225886 -0.0146278 0.0714862 0.0108259 -0.155123 -0.115775 0.0079415 0.00887549 -0.126706 -0.0886232 0.112371 -0.077594 0.0703356 0.0505771 -0.0154263 0.503279 -0.268148 -0.0173264 0.012598 0.308162 0.194807 -0.0453651 0.0223222 0.0764934 0.332553 0.290773 0.0524888 0.101549 0.164043 -0.0228464 0.127214 0.115645 0.238482 0.0332874 0.224225 0.128189 -0.345953 -0.0329284 -0.0302071 -0.212626 0.119999 0.19684 0.0435617 -0.0903142 0.169331 -0.339428 -0.268493 0.111186 -0.319409 -0.21329 -0.0921784 -0.120466 0.0862117 -0.164696 0.0420079 0.0682728 0.110655 -0.0795872 0.142229 -0.0138922 -0.185709 -0.0280636 -0.0841825 0.0491243 0.0272189 -0.0833898 0.0976479 -0.0767052 0.106453 -0.186084 0.035986 0.335527 -0.0313199 -0.325045 0.259024 -0.143767 0.0889452 -0.0944305 -0.187216 -0.134354 -0.0903769 0.126094 0.207741 -0.0623118 -0.290199 -0.138349 0.225646 -0.0583668 -0.141866 -0.197711 -0.0735483 0.0342118 -0.127491 0.0415998 0.0188684 -0.0319845 -0.00784751 0.261789 -0.124952 -0.0588274 -0.035397 -0.231402 -0.114512 0.366702 0.162047 -0.0127449 -0.171208 -0.122554 0.510837 0.331401 0.293577 0.240489 -0.0128872 -0.0221924 -0.378994 -0.914359 0.0851173 0.258484 -0.163868 -0.0755415 -0.434916 -0.160268 0.0562336 -0.269636 -0.659996 -0.221109 -0.0841805 -0.406468 -0.0491102 -0.161525 -0.146725 0.0567973 0.0545969 -0.0528618 -0.0526367 0.00107527 -0.0634329 -0.114808 0.133827 0.223286 0.196647 0.425949 -0.181683 -0.0021016 0.110489 0.207241 0.0842995 -0.129409 -0.212179 0.0226247 -0.00692408 -0.206765 0.111662 -0.270205 0.0938485 0.254477 0.239952 0.146556 0.213096 0.209935 0.288239 -0.120417 -0.0977341 -0.00816554 0.26642 0.432009 0.116541 -0.0993966 0.0784033 -0.057817 -0.129643 0.114239 0.18285 -0.300863 -0.0664705 -0.0702111 -0.277964 -0.0321723 0.0136348 -0.00584148 -0.0966404 -0.248284 0.0418163 -0.0486727 -0.0189192 0.100871 -0.230884 -0.0736929 -0.0231139 -0.219953 0.167819 0.0974004 -0.090307 0.0338061 0.0850914 -0.0899759 -0.0144753 -0.12849 -0.0801325 -0.0755267 -0.139915 0.0418879 -0.114151 0.196185 -0.176131 -0.198669 -0.0816944 0.152639 -0.0381127 -0.0485302 -0.0357541 0.041742 0.115895 0.0378909 -0.0679806 -0.142931 0.293945 0.0626826 -0.0251106 -0.201965 -0.0771551 -0.00670287 -0.172426 -0.272008 0.0687918 0.132762 -0.244145 0.00260427 -0.220655 -0.0970151 -0.122917 -0.0600987 -0.0556147 -0.0207827 0.0261553 -0.238638 -0.348594 -0.130442 0.103957 0.235587 0.00882685 0.0430084 -0.142308 0.134327 0.129209 -0.134803 0.0947435 0.0319762 0.163802 0.280947 0.0954225 0.200149 -0.0425265 0.151913 0.0478431 -0.0627804 -0.0739495 0.167767 0.229776 0.0444356 0.0234008 -0.0676388 -0.0882959 -0.053445 -0.114857 -0.196926 0.0387688 -0.0941218 0.133181 -0.218065 -0.236175 0.414359 0.0811436 -0.237993 -0.0722239 -0.00442549 -0.120092 0.0465215 0.130967 0.0344007 0.0285354 0.0501891 0.102339 0.0226213 0.0625367 -0.241955 -0.13068 0.0342906 -0.0168428 0.0501711 0.0912808 -0.104503 0.0750088 -0.178242 -0.187893 -0.27379 -0.553353 -0.283704 0.216719 -0.0524784 0.130398 0.0361226 0.0983858 -0.0999482 -0.0272406 0.0894689 0.220095 0.173372 0.114513 0.193744 -0.0893535 -0.155969 0.0139724 0.45352 0.319965 0.344677 0.395406 0.0517614 0.0304451 -0.0756741 0.0253337 -0.0292313 0.128476 0.0835928 -0.0993271 -0.0576021 0.0559305 0.213859 -0.0222163 -0.00627421 0.198757 0.171302 0.133252 0.0219351 -0.0359624 0.181759 0.253625 -0.222019 0.490302 0.33405 -0.323667 0.328924 0.484706 -0.443555 0.0323297 0.129742 0.254405 0.4304 0.417026 0.0568108 -0.273542 -0.252681 -0.0740173 -0.238434 -0.167407 0.199041 0.173587 0.055792 -0.164594 0.0787212 -0.117962 0.0731367 0.173729 0.0114516 -0.0867691 -0.244319 0.392439 0.846382 -0.323156 -0.162197 0.303694 -0.104407 0.175284 0.219298 0.303338 0.0838394 0.127408 -0.305351 0.124696 -0.109669 -0.0391859 0.262347 -0.151779 -0.168939 0.0352038 -0.115197 0.190044 -0.208917 0.251853 0.0503852 -0.242323 -0.176851 0.0061519 -0.192 -0.103314 -0.593255 0.0324934 0.204543 0.159098 -0.111986 -0.349126 -0.118758 -0.0736343 -0.00136777 0.353482 -0.221652 -0.183357 0.055745 0.249345 0.0866443 -0.0928757 -0.0142763 0.0376378 -0.0379428 0.159613 -0.335574 -0.196603 0.106929 0.438881 0.152712 0.0159499 -0.140225 0.325231 -0.0111731 -0.0765023 -0.0191529 0.00121002 0.220614 -0.0820504 0.136695 0.252533 0.153394 -0.242146 0.072397 -0.216716 0.0283432 0.319184 -0.019962 -0.268859 0.408338 0.10226 -0.0294906 0.545489 0.223807 -0.512809 -0.213289 -6.38349e-07 0.332269 -0.0732432 0.246565 -0.0146736 -0.289347 -0.187084 -0.10642 -0.179193 -0.00225439 -0.347635 -0.288861 -0.269664 -0.252249 0.233526 -0.181214 -0.472814 0.0796635 -0.700481 -0.0941998 0.075352 0.0367361 -0.388494 -0.196945 0.0772503 0.100126 0.104647 0.0526785 -0.0420019 -0.352683 -0.245374 -0.156266 -0.053609 -0.0640485 0.0504105 0.062427 0.190814 -0.084148 -0.328233 -0.0921336 0.041105 -0.179992 -0.11025 -0.172401 -0.335127 -0.307415 0.235641 0.182971 -0.0650106 0.0795724 0.0401444 0.069426 0.125907 -0.0681904 -0.017516 -0.37184 -0.229995 -0.242576 -0.148051 0.342704 0.346442 -0.0546393 0.312626 0.266801 -0.134156 -0.0593063 0.214385 0.42815 0.192921 0.30666 0.0139171 -0.0864202 -0.208376 -0.218579 -0.0434633 0.148846 -0.268457 -0.396812 0.139373 0.161891 0.0273917 0.0687384 -0.00983193 0.227322 0.0269916 -0.0835291 -0.00182772 -0.200012 -0.00247571 -0.0595021 0.151118 -0.0802024 -0.183049 0.115887 -0.0282012 -0.268943 0.0315194 0.291803 0.300328 -0.232125 0.0699507 0.0988689 -0.127001 0.15943 -0.199407 0.266571 0.0201147 0.1183 -0.104716 0.0649414 -0.02103 -0.131493 -0.289003 -0.426483 -0.295461 -0.175686 -0.295366 0.201999 0.0197464 -0.529371 -0.119944 0.384755 -0.390472 -0.452065 -0.186345 -0.152734 -0.0854306 0.0904498 -0.0150594 -0.392144 -0.327341 -0.277878 0.0123082 0.0192673 -0.212389 -0.208453 -0.315104 -0.11468 -0.262341 -0.404569 -0.126353 -0.189329 -0.24759 -0.504964 0.0389559 -0.0117756 0.0138602 0.34262 -0.366143 -0.247128 -0.00264677 -0.173794 -0.145583 0.0172217 -0.0230086 -0.155937 -0.0598825 -0.0729531 0.220321 -0.163556 -0.0252022 0.0248751 0.00217619 0.168347 -0.33572 0.370239 0.634147 0.0915734 -0.0593381 0.242386 0.00249234 0.109043 0.109233 0.392617 -0.250735 -0.330645 -0.254277 -0.299439 -0.0969783 0.0246275 0.132181 0.159924 0.143033 -0.0757353 -0.192412 -0.0515674 -0.165193 -0.460455 -0.397117 0.0886788 -0.15219 -0.312697 -0.0293204 -0.711149 -0.46769 0.0616215 -0.0956531 -0.141546 -0.79083 0.169596 0.278927 -0.0131327 0.0836031 0.0703048 -0.197066 -0.00831628 -0.136018 -0.208048 0.166328 0.252994 -0.314102 0.0209109 0.0817683 0.187091 -0.428699 0.121729 -0.0416024 -0.158473 0.10951 0.26691 -0.0257476 0.256741 -0.247569 0.247935 0.381187 -0.402083 0.0447506 0.377295 0.0565398 -0.524306 -0.291018 -0.166094 0.149667 0.151815 -0.127457 0.096956 0.0744371 -0.0195782 -0.0553004 0.35571 0.237547 0.147078 0.146118 -0.0721026 0.0520242 0.103168 -0.268521 0.0676767 -0.171363 -0.134683 0.0663261 0.137235 -0.263766 0.0387998 0.328851 0.334542 0.202462 0.150193 0.236245 -0.206865 -0.235635 -0.15881 -0.432133 -0.0115944 0.121414 0.0140624 -0.257544 0.194495 0.462865 -0.417736 -0.277508 0.255744 -0.0278586 -0.275228 -0.0821516 0.209607 0.213902 -0.175296 -0.277068 -0.166676 -0.143145 -0.0853594 0.275126 0.13555 0.0344802 0.323389 0.40818 -0.533178 -0.0923015 0.359939 0.317222 -0.0196372 0.0267727 0.232469 -0.0279692 -0.281497 0.0783454 0.415419 0.422995 0.262252 -0.277675 0.00043976 0.192724 0.154759 0.079564 -0.0639571 0.0576491 0.10562 -0.0505845 0.0641962 0.171236 0.15063 -0.317781 -0.13496 0.245985 -0.0770517 -0.355736 0.194211 -0.118128 -0.060165 0.523298 0.247437 0.251942 0.408327 0.36616 0.154124 -0.129091 -0.379946 -0.366374 -0.45065 -0.56704 -0.10591 0.0677579 0.129335 0.0446499 0.283308 0.0117786 -0.228004 -0.211082 -0.260334 -0.609341 -0.0318412 -0.173284 -0.0568774 -0.2584 -0.480174 -0.112808 0.0845088 0.130923 0.278143 -0.311648 -0.00881823 -0.0481848 0.146351 0.237302 -0.138232 -0.0292414 -0.0252883 0.190234 -0.462799 -0.710967 -0.0149461 0.150001 0.00391247 -0.269811 -0.372132 0.210303 0.0457816 -0.111259 0.212285 -0.20991 0.0253927 0.0825395 -0.139128 0.15019 0.129635 0.118249 -0.147349 0.216475 0.351115 0.229542 -0.0217615 -0.193679 0.0553042 0.128024 0.159948 0.489608 -0.0177418 -0.0331771 0.121875 0.141468 0.0558201 0.17465 -0.0202911 0.291589 -0.0844037 -0.296477 0.0655224 0.330421 0.420997 -0.0917537 -0.041295 -0.0292424 -0.153604 -0.0338722 -0.0130519 -0.0352462 -0.0284723 -0.307234 -0.600436 -0.0387422 -0.0311248 -0.485142 -0.359635 -0.25497 -0.361654 -0.316864 -0.127252 -0.0687634 -0.219848 0.110274 -0.252517 0.109085 0.194547 -0.0828076 0.0701752 -0.258061 -0.148599 0.16264 -0.0248736 -0.0793353 -0.235041 0.0502891 0.0180668 -0.357532 -0.697729 -0.0975102 -0.163121 -0.131226 -0.276775 -0.412507 -0.276914 -0.00214134 -0.098067 0.187991 -0.248547 -0.0249201 -0.27381 -0.28384 -0.293361 0.011903 -0.121489 -0.0308589 0.113159 -0.177138 -0.0147217 -0.0690015 -0.317046 -0.00795562 0.67819 0.292138 -0.0588833 -0.1908 -0.154705 0.0199023 0.239619 0.0279334 0.203564 0.434511 0.157098 -0.265242 -0.103129 0.227818 0.383255 0.0888289 0.0386612 -0.190719 0.158422 -0.32636 -0.488366 -0.123214 0.095549 0.217091 -0.00911509 0.0418632 -0.450122 -0.0423278 -0.0796752 0.0710582 -0.520678 -0.191092 0.0638311 0.0943789 -0.127442 0.467108 0.356071 0.0610088 -0.0553059 0.27497 0.135415 0.0572751 0.151237 -0.10567 -0.037233 -0.0365527 -0.134251 -0.0495691 0.157725 0.265615 -0.0356874 0.0423184 0.126554 -0.462407 -0.253033 -0.312421 0.0778382 -0.270615 -0.293525 0.0196836 -0.0463405 -0.204241 0.10131 0.132163 0.359089 0.632752 -0.0344989 0.125287 -0.013088 0.0908384 0.0902601 -0.0507583 -0.526699 -0.157814 -0.112312 -0.617163 -0.106479 0.173412 -0.146087 -0.257775 -0.700313 -0.220878 -0.132606 -0.0581643 -0.123917 0.0830794 0.0226068 -0.153971 0.021555 0.0284109 -0.293514 0.129559 -0.181143 -0.16241 -0.279917 -0.152053 -0.226682 -0.285908 -0.150912 -0.0706539 0.245611 -0.155408 -0.448053 0.232013 0.0480592 -0.206092 -0.192167 -0.0890651 0.150999 0.0167551 -0.0700979 0.020292 -0.00689023 0.12959 0.055288 -0.144117 -0.358743 -0.0549845 -0.147834 -0.425617 -0.302011 -0.0479788 0.468475 0.0153841 -0.0544447 -0.321796 -0.193782 -0.027484 -0.261274 -0.323005 -0.161654 -0.030909 -0.294886 -0.508474 -0.0350397 -0.110198 0.0294446 -0.135271 -0.0615767 -0.335333 -0.166183 0.171482 -0.172606 0.118598 0.151346 0.0574665 -0.0366425 -0.299804 0.251436 -0.108859 -0.192911 -0.163079 0.113658 -0.174372 -0.0755187 0.154673 -0.39147 -0.175738 0.261084 -0.224005 -0.0503445 0.0564808 -0.170196 0.0840569 0.27291 -0.154921 0.00444376 -0.257782 -0.266976 -0.00361344 0.0247641 -0.176936 0.0879964 -0.0843926 0.00449643 -0.0841739 -0.102259 -0.112987 0.281235 -0.0617618 -0.224863 0.223234 0.0975697 0.00565085 -0.167198 -0.308216 -0.0505426 -0.382891 -0.345371 -0.158124 -0.293442 -0.156246 -0.023318 0.19781 0.238063 -0.218033 0.0196828 0.294471 0.118724 0.368025 0.0686569 -0.467165 0.102537 -0.110123 -0.442727 -0.0542834 0.000153072 -0.29884 -0.582334 -0.471744 0.228391 -0.470594 -0.3445 -0.191172 -0.0429194 -0.165968 0.0121509 0.243428 0.17374 0.431448 0.232692 0.101188 -0.0556844 
bias: 
-0.725022 -0.352953 -0.725009 -0.658639 -0.556007 -0.527925 -0.632228 -0.493436 -0.793103 -0.816015 
