weights: 
0.0130505 0.619276 0.81972 0.501587 -0.104135 0.338118 0.609438 0.142857 -0.0768262 -0.30572 0.369976 0.404806 0.0357996 -0.463512 -0.463692 0.223451 -0.120993 -0.495558 -0.495072 -0.207976 0.0576394 -0.313859 -0.260308 -0.352412 -0.173067 -0.217971 -0.212544 -0.519234 -0.292627 0.558248 -0.343898 -0.237244 -0.478649 0.185592 0.679093 -0.219165 -0.402979 -0.2313 0.361582 0.569378 -0.409792 -0.345892 -0.186114 0.558949 0.516234 -0.269666 -0.0730046 0.258735 0.40868 0.304686 -0.147404 0.181683 0.143857 -0.396242 -0.436831 -0.127003 0.0828035 -0.120244 -0.45474 -0.42667 -0.109664 0.138184 0.324381 0.393404 0.593361 -0.0961696 0.360209 0.16742 0.306883 0.455882 -0.0143462 -0.142311 0.0153578 -0.166434 -0.102823 -0.0064139 0.14392 0.0738366 -0.12748 -0.150557 -0.226858 0.0276403 -0.182983 0.135235 0.332866 -0.296313 0.361637 0.314359 0.531861 0.492479 0.30676 0.512821 0.43587 0.0316653 0.51421 -0.112713 -0.129777 -0.264307 0.10293 0.146794 -0.208734 -0.412099 -0.320995 -0.452144 -0.205847 -0.366811 -0.634468 -0.444768 -0.159345 0.108962 -0.193148 -0.285106 -0.251312 0.130433 0.10118 0.543583 0.426907 0.381431 0.496915 0.00981314 0.603651 0.881664 0.709264 0.381105 0.13249 -0.249628 0.000909741 0.321413 0.409544 0.0919692 0.102761 0.357407 0.139247 0.45867 -0.227581 0.369198 0.183349 0.143224 0.36823 0.127633 0.273287 -0.152317 0.0144158 0.448905 0.582746 0.118575 -0.084531 -0.107985 0.235852 0.429215 
bias: 
0.04358 -0.127038 -0.0121823 -0.0128331 0.174831 -0.345732 
weights: 
0.0155858 0.0578807 -0.129785 -0.00364587 -0.107942 -0.0548788 -0.0469765 -0.027941 -0.119755 -0.21181 -0.00968306 -0.0295798 -0.0332645 -0.0965669 -0.0393589 -0.0278239 -0.132927 -0.165651 -0.0439908 -0.00381075 -0.0541966 -0.0360701 -0.0842679 -0.207077 -0.140181 -0.0305908 -0.0903778 0.118907 0.0589845 -0.0273242 -0.13112 0.15087 0.269023 0.0191949 -0.0253533 -0.0558701 0.0308236 0.0250416 -0.0529089 -0.180657 -0.095984 -0.124331 -0.112212 -0.192171 -0.208916 -0.112418 -0.0843295 -0.0872904 -0.174327 -0.182476 -0.00781829 -0.0766027 0.0310802 -7.03905e-05 -0.0438848 0.0273686 0.102921 0.0552503 0.0794708 0.114087 -0.0490552 -0.109421 -0.0668996 0.152693 -0.0186148 0.0543705 -0.0981115 -0.0670058 0.0198443 0.0476676 -0.0135638 0.0558325 0.0669902 0.0189915 -0.0769846 -0.154882 -0.0329991 0.0910335 0.0614755 -0.101587 -0.132005 0.0973965 0.172661 0.109823 0.277191 -0.110139 -0.105929 0.0880151 0.239997 0.0895503 -0.0750003 -0.200817 -0.156857 -0.136178 -0.0908204 0.0812842 -0.0322596 0.099627 -0.0727127 -0.0899517 0.045994 -0.0890021 0.019581 0.0482268 0.00128847 0.0425777 -0.0273484 0.0600943 0.0263184 0.108293 0.0166512 -0.0806461 -0.242789 -0.158789 -0.0619883 0.0507289 0.149749 0.124305 -0.00744343 0.00431873 0.0741241 0.114893 0.160292 0.268768 0.129694 -0.115725 -0.00503147 0.0501971 0.0443444 0.114255 -0.11709 -0.064607 0.15869 0.251753 0.185813 -0.133167 0.00945386 0.00529609 0.035774 0.0110347 -0.0878142 -0.0527922 -0.0934431 -0.0305185 -0.00107034 -0.0772019 -0.0223159 -0.11832 0.00319164 -0.117265 -0.0193942 -0.0641792 -0.106469 -0.0148204 -0.0261727 -0.0245083 -0.041802 -0.0305454 -0.124941 0.0345406 0.0366998 -0.0671857 -0.155166 0.0165878 -0.0347774 -0.172144 -0.098471 -0.0861023 0.0287633 0.136133 -0.0884348 0.084628 0.0905395 -0.0405026 0.0461235 -0.038706 0.00332499 0.0256575 0.0512415 -0.170157 -0.0965551 -0.0631319 -0.125903 -0.0762661 -0.0778703 -0.212125 -0.190004 -0.164194 0.0714282 0.00667357 -0.00676814 0.0485452 0.0728499 -0.0295111 -0.00506794 0.0427694 -0.135192 0.0967648 -0.103568 0.0641943 -0.0737967 0.152098 0.133594 0.104192 0.0260523 0.0402672 -0.0653269 0.0270185 -0.0909444 -0.0371643 -0.0976441 -0.0198517 0.110214 -0.0970486 0.0366316 0.150399 0.18516 0.064855 -0.102043 0.0396073 -0.0034683 0.0410142 -0.0820011 -0.0947491 0.0164837 -0.02806 0.105171 0.236968 0.280748 0.0538997 0.0764311 -0.0387507 -0.129445 0.0388441 -0.0823174 -0.230832 -0.194186 -0.0341773 -0.032561 0.00374371 0.0503131 0.230332 0.108019 -0.00899317 -0.0350791 -0.0223083 -0.118229 0.000610258 -0.0916148 0.0251282 -0.0725089 0.00181106 0.126333 0.230435 0.090992 0.00911712 -0.142369 -0.195336 -0.177294 -0.179364 -0.173874 0.0700712 0.130209 0.134544 0.0352721 0.28045 0.302039 0.076902 0.0459709 -0.0432113 -0.000545329 -0.0822012 -0.01121 -0.0898525 -0.0516895 0.0743031 0.0143421 0.096753 0.0188619 0.0847023 0.0220189 -0.00381749 -0.0282896 0.119365 -0.0283331 -0.133051 -0.141474 -0.161421 -0.0787277 -0.0597581 -0.234593 -0.0065506 0.0440027 -0.0725747 0.0262892 0.0210549 0.164323 0.113507 0.0894549 -0.0822014 -0.0519911 -0.137987 -0.0234699 0.0411413 -0.121356 0.078066 -0.0842178 -0.031892 -0.0694387 0.040945 -0.125753 -0.239625 -0.197628 0.0886739 0.058051 -0.119415 -0.344308 -0.00931759 0.137224 0.0201349 -0.166137 -0.0227165 0.123413 0.162149 -0.0394656 0.147617 0.0663125 -0.059516 -0.0485644 -0.0589845 0.147918 0.118938 0.119855 0.0219925 -0.161033 -0.058474 0.175966 0.169509 -0.0715016 0.0643626 -0.233359 0.165703 0.222965 0.055187 0.0324208 -0.125007 0.171365 0.13289 -0.00240547 0.104224 -0.0739388 -0.032167 0.0372161 -0.0512591 -0.0353966 0.0980999 -0.0669279 0.110784 -0.117919 -0.181918 0.139639 -0.161281 -0.0841083 0.01036 -0.0377856 0.00868779 -0.204077 -0.00468649 -0.0619723 -0.00342952 0.000571735 -0.0884043 -0.0822996 -0.0825407 0.0273192 -0.0858612 0.118505 -0.0430144 -0.134341 -0.124197 -0.117093 0.163645 0.155049 -0.030811 -0.178845 -0.0571136 0.0977825 0.227466 -0.106888 -0.259098 -0.0621618 0.0667717 0.159631 -0.0404669 -0.0981725 0.173054 0.143427 0.0275077 0.0847515 -0.00642897 0.0386772 -0.00742802 0.0214764 -0.042075 -0.0867345 0.146045 -0.035648 -0.0323133 -0.154253 -0.180847 0.176124 -0.067181 -0.158826 -0.0905918 -0.196947 0.00510022 -0.0483948 -0.126509 -0.203775 -0.235059 -0.0220614 0.0426651 -0.0473356 -0.166892 0.144163 -0.163299 0.129963 -0.0146447 -0.0500376 -0.0464422 -0.0566724 0.114365 0.124158 -0.199023 -0.156091 -0.129306 0.15755 0.179538 0.00255237 -0.146165 -0.0838829 0.129777 0.268307 0.0373259 -0.198282 0.0447267 0.0700717 0.262088 0.0490747 -0.0740309 -0.145251 -0.0499636 -0.125371 -0.0477127 0.0677407 -0.132373 -0.185126 -0.240951 0.0108955 0.0404598 -0.187339 -0.105905 -0.290393 -0.269329 -0.111683 -0.0389671 -0.0233521 -0.0273142 -0.134484 -0.053313 0.174469 0.234202 0.10384 0.0494524 0.0182719 -0.0650225 -0.0977684 0.00378906 -0.0107755 0.308175 -0.00587133 0.0227493 -0.0733395 -0.00322999 0.17932 -0.0444549 -0.00749385 -0.0694437 -0.0833526 0.0178361 -0.064666 0.180162 0.0608441 -0.0223081 -0.102851 0.132533 0.0762634 -0.0202833 -0.0870384 -0.0971127 0.149561 0.121504 0.00111602 -0.0131932 -0.0453738 0.0598406 0.0637387 0.072223 -0.0212429 -0.143806 0.0259787 0.111069 0.0408188 0.0112427 -0.0632871 -0.0231331 -0.0462747 -0.0493129 0.0201905 -0.0683454 0.113774 0.0962567 -0.0847323 0.101959 0.140619 0.193901 0.0327784 -0.175478 -0.140945 -0.0402722 0.0995942 0.0702046 -0.0241897 -0.270778 -0.154435 0.120375 0.0901795 0.111684 -0.150324 -0.157149 -0.056349 0.0388212 0.182167 0.0718661 -0.0188126 0.0333222 0.0735564 0.0331126 0.104437 0.100012 -0.00877428 0.244264 0.197094 -0.0346133 -0.176844 -0.131482 -0.0459468 0.174988 0.139671 -0.00552905 0.0297403 -0.210746 -0.263787 -0.0244387 0.189036 -0.0181061 -0.0196592 -0.104801 -0.17443 0.162485 0.109118 0.189102 -0.157754 -0.0895534 -0.0717067 0.170602 -0.0799364 -0.218925 -0.0917182 0.0973555 0.173841 0.19889 0.0583154 -0.131415 -0.0653685 -0.126045 0.206706 0.134127 -0.141534 -0.128884 0.0298684 -0.0603633 0.133153 0.190875 0.0052884 -0.179372 -0.159934 0.111957 0.092596 0.0867268 -0.129414 -0.109663 -0.0480098 0.167304 0.115419 -0.0356934 0.139263 0.0210475 0.141196 -0.0028164 -0.00437307 -0.0930786 0.038979 0.162505 0.128956 -0.122862 -0.00230811 0.15518 0.0377019 0.0106473 -0.00970866 -0.101508 -0.189621 -0.166036 -0.140074 -0.185747 -0.0415252 0.125534 -0.0585901 0.192922 -0.0282839 0.119686 0.0583126 0.0762898 0.142087 -0.0682634 0.0244667 -0.00369107 -0.00159676 0.0191637 -0.0602901 -0.0165108 0.0507713 -0.0285657 0.000350145 -0.0888872 -0.0136696 -0.0959468 -0.187234 -0.176134 0.186421 0.0271209 0.081575 -0.0322264 -0.0758735 -0.00534805 -0.0749111 -0.0656772 0.0403924 -0.134767 -0.081867 -0.000738088 -0.0689541 -0.068719 -0.0925287 -0.0450766 -0.148029 -0.114142 -0.0324862 -0.0684834 0.0644142 0.195857 0.0633702 0.0949042 0.0459591 0.136372 0.223388 0.0466123 0.0199861 -0.206577 -0.00555035 -0.0560809 -0.0162513 -0.0698474 0.0453721 -0.0967079 0.0308453 -0.112888 -0.139759 -0.0832296 0.0660006 -0.0993703 -0.100553 0.00480865 -0.0463741 0.0380325 0.0164182 0.0972561 0.0310248 0.192079 0.0167904 0.0819383 -0.0102496 -0.0130831 -0.111666 -0.259496 -0.23018 -0.0714531 -0.143392 -0.134941 -0.0146431 -0.010428 -0.148206 -0.239598 -0.217968 0.2701 0.178354 0.262181 0.213219 0.0484781 0.0493315 0.0177999 0.200822 0.18607 0.23435 0.13209 -0.0398562 0.0672495 -0.0662096 -0.178613 0.0226087 0.0704555 0.18985 -0.143256 0.0295435 -0.183365 -0.226152 0.0597158 -0.0442584 -0.0960414 0.0101501 -0.0659515 0.0288411 -0.0660781 0.00292381 0.0599223 0.0521857 0.00490861 0.0492293 -0.0169959 -0.0602776 -0.117995 -0.186751 -0.0191643 0.0173653 -0.247873 -0.0807988 0.140246 0.118192 0.138475 -0.0356772 0.0277608 0.330597 0.158626 0.018763 -0.0650359 0.0847891 -0.0579881 -0.15328 -0.100933 0.00812337 -0.0237593 -0.173094 -0.122188 -0.170377 -0.123261 -0.0172755 0.0357166 0.184328 -0.0791218 -0.107313 0.0957703 0.16686 0.0642218 0.00943472 0.129811 0.0309933 0.0193232 -0.0273013 -0.153812 -0.0408657 -0.080968 -0.174592 -0.0193482 -0.046042 -0.201044 -0.081153 -0.108086 -0.0679929 -0.0670312 -0.006265 0.124231 0.0284557 -0.0275471 -0.0266922 0.0369114 0.115247 -0.0038934 -0.128762 -0.0516428 0.117123 -0.00539002 0.0171068 -0.164933 -0.073182 -0.062579 -0.0673814 0.0666375 0.033517 -0.121394 0.101723 0.0854265 -0.00983166 0.045332 -0.00125534 -0.189075 -0.0580623 -0.0538273 0.0904669 -0.0369881 -0.124319 0.121001 0.0130813 -0.0338041 -0.0115426 0.106907 0.0605626 -0.0618135 -0.014176 -0.170255 0.113858 0.0510775 0.0226251 -0.126627 -0.145582 -0.187894 -0.0737012 -0.00427962 -0.0212871 -0.0232972 -0.0960243 0.0191426 0.148697 0.0975528 -0.0873606 -0.119878 0.211578 0.00308416 -0.0813456 -0.0647439 0.240308 0.112642 -0.185943 -0.0335692 -0.168708 -0.0467652 -0.157769 -0.00703011 0.148642 -0.0867593 -0.203628 -0.157735 -0.0232934 0.0593116 0.0620873 -0.0889906 -0.0656172 0.0289386 -0.0131884 0.0137162 -0.0279653 -0.0283076 0.0486744 0.080696 -0.0134213 0.00923484 0.0882448 0.0721494 0.113046 -0.134943 0.180627 0.176368 0.0890617 0.0322264 -0.0558672 0.0649659 -0.0796664 -0.108873 -0.0238483 -0.044646 0.0378043 0.175313 0.2426 0.27244 0.274736 -0.0753416 0.0774006 0.126028 0.147717 0.0579149 -0.0330257 -0.102611 -0.14486 -0.00158511 -0.0900186 0.0633265 -0.0859111 0.0337048 -0.160895 -0.0536576 0.0343019 0.0196705 0.0454459 -0.0783034 -0.0953867 0.0524968 0.0136439 -0.0801601 -0.114226 -0.141397 -0.0255129 -0.0668122 -0.171827 -0.033197 0.130079 -0.0872773 -0.0584437 -0.0122909 0.154926 0.00670065 -0.0428771 -0.0170663 0.124644 0.113678 -0.0899849 -0.017233 0.049011 0.0330116 0.0742759 0.0659654 0.00272086 0.033549 0.0901055 -0.115481 -0.0468134 -0.00332257 -0.0590547 -0.0237649 -0.0385949 0.0391302 0.0921925 -0.0753005 -0.0802406 0.0845711 -0.000344268 0.102586 -0.0825233 -0.0615197 -0.136935 0.0490749 -0.0463629 0.0130809 -0.0707914 0.0766414 0.0725674 -0.0587559 0.049926 0.0197456 0.165486 0.0691866 -0.241106 -0.143431 -0.072318 -0.0185777 0.0384835 0.0491492 -0.0957912 -0.140314 0.109965 0.0800449 0.166087 -0.0186623 -0.119346 0.0341941 -0.112057 0.0528726 -0.00363284 -0.0156852 0.048925 0.0353744 -0.0999315 -0.0284594 0.00772217 -0.137612 -0.100558 0.180706 -0.0391866 -0.119266 -0.0508828 0.00441174 0.214348 0.123328 0.0577308 0.114978 0.0235938 -0.0427091 0.0198854 -0.0760547 -0.049213 -0.111556 0.0757935 -0.031563 -0.0451575 0.0186522 -0.0702869 -0.156095 -0.0541802 0.0891032 0.128087 0.198702 -0.0286467 -0.16229 -0.0828388 -0.0656154 -0.123073 0.00997871 -0.115175 -0.168018 -0.0487059 -0.0773757 0.0081114 0.0677805 0.0452008 -0.0372428 -0.0461506 0.0383273 0.0391333 -0.0495135 -0.00173141 -0.0107442 -0.166108 -0.143884 0.115499 0.088981 0.0768299 -0.0165254 -0.0157922 0.0984137 0.265215 0.041029 -0.0364771 -0.0596975 -0.0922051 -0.0156875 0.00702527 0.096113 -0.156896 -0.312885 -0.104998 0.250622 0.012326 -0.119659 -0.230832 -0.0741103 -0.0175358 0.0570498 0.0824665 0.0942896 -0.0605294 0.0627176 0.0406527 0.131765 0.206673 -0.0925271 0.170625 -0.00679304 0.203093 0.119456 -0.367725 -0.171288 0.0829927 0.159183 -0.279181 -0.33206 -0.248533 -0.136943 -0.179511 -0.211317 -0.253816 -0.193264 -0.0917512 -0.00904664 0.139778 0.0307031 0.198787 -0.0913386 -0.0500783 -0.0496866 0.145661 0.0683685 -0.0213682 -0.0896217 0.123565 0.182574 0.0254209 -0.0810381 0.000318847 0.260416 0.291297 0.0285413 -0.0475784 -0.0914287 0.124612 0.142972 0.0666715 -0.0163767 -0.164759 0.0151267 0.029992 0.0233599 -0.00652187 0.0888753 0.0364367 0.0284336 -0.0639658 0.0614911 0.113919 -0.0359185 0.0306221 0.00453911 0.072079 -0.0405353 0.0719424 0.204304 -0.167701 -0.0796218 -0.0101851 -0.0762082 0.0373001 -0.131021 0.143034 -0.125644 -0.0278777 -0.0453968 -0.0208008 -0.134934 -0.174154 -0.180626 -0.108901 0.0411937 -0.00579009 -0.104139 -0.320735 -0.0899068 0.353184 0.0551642 -0.0871233 -0.0841992 0.0179468 0.290133 -0.0879495 -0.312167 -0.279497 -0.116536 -0.0146094 -0.159318 -0.0675838 -0.0262219 -0.0349906 0.0335872 0.0835383 0.182445 0.190997 0.0638394 -0.0105496 -0.0649921 0.329414 0.281727 0.0237317 -0.174315 0.158941 0.238021 0.0667917 -0.0559512 -0.0293633 -0.0287993 -0.185532 -0.113139 -0.0418573 -0.000907261 -0.039388 0.0238042 -0.0226894 0.0331858 -0.187263 -0.0600036 0.00105014 -0.0701938 -0.0273791 -0.0567952 -0.0177242 -0.0936363 0.0860123 0.126649 -0.160986 0.026206 0.110714 0.191298 0.0399917 -0.254217 0.0544882 -0.0226881 -0.107865 -0.111141 0.0416498 -0.0301606 0.0557845 0.0356621 -0.0634307 -0.0328833 -0.0599166 -0.0280632 -0.0550135 -0.166325 0.190369 -0.0554991 0.00171257 -0.20735 -0.171955 0.16874 -0.11532 -0.19663 0.00252142 0.139611 0.279974 -0.0440925 -0.0758744 0.0495485 -0.0203415 0.132487 0.0872521 -0.0623247 -0.135655 0.0300485 0.0742683 -0.066321 0.0188643 0.162317 0.0699369 0.0976191 -0.0223432 0.100945 -0.0414948 -0.144824 -0.059771 -0.084252 -0.0811369 -0.0391613 0.0298721 -0.0652699 -0.0419527 -0.0170698 -0.0658226 -0.142824 -0.162789 0.00253255 -0.0846744 -0.0151843 -0.154424 0.13605 0.0752779 0.0776525 0.00807809 0.186788 0.209731 -0.0131912 0.0748626 -0.0643385 -0.137652 0.0167724 -0.0397151 -0.220367 -0.150532 -0.0465415 0.0650385 -0.243513 -0.0818702 0.0145616 -0.102114 0.0282529 0.0711953 0.0255714 0.0766286 -0.0491155 0.00664756 0.0641422 0.0646316 0.184765 0.280554 0.0763428 -0.131612 -0.0977755 -0.0484802 -0.0901525 -0.115065 -0.0814452 0.00615492 -0.0260529 0.0334961 -0.0928054 -0.141279 0.0156413 0.149005 0.0986131 -0.139616 -0.0449736 0.0268667 -0.0285073 -0.062815 0.0980935 0.139148 0.106803 -0.00903399 -0.0664072 0.154436 0.00813831 -0.148601 -0.160308 -0.0338673 0.194373 -0.171589 -0.0949466 -0.0506469 -0.125853 0.144688 -0.185349 -0.126828 -0.0539987 -0.067177 0.00159583 -0.0842674 -0.0638227 -0.0538255 -0.0369269 0.0558981 -0.120364 -0.151642 -0.00889183 -0.0803392 -0.0780852 -0.100191 -0.0192831 -0.197432 -0.168251 -0.0932378 0.0263921 0.0631503 0.242889 0.0346225 0.0831241 0.00587749 -0.0601045 0.0819479 0.133544 0.196305 -0.0851665 -0.125536 -0.113527 -0.0491901 0.0905913 -0.0608463 -0.0533254 -0.0296948 0.0416024 -0.0641775 0.0653294 -0.00840197 0.0579074 0.0661405 0.0529015 -0.0092428 -0.0541631 -0.0457697 0.00917708 -0.0308348 -0.0683336 -0.0147843 -0.145975 -0.0530872 -0.0239098 -0.0150391 -0.10443 0.0279306 0.0361203 0.084108 0.0546872 -0.00786008 0.0179352 -0.0781358 0.00990354 0.0671017 -0.0229389 0.084672 0.0437872 0.195678 0.0112913 -0.0685816 0.141272 0.0464314 0.0678176 -0.14302 -0.0371059 -0.0294846 -0.101502 -0.0471595 0.0264522 -0.0646247 -0.119412 -0.142042 -0.0581225 0.0096676 -0.0307177 -0.099922 -0.0909234 0.0430822 0.180028 0.184188 0.0475525 0.0882977 0.276367 -0.0189469 -0.0347269 0.00780997 0.152582 0.156379 -0.0736173 -0.249379 -0.222499 -0.19138 -0.189455 0.205349 0.155127 0.0849353 0.0947807 0.00668809 0.0530828 0.0737273 -0.0506494 -0.0842335 0.00283046 -0.104174 -0.120908 -0.12203 0.0211863 0.12164 -0.181387 -0.156108 -0.1142 0.0118968 0.0343186 -0.166547 -0.143552 -0.245162 -0.124379 -0.166914 -0.000681472 -0.151531 -0.128636 -0.072495 -0.167348 0.143689 0.0749062 0.0387431 -0.0764124 0.0345426 0.248371 0.147485 0.146652 0.127439 0.0396373 0.0979107 0.0877325 0.0691721 0.102998 -0.024993 -0.0229651 -0.00170699 -0.0605952 -0.198749 -0.0743595 -0.0715753 0.107638 -0.0754891 -0.0216183 -0.123477 0.0660537 0.12378 -0.0244416 -0.133237 0.000679238 0.0314249 0.0039729 -0.133798 -0.199626 -0.19098 0.0284968 0.0497415 0.00373813 -0.215903 -0.207476 0.0605401 0.029972 -0.0383225 -0.201214 -0.101053 -0.00265866 0.0626529 -0.104507 0.0704228 -0.0354645 -0.0915912 -0.0235507 -0.109103 -0.205408 -0.0758742 -0.000523424 0.0648928 -0.105259 -0.241416 -0.0926247 -0.0549252 0.0686292 0.0419014 -0.0887248 -0.169918 -0.211236 -0.215217 -0.100475 -0.0672705 -0.132072 0.113866 -0.0676575 -0.0847021 0.0894751 -0.0374018 -0.0523078 0.0227192 0.00608621 0.0332815 -0.015356 0.163701 0.123238 0.156083 0.0740068 -0.0620374 0.0224869 0.0208432 0.14266 0.218985 0.0168371 -0.00429197 -0.0790039 -0.0786955 -0.00103003 0.0462367 -0.0786258 -0.102371 -0.0138563 0.0464388 0.0619417 -0.0512417 -0.178188 -0.116365 -0.00224122 0.0528727 -0.00852695 0.0829048 0.132556 -0.0529779 -0.0723747 0.0529916 0.129273 0.207761 0.126476 0.0720125 -0.305696 -0.131912 -0.0309682 0.121376 0.170361 0.0832382 -0.0358267 0.0637538 0.215434 0.116868 -0.060757 -0.13374 -0.0585372 -0.106358 -0.132779 0.0830709 0.357541 0.287796 0.225691 0.0757537 0.0478993 -0.0223262 -0.12779 0.115674 0.235106 -0.0919184 0.01568 -0.287113 -0.246045 -0.0963603 -0.176022 -0.171121 -0.2285 -0.0677213 0.150394 -0.0805947 -0.0644841 -0.0908877 -0.100149 0.140693 -0.0525247 -0.0509396 0.0618534 -0.0327685 -0.0844704 0.0177468 0.00995526 0.0483323 0.14807 0.152614 -0.0870206 -0.260323 -0.0600126 0.0398393 0.142907 0.0399145 0.0182542 -0.039777 -0.154374 -0.276249 -0.0629561 -0.0170951 -0.0927211 -0.104606 0.023779 -0.0570366 -0.111983 -0.0594508 0.146706 0.104577 0.0102132 0.0374387 0.214674 0.267566 0.00957139 0.0377349 -0.00380428 0.0445493 -0.132332 -0.182248 0.163331 0.125146 -0.0411077 -0.0150635 -0.0232017 0.0847887 -0.0955648 0.0873159 0.19429 0.00646876 -0.0212447 -0.0793085 0.0986759 -0.0712197 0.00126413 -0.0931184 -0.133447 -0.029661 -0.114129 -0.0184266 -0.0771914 -0.118084 -0.160595 -0.00943927 0.0465138 -0.0566701 0.136417 0.122695 -0.0326501 0.0115489 0.122563 0.00923492 0.0132012 -0.0957043 -0.119755 -0.0125468 0.22727 0.20164 0.0718189 -0.0763638 0.110522 0.0857806 0.090988 -0.10159 -0.00888988 -0.0497251 0.0481291 0.0840169 0.00638977 0.046344 -0.0245455 -0.0683757 0.126872 -0.05172 -0.16162 0.0441276 0.054876 0.0124877 0.165091 0.021807 -0.0801429 -0.0707056 0.215945 0.301473 0.0329099 0.0674236 0.137864 -0.0792688 -0.225228 -0.124716 -0.0746114 -0.175963 -0.171494 0.00238346 0.0326329 0.0145721 -0.11599 0.053129 -0.0594009 -0.0897862 0.0361751 -0.260358 -0.0626614 0.261461 0.159545 0.0336158 0.208494 0.256749 0.0868811 0.0530194 -0.0618344 0.00676763 -0.128366 -0.171045 0.00805171 -0.142871 -0.129495 0.0292365 0.194426 0.0610367 -0.0173037 -0.0725356 -0.0149297 0.0909397 -0.153673 -0.057289 0.112374 -0.0624163 0.0649374 -0.15314 0.106256 0.0389312 0.0133248 -0.074959 0.07862 -0.079105 -0.125111 -0.0445192 0.0494421 -0.0189387 -0.0648271 -0.0245316 -0.180827 -0.16839 -0.0302519 0.0364445 0.149074 0.103425 -0.106596 -0.00638643 0.0309093 0.154279 -0.0840734 -0.177017 0.00237836 0.0954284 0.116336 -0.0638878 -0.153171 -0.151698 0.209487 0.0721981 -0.0577719 -0.0772011 -0.128631 0.0452773 0.0466529 -0.00602123 0.0397424 0.16112 -0.00186341 -0.034277 -0.003645 0.0792846 0.0375636 0.0165386 -0.120858 0.122759 0.237132 0.00830499 0.0143995 -0.045358 -0.0177816 0.0876833 0.0538509 -0.0712843 -0.0248496 -0.0606647 0.143332 0.226052 -0.0109164 0.0703563 0.0237114 0.246203 0.113778 -0.0724908 0.0133213 -0.069317 -0.0464972 0.0130338 -0.0974369 0.0302991 -0.1714 -0.0651532 -0.140449 -0.0852256 0.0321834 -0.0978115 -0.0308089 -0.0451222 -0.0287105 0.078556 -0.0380859 -0.159969 0.0599167 -0.120915 -0.0503723 -0.0716819 -0.0536783 -0.0789963 0.0364485 -0.116033 0.00553074 0.0707888 -0.0193807 0.0551591 -0.0880113 -0.110195 0.0382499 0.0502609 0.0831764 -0.0924278 -0.156681 0.0827662 0.00758021 -0.0457922 -0.0371994 -0.142046 0.090796 -0.0178805 0.00457019 -0.104214 -0.0375093 0.0846682 0.0633847 0.00799011 -0.106601 -0.125609 -0.190543 -0.189393 -0.122206 0.0144395 -0.113649 -0.1337 -0.314467 0.061219 -0.0515864 -0.0856258 -0.107489 -0.238882 -0.079553 -0.124201 -0.083224 -0.0049583 0.0856326 -0.161706 -0.0925099 -0.0372326 0.185615 0.12942 0.143463 -0.0338471 -0.0713 0.0618178 0.0489724 0.196945 0.0569079 -0.101625 0.100987 -0.0269852 0.167511 -0.0979469 0.011714 0.0746292 0.130142 0.147705 -0.0802673 -0.173928 0.062174 -0.0456631 -0.131089 -0.124583 0.00196546 -0.0125379 -0.0829954 0.00134641 -0.0836578 -0.0495973 0.151904 -0.15271 -0.0837359 0.0555006 0.331677 0.114832 -0.124455 0.188473 0.310591 0.158857 -0.141498 -0.0406261 0.200647 0.0436214 -0.165319 -0.00421417 -0.107496 -0.117583 -0.094648 -0.065894 0.0325624 -0.113048 0.0469803 0.225643 -0.0365467 0.00151996 0.0375756 0.381466 0.238982 -0.0129873 -0.00518382 0.212283 0.402185 0.0166287 -0.0873598 0.0504084 0.230036 0.146597 0.0261444 -0.185036 0.0700284 0.0404845 0.0661282 -0.0672777 -0.00102149 0.129752 0.149041 -0.065496 -0.0723753 -0.0623782 -0.13438 0.0228201 -0.0240287 -0.00268219 -0.153378 -0.0406728 0.0508149 0.022005 -0.0237931 -0.0801501 -0.119537 -0.042449 -0.0399737 0.123102 -0.091918 -0.167877 -0.0294279 0.090447 0.00178275 0.0860251 -0.0923565 -0.0343154 -0.0283671 -0.0216316 -0.0604425 -0.258158 -0.201715 0.0114764 -0.0347494 0.0330282 -0.17339 0.021554 0.0163987 -0.0236754 -0.10147 0.00134916 -0.00629417 -0.131952 -0.0535404 -0.0137139 0.0480815 -0.0853025 0.110124 0.160702 0.00141397 0.0673069 0.0296666 -0.14746 -0.0474795 -0.0864177 -0.163265 -0.0235922 0.106054 -0.0237704 -0.257771 -0.284733 0.0673092 0.0822752 -0.20515 -0.188138 -0.0882882 0.0252616 0.0930459 -0.025387 -0.113857 0.0258184 0.0294839 0.00182868 -0.0466047 -0.050644 -0.0404625 -0.119681 -0.0714357 -0.0311131 -0.0714137 -0.123294 -0.213702 -0.176878 -0.0532927 0.0816946 -0.0331782 -0.203367 0.118605 0.133566 -0.0383203 -0.0306695 -0.0593148 0.0497759 0.14874 0.0107212 0.0295415 0.149576 -0.0625181 -0.0188843 0.0935911 0.0151999 0.117076 0.185823 0.169243 0.134338 0.0818956 0.156926 0.049237 0.198836 0.192409 0.115159 0.0467012 -0.0580217 0.0922579 0.209017 -0.0267952 -0.0403265 -0.041657 -0.06395 0.0513104 0.0169716 0.126644 -0.182216 -0.132129 -0.122586 -0.0514206 0.0369391 0.133306 0.112661 0.139355 0.0379864 0.0619365 0.0599935 0.0690629 0.0395509 -0.0424462 0.0643854 -0.0923607 -0.179967 -0.11834 0.13174 0.169651 -0.102176 0.00462937 0.039925 0.134116 -0.000624631 0.045079 0.0662749 0.244688 -0.0497212 -0.0406432 0.0183666 -0.0727984 -0.14333 -0.14637 -0.0790149 -0.000732533 -0.0921958 -0.0360403 -0.144561 -0.0190623 -0.0972737 0.005721 -0.0810482 0.0875521 0.158681 0.0147325 -0.0358282 0.00262671 -0.00981544 -0.154503 -0.102928 -0.0697938 0.0361522 -0.0219023 -0.00425231 0.0593092 0.0266256 -0.0761172 0.000145699 -0.18653 0.0931915 -0.0566387 -0.0393623 -0.254748 0.0158172 -0.189947 -0.148318 -0.184061 -0.0248556 0.148085 -0.214182 -0.205241 -0.0783551 0.0342638 -0.0397468 -0.169118 -0.0359888 0.0468306 0.0840824 -0.0772535 -0.064697 -0.0863399 -0.040348 -0.0430549 -0.147523 -0.0932561 -0.064381 -0.12266 -0.0898877 0.142867 -0.0617417 -0.0202069 -0.142369 0.0465707 0.157415 0.00906666 -0.0979816 0.139466 0.115326 0.165482 0.057998 0.156191 0.128353 -0.0974872 -0.1399 0.0244245 0.118608 0.0203737 -0.134982 -0.0549927 -0.103569 -0.021518 -0.174925 -0.152099 -0.00574029 -0.107005 -0.249577 -0.277784 -0.232775 -0.147033 -0.237077 -0.245178 -0.242122 -0.0759633 0.0885322 -0.215516 -0.0204571 0.0985811 0.0861101 0.0941042 0.146773 0.172965 0.165607 0.200634 0.115548 0.0125183 0.0830692 0.0596052 -0.0093914 -0.0277746 0.08366 0.121366 -0.050932 0.0193452 0.0247592 -0.0129129 0.0540658 0.101115 0.0162392 0.00612026 -0.11322 -0.0933167 0.0225475 0.00389213 0.0130309 0.0785552 -0.0157535 0.150012 -0.0487895 -0.107425 0.0975742 -0.142532 0.0327669 0.0583265 -0.105419 -0.0621187 0.076978 -0.00837006 -0.0196712 -0.0770171 -0.0202407 0.283489 0.12802 -0.00874121 0.0907648 0.151538 0.260293 0.223879 0.0298425 -0.0915686 -0.00614712 -0.0892148 -0.080191 -0.125693 -0.107816 -0.0827026 -0.131856 0.00247992 -0.0354966 -0.0630197 -0.0864914 0.00743314 0.0393599 0.14707 -0.0274698 -0.026931 0.00144697 0.00303785 -0.034015 -0.0579549 -0.0166674 -0.11679 -0.0340154 0.155794 0.088451 0.0364496 -0.0745021 -0.111091 -0.017246 -0.18677 -0.228213 -0.162207 -0.116213 -0.103592 0.0343848 -0.245191 -0.136878 -0.013604 0.00664307 -0.0560934 -0.187022 -0.0565173 0.0829074 -0.00213537 -0.00871355 0.0146649 0.0655301 -0.000525763 0.0164919 -0.0101933 -0.0144196 -0.0494189 -0.0852332 -0.0952879 -0.227588 -0.116419 -0.177398 -0.117576 0.0455931 0.0624181 -0.088177 -0.040794 0.161241 0.202692 0.0641132 -0.00671764 0.0722376 0.122959 0.0473164 -0.0507997 0.10317 -0.0228791 -0.0636181 0.0230399 0.0522611 -0.0811198 0.00457869 0.0481485 -0.100736 -0.0688137 -0.176682 -0.110316 -0.20261 -0.10346 -0.11122 -0.134045 -0.186196 -0.181252 0.0440722 -0.0538358 -0.187763 -0.124631 0.0570101 0.0268654 -0.102412 -0.0617126 0.0737168 0.187213 -0.0351125 0.0112556 
bias: 
0.039909 -0.0293336 0.0178763 -0.00245191 -0.00633271 -0.0629001 -0.00171805 -0.190785 -0.0996062 0.0600197 -0.0450107 -0.0755662 0.0260904 -0.111084 0.0510968 0.0933126 
weights: 
-0.0263651 -0.0136978 0.0184099 0.0179318 0.0316815 0.0357766 -0.0564572 -0.0480151 0.0447531 0.0452981 -0.0809691 -0.182579 0.0801055 0.139878 0.0290811 -0.0108074 0.0348397 0.0153529 0.00725216 0.00543329 0.133922 0.192524 0.0761186 -0.025392 0.0507078 0.0212916 0.0254964 -0.0372787 -0.00912843 0.0632956 -0.00615896 0.065077 -0.0122358 -0.257663 0.0232087 -0.0704642 -0.0529833 -0.143507 -0.0790979 0.0951547 -0.0557647 -0.106117 0.00541263 -0.0823254 -0.0203507 -0.0257748 -0.051354 0.00218794 0.0044826 -0.0035429 -0.0191761 -0.0398108 -0.0218526 -0.115814 0.0509045 0.115851 0.0389871 -0.0120359 0.00634648 0.0440124 0.0498356 0.110373 0.00640295 0.0835016 0.103712 0.0698483 0.0818082 -0.120001 -0.00609507 0.089502 0.0124449 -0.0891442 -0.144632 -0.216413 -0.101166 -0.0364005 0.0112294 0.0619217 0.0521076 0.146681 -0.0402317 0.00131263 0.0668692 0.144042 0.236749 -0.0361403 -0.121181 -0.0562445 0.0126936 -0.00832283 0.00696554 0.0590298 0.107153 -0.0955245 -0.107145 0.0267552 0.0795745 0.0653877 -0.0512179 -0.115648 0.0143769 -0.021945 0.0431002 -0.01031 -0.088096 -0.00841877 0.0173524 -0.216281 -0.248307 -0.0320605 -0.15077 0.0229482 0.00130955 -0.0385222 -0.0941537 0.00317648 0.128266 0.00299402 -0.0330615 0.00473878 -0.062493 0.101646 0.00129143 -0.035076 0.0713127 -0.0630139 -0.0591273 0.101052 -0.0276559 -0.00032188 -0.0431898 0.00844007 0.066102 -0.0993926 -0.176462 0.0510428 -0.0201684 0.081262 -0.134302 -0.0287441 0.022163 -0.0642384 0.0216225 0.0759939 0.0666435 -0.0712368 -0.0430582 0.071205 0.164426 0.089484 0.0275337 -0.00327636 -0.00504228 0.0551051 0.0352925 -0.0950759 -0.0573111 0.0318358 0.0599852 -0.0528114 0.0212581 0.00620237 -0.100282 -0.0922033 -0.0714724 -0.0455424 0.0135361 -0.0820906 -0.0711865 -0.0606371 0.00339297 0.10485 0.0398589 0.134435 0.0458191 -0.0791723 -0.00321808 0.136532 0.0847001 0.0619593 -0.066701 -0.0136731 -0.0926101 -0.0543167 0.0215653 0.215915 0.0332241 -0.0778656 -0.121052 0.0434206 0.306482 0.203389 -0.130894 -0.167353 0.0692109 0.178574 0.169651 -0.0650272 -0.135673 0.051028 -0.00816879 -0.0258987 0.0428262 0.0386979 -0.00637776 -0.0765897 -0.0108877 -0.10705 0.105295 -0.0229964 0.0946946 -0.233299 -0.0789566 0.097122 -0.0658948 0.188295 -0.0524642 -0.0150451 0.0154069 0.0445608 0.153444 -0.193157 -0.130442 0.0505965 0.0345368 -0.121569 -0.0464633 0.0468905 0.0314081 0.138484 -0.113309 -0.00717578 -0.0684044 0.0763872 0.0764166 -0.1053 -0.0826298 -0.167655 -0.122026 -0.142127 -0.000649471 -0.0438383 -0.0491265 -0.031132 -0.179214 -0.0333392 0.106219 0.124144 0.0197143 -0.113019 -0.040009 0.00579882 0.0632946 0.0100972 0.0948158 -0.123266 0.00797832 0.0263233 0.0376549 -0.0179585 0.00889135 -0.0334887 -0.170216 -0.101037 -0.151383 -0.104175 -0.0705548 0.0106431 0.0576544 -0.0339566 -0.0315081 0.00443609 0.0514731 0.069871 -0.0128341 -0.148026 0.0996928 -0.0845612 -0.0671226 -0.0570188 0.00162189 -0.102186 0.0143391 -0.11147 -0.208377 0.00920422 -0.0611685 -0.224753 0.0692802 0.0166843 -0.0206185 0.0839512 0.110643 0.0730214 0.063421 -0.0720635 0.105725 0.0867134 0.0782283 0.0103512 0.0737965 0.0641877 0.0442724 -0.0837806 -0.0400714 0.0366173 0.00670478 0.0110766 0.0880676 -0.0942832 -0.0390312 -0.0775277 -0.0439156 0.062733 0.0326852 0.00788049 0.0118389 0.000353681 0.0645377 0.0579873 0.0458094 -0.0401671 -0.0678535 -0.103056 -0.018878 0.014027 -0.0926831 -0.00484078 -0.0412651 -0.13227 0.0178185 -0.0646715 0.00352881 -0.174366 -0.0885019 0.0172994 0.0312052 0.103196 -0.0904556 0.070541 0.160952 0.0480911 0.12283 0.091807 0.108507 0.0485889 -0.0854532 -0.0456277 0.0762079 -0.0469013 -0.00753287 0.172847 0.179081 0.0374766 0.0406397 0.0890858 0.137096 -0.00558708 -0.0234492 -0.0776037 0.0779648 -0.0730414 -0.100465 -0.0651393 -0.0581778 -0.0695252 -0.193239 -0.0869004 -0.049583 0.0356964 -0.125084 -0.133061 0.0347512 0.14615 0.103306 0.0184668 0.0633001 0.142621 -0.0517769 -0.0735501 0.0387443 0.0191689 0.0361726 -0.107834 -0.00126661 0.0419906 -0.0267887 -0.167454 -0.125943 0.0694846 -0.0780402 -0.0173109 0.0311598 -0.0175681 -0.0790574 -0.087228 -0.119963 -0.00429448 0.105502 0.127412 -0.0624663 -0.0212942 0.0111302 0.054261 0.047121 0.0263872 0.00889006 -0.0456879 -0.00999046 0.0442781 0.00434392 -0.117401 -0.0235466 0.0102051 -0.0088688 -0.0300301 -0.0854834 -0.000184722 0.0470013 -0.00870023 0.0504216 0.0572289 0.301002 0.087015 -0.0134986 -0.0269616 -0.11434 -0.124518 -0.0148473 0.00744355 -0.0306696 0.047624 0.114247 -0.0104384 -0.111506 0.00353491 0.10919 -0.155396 -0.130608 -0.0151274 0.0747736 0.180849 -0.0939344 0.00934925 0.123954 0.0521184 0.0103397 -0.0795826 0.0887365 0.0461654 -0.0208674 0.105783 0.100416 0.057916 -0.00275473 -0.0669943 0.0888145 0.145193 0.0268027 0.091616 0.00560343 0.120273 0.130957 0.0392899 -0.0529488 -0.0841859 0.193986 0.0502359 -0.0783583 -0.0116031 0.0916115 0.152582 0.135784 0.0180527 -0.0298092 0.0408202 0.0141091 -0.0364661 -0.05624 -0.0500193 -0.0931196 0.133379 0.114945 -0.0401056 -0.0582601 -0.00774643 -0.019775 -0.00343577 0.00711738 -0.0168485 -0.0406691 -0.0777967 0.0528315 0.0558441 0.0359535 -0.0566441 -0.0878848 -0.077619 0.10167 0.00966185 0.042587 -0.000188895 -0.0450854 -0.110737 -0.104438 -0.0426712 -0.0378753 -0.0527601 -0.120871 -0.178597 0.0588982 0.00563104 -0.042773 -0.0798157 -0.00589245 0.10397 0.166804 0.0769125 -0.110449 -0.0496308 0.0644236 0.00347946 0.0358532 0.0302949 0.035346 0.0119099 -0.0158632 0.124076 0.119771 0.0138021 -0.0218393 0.0368658 0.00596288 -0.0386394 0.170652 0.0360277 0.00991453 0.0405807 0.00494839 0.00790662 0.0273954 0.151867 -0.0931648 -0.152403 0.00467598 0.0546521 0.0421396 -0.0692535 -0.212238 -0.0176538 -0.0456969 0.0673026 -0.0499491 0.0205465 -0.0681977 -0.0276008 -0.132233 0.0580181 -0.0532198 -0.0736505 -0.0375038 0.0310898 -0.0429746 -0.0764533 -0.068476 -0.0332796 -0.0210333 -0.0911484 -0.0612477 -0.0339698 -0.0620862 -0.00493481 -0.0490584 0.00108453 0.00450624 -0.0275683 0.0630279 0.383849 -0.00797591 0.00566594 -0.0478972 0.0596306 0.22259 0.0780027 -0.00144024 -0.0707371 -0.190804 0.113027 0.0632651 -0.0637096 -0.159625 -0.069656 0.116933 0.0247048 -0.0701306 -0.0630366 -0.0919449 -0.0126552 -0.122082 -0.0802722 0.0615142 0.12279 0.157719 -0.0263973 -0.0845389 -0.0172248 0.161869 0.125916 -0.0241296 -0.0301589 -0.020146 0.199304 -0.0337983 -0.00164804 0.0108219 0.0406484 0.148018 0.0137678 -0.030181 -0.0838156 0.125502 0.0918892 0.0970878 0.0835062 0.0687109 0.0576003 -0.108417 -0.00820647 -0.00808423 0.0240236 0.0257973 -0.0711835 -0.0792388 0.0209338 -0.0105205 -0.112844 -0.00750708 -0.0748129 0.0230676 -0.144176 0.034404 -0.0362968 -0.0448807 0.0458027 -0.0332571 -0.00886812 0.065013 0.0405669 0.048061 0.0796854 0.0378284 -0.0277507 -0.147362 -0.131138 -0.101983 -0.086083 -0.104336 -0.038999 0.0326804 -0.0526091 -0.103331 -0.131614 -0.00298674 0.040014 -0.0653996 0.159471 0.123783 0.169324 0.133274 0.109704 0.0563384 0.00835487 -0.0388126 0.0279848 0.00475419 -0.0708646 -0.105527 -0.0680806 -0.00689347 -0.0195008 0.0346236 0.0777307 -0.143285 -0.133179 -0.0295974 0.0435138 0.151267 -0.0715591 -0.100073 -0.0547645 0.138857 0.00532516 -0.133506 -0.0053834 0.209576 0.1423 -0.0403627 -0.129735 0.0311175 0.00922577 -0.0784853 -0.00591078 0.223705 0.0925955 0.068604 -0.000634827 0.0971685 0.0850403 0.107973 0.12988 -0.0481981 0.000743895 0.0547309 0.0610639 0.0995193 0.0243438 0.118636 0.0497799 0.0368078 0.0203669 0.00571043 0.120402 0.137063 0.00895517 -0.00959224 0.049722 0.084633 0.307819 0.14027 0.00464091 -0.0862156 -0.132482 0.130196 -0.0195144 0.0779402 -0.0306136 0.0300071 0.00909205 0.0632711 0.0557837 0.00228618 0.0609018 0.122293 0.0274559 -0.0810311 0.0140521 0.121109 0.0170238 -0.293353 -0.105752 -0.124872 -0.0284549 0.214072 0.178945 0.0525749 -0.108026 0.0893924 0.289308 -0.0107997 -0.0634507 0.0643073 0.0268959 0.0279858 -0.00444519 0.0269787 -0.000782971 0.0190362 -0.0329861 0.0743727 0.00111008 0.0215694 0.111286 -0.0411131 -0.0298972 0.0168727 -0.100736 -0.0556798 0.155893 0.114303 0.0999305 -0.06071 -0.0816869 -0.0353053 -0.0127689 -0.0240044 0.121142 -0.0832664 0.0865665 0.0604719 -0.00808296 0.117512 -0.011367 0.123338 0.0298785 -0.0484959 0.0570116 0.0125519 0.00974716 0.0451525 -0.0184748 0.0404697 -0.0249431 -0.0072456 -0.0351622 -0.0234262 -0.0187146 0.150426 0.106772 0.0646135 -0.0363605 0.0609865 -0.111102 -0.0901518 0.0343684 -0.0317626 -0.149753 -0.0774384 -0.0568567 0.0487815 0.0313221 0.145926 0.0987164 -0.0251645 0.0614302 0.0102887 -0.000219352 -0.0467366 -0.0116579 -0.117079 -0.224604 0.0341355 0.0647108 0.00469744 -0.00349386 -0.0223167 0.154 0.156649 -0.00816056 -0.0946287 -0.0662839 -0.0293694 -0.236786 0.0185163 0.111205 0.116671 -0.116877 -0.151559 -0.0155488 -0.0241144 0.0977197 -0.052136 -0.0195676 -0.000116941 0.0803636 0.0604327 -0.221482 0.00391085 0.156351 0.235208 0.112535 -0.219266 -0.0740063 0.0166484 0.00301509 -0.0642344 -0.051781 -0.0888263 -0.121168 -0.168161 -0.192149 0.0706881 -0.0923733 -0.20866 -0.0709435 -0.0197647 -0.10455 0.0985599 0.201176 0.0862158 0.0478492 0.0715685 0.0653489 0.0853515 0.0537896 0.0335938 0.0161807 0.0493069 0.19261 0.0900496 -0.00826705 -0.0200621 -0.199239 0.127046 -0.00480387 -0.207158 -0.0612102 -0.0120687 0.0685649 -0.044372 -0.0318295 0.0430989 0.0939273 -0.0915583 -0.0258773 -0.129117 0.239693 0.216622 0.0324039 0.0698013 0.119791 -0.0457512 -0.0196899 0.0718683 -0.0420758 0.0778786 -0.0728209 -0.0399102 -0.0195222 0.0449016 0.12734 0.0308846 0.167777 -0.039011 -0.0251343 0.175867 0.0555701 -0.0408269 -0.0342951 -0.096922 -0.21819 0.0899644 0.0170462 -0.0828966 -0.175303 -0.131101 0.00342937 -0.0970035 0.0663119 -0.0390142 0.0478464 0.0735509 0.099777 0.0702354 0.111906 -0.041621 0.0643329 0.0325373 0.0438508 0.117897 -0.0593866 0.0239775 -0.0730933 -0.0321845 0.00406219 -0.0214748 0.0246562 0.0734455 0.0455634 0.00902898 -0.00838959 0.000550979 0.115685 0.0690807 0.0864333 -0.05172 0.031398 0.0288485 -0.078078 -0.0409436 0.0769554 -0.000128561 0.0126283 -0.0778072 0.0370983 0.214812 -0.066425 0.00342898 -0.102176 -0.0662356 -0.0277745 -0.224923 -0.106771 -0.213026 -0.20795 0.00987381 -0.218533 -0.0471717 -0.0195328 -0.0113004 0.0177933 0.000371766 0.164249 0.0705376 0.0714966 0.0580063 0.253599 0.231276 0.131978 0.0962524 -0.105 0.00444658 0.0369139 0.0356079 0.0858227 0.00233568 -0.113296 -0.129046 0.146617 -0.0035446 -0.107123 -0.057736 -0.00156939 0.0353938 -0.0675619 0.0747255 0.120311 0.037492 0.116308 0.159381 0.182377 -0.0379099 0.000187408 0.0998684 -0.014178 0.0224201 -0.0413171 0.106489 0.0131337 -0.0680477 -0.0148308 0.107652 -0.0162979 -0.0590056 0.0623214 -0.0784831 -0.00778668 -0.0128408 -0.0244694 0.105177 0.036474 0.0793173 0.0451532 0.163225 0.238127 0.0907743 0.0910613 0.000195912 0.104535 0.149377 0.164204 -0.0883396 0.041145 0.179038 -0.0495346 -0.117307 -0.0785156 0.175212 0.021497 -0.143323 -0.1603 -0.0207461 -0.016876 0.230277 -0.0307078 0.0853483 -0.0125993 -0.0282948 -0.17242 -0.0604254 0.169257 0.035822 0.00877329 0.125916 0.229067 0.253889 0.0976587 0.0144917 0.0800214 -0.0123803 -0.199876 0.0706459 0.00191876 0.0866579 -0.000912984 -0.028888 0.129104 0.0438445 0.00686354 -0.0437223 0.0970277 -0.0608033 0.132597 0.122577 -0.212065 0.0707727 -0.129474 -0.0462074 0.113909 0.0441398 0.0586098 0.109705 0.0917997 0.0607772 -0.111781 -0.0754762 0.0515971 -0.0637349 0.0718291 0.0477648 -0.0334475 -0.0100086 0.0177479 0.187811 0.0643557 -0.127217 -0.0392413 -0.0340187 -0.0259215 -0.121914 -0.16126 -0.0325749 0.0544307 -0.0843753 -0.152191 -0.159797 -0.010608 -0.0988284 -0.242932 -0.150822 -0.114397 0.000427764 0.0932401 -0.0822511 -0.0361048 0.0429112 0.00104794 -0.182849 -0.0673613 0.00126417 0.1342 0.201606 -0.192524 0.147938 0.158952 -0.0332876 0.100111 -0.0796648 -0.0841135 -0.0582684 -0.242683 0.0589303 0.0588307 -0.0297011 -0.0181351 0.0185741 0.0723579 -0.0339771 -0.0111708 -0.0212076 0.0357034 0.24918 0.230479 0.0805973 0.109011 0.0906744 0.0945886 0.0614898 -0.00245664 -0.0661046 -0.176471 -0.0577416 0.061376 0.0258825 -0.141388 -0.0630127 -0.159685 -0.0979056 -0.0784084 -0.18564 -0.152474 0.139791 0.0696672 0.0227054 -0.0210159 0.0712274 0.281731 0.15897 -0.093854 0.139539 0.155088 0.177709 0.113547 0.160502 0.132703 0.145482 -0.0484519 0.00327991 0.0472042 -0.190934 -0.218425 -0.0356826 0.0175748 0.111779 -0.0114666 -0.0517899 -0.0507721 -0.0187725 -0.0389637 -0.0410725 -0.013223 -0.0192375 0.33563 0.146038 -0.0131498 -0.052552 -0.0178019 0.294017 0.0650367 -0.0480585 0.0351209 -0.0546147 0.0105763 -0.234649 -0.121795 -0.0630862 -0.106501 0.00354156 0.178909 0.0564434 -0.134991 -0.0242068 0.0593105 0.269278 0.13343 -0.0150022 0.0851567 -0.0361065 0.000628945 -0.00657949 -0.0687069 0.084451 0.110433 0.0815509 0.0413253 -0.0139116 0.126528 0.136427 0.00596644 0.110164 -0.088167 -0.0338002 -0.0672947 0.171516 0.20516 0.0401106 -0.0458935 -0.0389822 0.035252 -0.0145771 -0.0457422 0.0313269 -0.16201 -0.185204 -0.0919128 -0.0797833 -0.0439855 -0.208151 0.034124 0.0666288 0.0439126 -0.0377763 -0.209413 0.0254197 0.00835332 0.0689786 -0.0943885 0.011563 0.0915464 -0.0170983 0.0720568 -0.0719016 -0.107846 -0.0186451 0.0503766 -0.0897393 -0.0395675 -0.0515055 -0.0819868 0.146721 -0.0579135 0.225804 0.0701919 0.221606 0.0903331 0.158395 0.153673 -0.0127443 0.223433 0.168515 -0.0254065 -0.00839503 -0.00932746 0.0786993 -0.00681833 -0.123568 0.00370515 0.0751381 0.103101 0.164703 0.123261 -0.00663111 -0.0661912 -0.0858363 0.0385756 -0.0529681 0.121822 -0.111764 -0.0695268 0.0633669 -0.0458871 0.0664652 0.149202 0.071514 -0.0176315 -0.127767 0.0198151 -0.0730679 -0.0494431 -0.00187951 -0.0981595 -0.100167 -0.0529324 -0.00757061 0.160642 0.127947 0.00489397 -0.0579076 0.0980967 0.256951 0.000807663 -0.0790201 -0.154244 0.0407874 0.14237 -0.0706398 -0.106188 -0.0326483 0.0276521 0.231628 0.079212 -0.0087156 -0.0814373 -0.0826192 0.125318 0.113873 0.0606813 0.039797 -0.0375844 0.0727493 -0.0458035 0.110985 0.00851161 -0.0584154 -0.091407 -0.0283499 0.125208 0.132952 0.0590093 0.0093145 -0.0107859 -0.014186 0.044513 0.0138338 -0.0654292 -0.0679448 -0.0756707 -0.0637391 0.0265829 -0.0679267 -0.0975568 -0.25544 -0.263184 0.109914 0.152683 -0.00943082 -0.257972 -0.113956 0.241313 0.0407935 0.0169943 -0.119628 -0.0781863 -0.0784707 -0.170723 -0.0959682 0.000108966 -0.172119 -0.13746 0.0913693 0.136245 -0.0700402 0.0468182 0.0442904 -0.00462507 -0.0835912 0.0571071 0.0579388 -0.0983419 -0.180598 -0.0115117 0.0719063 -0.147515 -0.210724 0.0728841 -0.0437957 -0.137585 -0.132534 -0.0107471 -0.0299909 -0.108369 -0.160261 -0.111593 0.101112 0.0166982 -0.00603841 0.148068 -0.0187463 -0.149509 -0.0918298 -0.0835238 0.0603345 -0.114675 -0.0573494 0.0192127 0.154862 -0.00281175 -0.0327387 -0.0167896 -0.148152 -0.0122942 0.132013 0.118117 -0.0362512 -0.0354917 0.104081 0.21085 0.236442 -0.000856964 0.0403918 0.0852421 0.0834723 0.128126 0.0504677 0.144175 -0.0867021 0.0152371 0.00854698 -0.0402932 -0.00756986 -0.114072 0.174334 0.0918001 0.0451438 0.0385763 -0.039153 0.160329 0.152809 -0.175825 -0.0615501 -0.177588 0.128003 0.0126702 -0.0554301 -0.0182715 -0.0505345 0.148622 0.0629785 -0.0893208 -0.0918109 -0.165626 0.154316 0.163223 0.073753 0.162 0.15979 -0.0137949 -0.0292769 0.210815 -0.0162441 -0.220447 0.0448325 0.00672944 0.0464212 0.0223651 -0.0971728 -0.0434599 0.0828063 0.22025 0.0274311 0.108131 -0.0536522 -0.11185 -0.12855 -0.000416402 0.0587571 -0.150071 -0.0576923 -0.145826 -0.0448906 0.0944373 -0.102333 -0.0471606 -0.159273 -0.0769362 0.0489612 -0.0475174 0.0786169 -0.0772151 -0.0123005 0.11536 -0.00917625 -0.0343694 -0.117636 -0.043505 0.130027 -0.168218 -0.159343 -0.108258 -0.0924623 -0.0726631 -0.0606581 -0.158336 -0.0825674 0.0670672 0.117983 0.0303143 0.0962 -0.0895777 0.156685 0.0669565 -0.149372 -0.115022 -0.0690102 0.044547 -0.0606277 -0.0389266 -0.0965144 -0.120517 0.0321589 0.255261 -0.0168032 -0.195947 -0.184697 -0.0424712 -0.0381263 -0.00844067 0.0611474 0.0118023 0.0023696 -0.0607764 -0.0128273 0.0796017 -0.00542759 -0.0112965 -0.0885372 -0.00995518 0.0604218 0.0842029 -0.0174805 0.0223849 0.0275333 0.188041 0.148868 0.0055512 0.0608916 0.000204513 -0.0869457 -0.064513 -0.0759044 -0.124008 -0.114377 -0.0149001 -0.00346584 -0.126576 -0.0203363 -0.137925 -0.0479176 0.0970899 -0.126519 -0.103802 0.0625738 0.00882952 -0.0564985 0.0362404 0.0247558 0.108203 0.100789 0.0651205 0.122004 0.0274528 -0.0174088 -0.0561583 -0.0197619 0.0111049 0.0443142 -0.0521364 -0.105739 -0.0177164 -0.083808 -0.0367772 0.155432 0.212183 -0.0741121 -0.0283496 -0.0185391 0.0266251 -0.0451924 -0.118835 -0.0368031 -0.0556336 -0.112301 -0.156328 0.00871749 0.185558 0.0588898 0.106782 0.10001 -0.0822215 -0.0649238 -0.00266882 0.027763 0.146525 -0.0651502 -0.177751 -0.123014 -0.0623903 -0.08459 -0.023204 -0.0192119 -0.0407111 0.0489865 0.100852 0.233098 0.0254044 -0.0120591 -0.0151903 0.0605581 0.0159699 -0.0891618 0.024405 0.172733 0.267611 0.169366 0.146298 0.000974516 -0.00383246 0.0617098 -0.014547 0.187534 -0.0829831 0.0398942 -0.107914 -0.0637895 0.0441036 -0.00267531 0.0672304 -0.0287325 0.0109051 -0.0138691 0.0832422 0.0166902 0.102352 0.0650377 0.177289 0.125596 0.0061571 -0.168999 -0.0419896 -0.214179 -0.0212177 0.18527 0.141074 0.0202416 -0.0276302 -0.156532 0.126922 0.128231 -0.0106402 -0.144577 -0.146414 -0.0878016 -0.0315467 -0.20014 -0.0883154 -0.0673351 -0.0383113 -0.0790554 -0.0678133 -0.142642 0.0035267 -0.118103 -0.210418 -0.325599 -0.161699 -0.142702 -0.14301 -0.0693618 0.00402382 -0.0211434 -0.0846996 0.00370946 0.0943123 0.19054 0.183776 -0.0261632 -0.0729062 -0.119867 0.159221 0.158564 0.140409 -0.033401 -0.038293 -0.0405408 0.00761122 0.140804 0.0395446 -0.0097413 -0.0422907 -0.16002 0.100256 -0.0188883 -0.015114 0.0568197 0.055644 0.111867 0.0244009 0.082186 -0.0926702 0.0101147 0.0716986 0.0904577 -0.0307537 -0.0889767 -0.075328 -0.0771342 0.141935 0.0677284 0.0352538 -0.0506559 -0.133338 -0.000956172 0.0752496 0.0875438 -0.00675073 -0.0262371 -0.0451542 0.0399656 -0.128925 -0.0876145 -0.00415348 -0.0116954 -0.00579294 -0.00951972 -0.0279953 -0.0202238 0.0720923 -0.01742 0.0951814 0.0503818 -0.0092974 0.0823225 -0.0585143 0.147069 -0.0526541 0.0302701 0.0165947 -0.152053 -0.161604 -0.0544778 -0.00032858 0.0533223 0.173507 0.0516861 0.197002 0.139099 0.115282 0.272114 0.0372429 0.233054 0.0425503 0.0839577 -0.0129046 -0.122552 0.237537 0.0705184 -0.0278512 -0.0839369 0.0258909 0.0425891 0.00263449 0.181032 -0.0725551 -0.0700168 0.0893917 -0.066054 0.231957 -0.0992763 -0.00522644 0.0326807 0.0132528 0.0195717 0.0959126 0.0917973 -0.0223658 -0.00053474 -0.0215291 0.123776 0.0729327 0.0332795 0.0513218 -0.0773768 0.175286 0.0692278 -0.0343979 -0.0127339 -0.0669334 -0.239985 -0.169696 -0.0913833 0.0184944 -0.174447 -0.153723 0.0510325 -0.0316215 -0.189485 0.172878 0.180498 0.21189 0.0444726 -0.0374034 0.0281642 0.0444159 -0.0390379 0.0708294 -0.0141864 -0.104035 -0.132731 -0.0549517 -0.0474435 0.0305772 -0.0212634 -0.204707 -0.213385 -0.27108 -0.109798 0.0989858 0.0669655 -0.109514 -0.0759871 0.0537201 0.0902056 0.167588 -0.0181509 -0.0805513 0.137883 -0.121846 -0.0680104 0.00678289 0.0352302 0.0805667 -0.0320353 -0.0470662 -0.0709493 0.0316656 0.0681145 -1.97311e-06 -0.274519 -0.166221 -0.0585537 0.0772541 -0.104437 -0.0914678 0.0411692 -0.0132918 0.0708442 0.112479 0.166257 -0.0113454 0.248976 0.0932079 0.152502 0.0135205 -0.029706 0.0423876 0.0913645 0.0132104 -0.0626822 -0.156348 -0.0253007 -0.0108484 0.0525726 0.0320405 -0.0658316 0.125753 0.00263528 0.138499 0.13283 0.0288453 0.030001 -0.146142 0.0295053 0.0152371 -0.0600526 0.0228356 -0.0829161 0.0685979 0.0548361 -0.0702843 0.0212679 -0.0798596 -0.0118705 0.0878594 0.148204 0.218498 -0.019525 0.0313947 0.021953 0.10267 0.0805196 0.0679491 0.145136 0.083394 0.160454 0.247405 0.232232 -0.0494787 -0.0292356 0.0855946 -0.0760071 0.174762 -0.0870105 0.143285 -0.0610903 0.108032 -0.0812681 0.0363854 0.024645 0.0124469 -0.00106712 -0.125716 -0.0221935 -0.133167 -0.13654 -0.00728878 0.115841 0.0915109 -0.0834339 -0.159718 0.0123363 -0.0416298 0.10193 -0.272094 -0.0881512 0.00243958 -0.0944748 -0.0373888 -0.193993 -0.129294 0.00463483 0.0412365 0.0993623 -0.0458848 -0.0785354 -0.0160763 0.0117317 0.0313235 0.0609011 0.145061 0.125538 0.125869 0.0182239 0.112184 -0.0527138 -0.094643 -0.0386534 -0.0989501 -0.00456842 -0.181414 0.0205012 0.0292498 0.0315664 -0.0187602 -0.173622 -0.0376555 -0.0280599 0.0205485 -0.0802898 -0.0438725 -0.0508602 0.0240276 0.0384623 0.0116301 0.0873769 0.00809402 -0.00829377 0.0321826 0.129932 0.0846991 -0.0175639 0.0324428 0.096094 0.0512057 0.011407 -0.0251464 0.063556 0.0173692 0.103805 -0.0619644 0.0228294 0.0497484 -0.0536246 0.0407537 -0.193199 0.0191099 0.00130015 0.00350719 0.0489377 0.0088298 0.0278669 0.254889 -0.0650243 -0.0761735 0.171699 -0.00560251 -0.0766547 0.123479 -0.00248619 0.0721433 0.0379566 -0.0457433 0.0416149 0.0170882 0.0768494 0.00751359 -0.0100275 0.0628684 0.00989782 -0.0323149 0.0396255 0.0596421 0.0148272 -0.0583435 -0.285711 -0.0830162 -0.174693 -0.0153754 0.136756 -0.106524 -0.217028 -0.366761 -0.0560134 0.0343092 0.0719016 0.000392797 -0.042068 0.0131949 -0.0966183 0.105209 0.0385776 0.0337646 -0.0430323 -0.0381465 0.00137844 0.0572122 0.0761697 -0.00336573 -0.10213 -0.158158 -0.0500298 -0.0512462 0.0528373 0.0482132 -0.0809706 -0.170471 -0.254544 0.130237 0.0906064 0.0483837 0.129868 0.0522766 0.122787 0.0684629 0.0954901 0.127529 0.213126 -6.41755e-05 0.143128 0.106704 0.0395851 -0.00904274 -0.0888803 -0.00177715 0.0150629 0.135198 0.141489 0.0393688 0.0727488 0.0260645 -0.0262657 0.114938 0.0190794 0.016516 -0.0345124 -0.0630299 0.00209927 -0.025521 0.225255 -0.0585097 -0.0478739 -0.0990098 0.0166173 0.0454287 0.0878008 -0.0540512 -0.0280574 0.0452263 0.0991243 -0.111958 0.0328051 0.0559267 0.0165224 0.0169065 -0.0408457 -0.0898656 -0.0776931 -0.0804497 0.0165287 0.0554979 -0.11918 -0.13284 0.0226722 -0.0326247 0.0327374 -0.0790441 -0.0550514 0.0988319 0.0788421 0.141733 0.166679 -0.0138392 0.0151497 0.00135952 -0.0708289 -0.0509645 -0.0740389 -0.0974398 -0.0176958 -0.0238866 0.0342197 0.0429973 -0.0959524 0.00255954 0.0222394 0.149305 0.156221 0.0679212 -0.0370387 -0.00179432 0.117386 0.0959384 0.052748 -0.0326037 -0.0219933 -0.0619143 0.0165621 -0.0211045 0.0502061 0.0373292 0.108826 0.0389913 0.20654 0.316331 0.0533134 0.0136227 0.00401557 0.055266 0.207616 -0.0787542 -0.103396 -0.225461 -0.0448073 -0.0184008 -0.0999368 -0.202554 -0.125533 -0.0957458 -0.0568536 -0.12848 0.0852709 0.012866 0.045843 0.0573898 -0.110248 0.0956921 0.043179 0.0861949 -0.0636756 -0.0822357 0.0781808 0.060325 0.145432 0.0244538 0.028791 0.112436 0.0299284 0.030363 -0.123722 0.0799922 -0.00985934 -0.0433038 -0.15196 -0.153383 -0.103367 0.0200303 -0.000445406 -0.0532866 -0.0451327 0.089831 0.0972735 0.138263 0.00130031 0.0779341 0.0684835 0.0312443 -0.04745 0.0476631 0.0102324 0.00705549 -0.120123 -0.0860572 0.0625378 0.192842 -0.0407678 0.0424523 0.0501207 0.0301446 0.162055 0.0807434 0.00268187 -0.0134982 -0.0372412 -0.0934302 0.0350378 0.0368496 0.251046 0.0650098 -0.0970147 0.0502334 0.132551 0.210273 0.165174 -0.0844427 0.122502 0.107428 0.0230591 0.308596 0.185029 -0.0689022 -0.0838436 -0.0144807 0.0183392 0.0104517 -0.0196071 0.0860784 -0.0395061 -0.176767 -0.0542513 0.0397876 0.224622 0.252331 -0.140799 -0.229092 -0.109087 0.0115364 0.0654099 0.0650907 0.0266795 -0.00653394 -0.149929 -0.0904928 0.16279 0.0559502 -0.0182136 -0.0406733 -0.0976577 0.173867 -0.0244081 0.197573 0.0937772 0.0509708 0.0417084 0.175329 0.0399016 0.0575389 0.0254329 0.119443 0.196392 0.00116458 -0.187053 -0.0644237 -0.0113586 -0.0399094 -0.0311883 -0.0651927 -0.0664577 0.0308615 -0.029808 -0.0370705 0.00107816 -0.00161371 -0.122198 -0.109042 -0.0364803 -0.0191617 0.0192025 0.166418 0.111576 -0.0440249 0.198014 0.269892 0.0816679 0.0351442 -0.0857054 -0.027866 -0.155211 -0.120434 -0.072085 0.0515087 -0.304486 -0.426024 -0.136735 -0.226515 -0.00142937 -0.027339 -0.0622384 0.0439664 0.0783338 0.0385786 0.0742463 0.0510421 -0.074573 0.0317132 0.0384392 0.0774863 0.00926067 -0.0364464 0.0275467 0.00531264 0.0380454 0.0134358 -0.0514127 -0.158772 -0.136121 -0.146811 0.0578167 -8.76878e-05 0.0214262 0.0762084 0.105958 0.00112907 0.0821583 0.131656 0.108305 0.0482236 0.00813157 -0.0569131 0.123583 0.0418546 -0.059029 0.153214 -0.04353 0.122387 0.170084 0.0897881 0.0702391 0.0421217 0.0287461 -0.0489775 -0.163844 -0.0540999 -0.00452686 -0.016929 0.0662303 0.048453 0.0493167 -0.0133143 0.100261 0.0315227 0.0696995 -0.0818801 -0.0290264 -0.132753 -0.0273553 0.0243799 0.0341395 -0.111158 -0.0989693 -0.0887366 -0.0230099 -0.0814973 -0.0198803 0.0196744 -0.0887351 -0.109215 0.0111118 0.0485453 0.00374428 0.128919 -0.0419777 -0.0147937 0.165476 0.130696 -0.00987908 -0.0143385 -0.0531863 -0.0274802 -0.103386 -0.0692747 -0.125753 -0.0707788 -0.0644377 -0.103943 -0.105108 0.161817 -2.19863e-05 -0.0537968 -0.15522 0.00175256 0.0744076 -0.0298496 -0.0249775 -0.220731 -0.0666188 -0.0547789 -0.0591891 0.0686151 -0.0614897 0.00837371 0.0906933 -0.0580745 0.0784591 0.136915 -0.00450479 -0.129904 0.0203162 0.122139 0.0272231 -0.0903904 -0.25001 -0.0150822 0.122051 0.141592 -0.136164 -0.166129 0.0308016 0.0561651 0.0971625 0.0175656 -0.0291477 -0.016306 -0.0299704 -0.0687387 -0.0831671 -0.104306 -0.0422 -0.0517843 -0.0733747 -0.167166 -0.0242406 -0.0138262 -0.0964115 0.00798955 -0.110987 -0.0846528 0.0504087 -0.0689043 0.039105 0.0445507 -0.00834984 0.174279 -0.00100879 0.15872 0.0546797 0.180814 0.113971 -0.0173914 0.00635769 0.0497984 -0.028379 0.0620652 -0.0517307 -0.113298 -0.0151699 0.161677 0.137245 -0.0321522 -0.0415896 0.044955 0.206021 0.134845 0.0553595 -0.148607 -0.0672605 -0.0624323 0.128195 -0.0387655 -0.147676 0.0372307 0.0818548 -0.0314962 -0.0319149 -0.00730496 0.0667442 0.0323245 0.0562127 0.000265503 -0.00636393 -0.124024 0.0650028 0.0869487 -0.000436711 -0.0110113 0.0821559 0.0644914 -0.068887 0.0453643 -0.0586652 0.0129424 -0.110959 -0.156831 -0.00335625 0.0308543 -0.0185458 0.116472 0.0521078 -0.0526348 -0.0139301 -0.0550474 0.0229721 0.0982409 0.00138912 0.0317869 -0.0503956 -0.0920713 -0.0301988 -0.00634691 -0.0389055 -0.0258342 0.0706085 0.209323 -0.0546258 -0.0254412 0.0358127 0.149554 0.122145 -0.103523 -0.120573 -0.0653767 -0.0553604 -0.0416677 -0.0166189 -0.0177697 -0.0556978 -0.0648767 -0.112589 -0.0141634 0.0353583 -0.142252 0.0260198 0.172315 0.0187908 0.103054 0.111494 -0.0602911 0.108896 0.080159 -0.00996251 0.0896145 -0.21563 -0.0581276 0.231652 0.275009 0.200764 -0.0624029 0.0255517 0.074886 0.137913 -0.0548777 -0.00524111 -0.0929161 -0.0754678 -0.0710193 -0.0384509 -0.109078 0.0429152 -0.0329937 -0.0386158 -0.0743214 -0.0693891 0.0642708 0.0411327 -0.132474 -0.0893639 -0.090806 0.0168324 0.206832 -0.185804 -0.195151 -0.097795 -0.0477445 0.0401296 -0.060635 -0.0148416 0.0298538 0.006732 -0.224552 -0.159955 -0.0226681 0.0105576 0.11543 -0.183014 -0.127845 -0.0627256 -0.18161 -0.0177699 -0.106504 -0.00376659 0.0878915 0.00963932 0.169966 0.0379025 0.085454 0.110316 0.0981729 -0.0390036 -0.189994 0.0288533 0.055404 0.071417 0.0369455 -0.222617 -0.291497 -0.128127 0.0852157 -0.0339463 -0.0920204 -0.0988953 -0.0101877 0.13141 0.12873 -0.0496753 -0.0121391 0.0824968 0.130614 -0.062226 -0.0600839 0.00258337 -0.0679734 -0.0121956 -0.0469362 -0.0675844 -0.0908702 0.103221 -0.0801326 -0.0518189 -0.0903075 -0.13508 0.0411067 0.0326923 0.00380839 -0.0900624 -0.135692 -0.0536925 0.0397519 -0.0196975 -0.208825 -0.0230188 0.0272453 -0.137757 0.0320556 -0.0705402 -0.0890245 0.162793 0.00988172 -0.0203113 -0.0664713 0.0427002 0.178599 0.0645346 0.101285 0.126117 0.156269 0.21086 0.12974 -0.0229178 0.0688281 0.0412367 -0.0457761 -0.0615796 0.0105743 0.00424168 0.0252549 -0.186588 0.00359478 -0.0340506 0.0465868 -0.0534156 0.0509503 -0.0315342 0.0168907 0.115514 -0.0178433 -0.128176 -0.0295658 0.0975618 -0.0144715 0.189348 0.167076 0.0794294 0.0193774 0.136575 0.169648 0.219133 0.110059 -0.0859819 0.112407 0.0727994 0.0173199 -0.0312682 -0.238496 0.0416654 0.130127 -0.0275996 -0.11571 0.0353783 -0.0856067 -0.042188 -0.149637 -0.0113182 -0.0543283 -0.0500289 0.0415075 0.0889337 0.10706 -0.00413594 0.139674 -0.0304419 0.122124 0.0639742 0.0656623 0.0439251 0.10376 -0.0816667 -0.102032 -0.0503771 -0.0855777 -0.0979835 -0.0689634 -0.0131514 -0.0211503 -0.100061 -0.0658622 -0.014016 0.0750076 0.0678089 -0.097211 -0.158295 0.0773794 0.0620476 0.146737 0.0282706 0.117648 0.211123 0.151817 0.0530516 -0.0902371 0.0196042 0.108718 -0.0566076 -0.0836804 -0.0887991 -0.134306 -0.0435485 -0.0387425 -0.0955307 -0.0419648 -0.0982687 -0.0801936 -0.0221082 0.0294997 0.111701 0.16946 0.0530599 0.0659488 -0.026603 0.012142 0.0339935 -0.00697576 -0.0696056 0.0580473 -0.101516 -0.129412 0.0396129 -0.0122773 0.0116092 0.0410127 0.089544 0.0680952 0.0392045 0.0113669 -0.247933 -0.186384 0.0294127 -0.0107333 -0.0524367 -0.0357491 -0.116794 -0.0245125 0.0430897 0.128378 -0.00884832 0.0748827 0.161874 0.132148 -0.0588303 0.0545635 0.060273 0.0202634 -0.0564555 0.0540562 0.00297749 -0.0421431 -0.0673719 -0.00352226 0.0807304 -0.0140346 -0.00307185 -0.118023 -0.0555382 -0.0792162 -0.00664409 -0.0343215 0.105753 -0.0209916 0.0424441 0.079208 0.168621 -0.0755595 0.128498 0.0817274 0.171284 0.14502 -0.0901244 0.0390325 0.0408664 0.0881957 0.012441 -0.0323503 -0.040848 0.0108108 0.0670284 0.194733 0.152955 0.0383414 -0.126786 0.0846696 0.0961042 0.0128852 -0.0149175 -0.0440649 0.0813764 0.104507 0.0862656 0.0479989 -0.057374 -0.0579307 0.0740912 -0.0520839 -0.115239 0.0444014 -0.0341513 -0.0503708 -0.255371 -0.190046 -0.0833643 -0.0269848 0.00958034 -0.0552209 -0.0683575 -0.0172137 0.0341544 0.0819279 0.064061 0.01864 0.0173344 0.0575797 0.055092 0.121712 0.164138 0.0909703 0.141113 0.0999521 -0.0276896 -0.0133765 0.0342151 0.00535251 0.0310823 -0.0561276 0.00355692 0.023767 0.018633 -0.163119 -0.150014 -0.0260311 -0.045137 -0.0380245 0.028304 -0.0729266 0.0885695 0.0847138 -0.0866662 -0.0200259 0.0307329 0.00895458 0.212912 0.0524951 0.0844816 -0.0375854 -0.0219512 0.0363039 -0.00301845 -0.0455942 -0.0882331 -0.165298 0.00758846 0.075123 0.00784475 -0.12413 -0.108589 -0.0232922 -0.0757243 0.0214152 -0.0143956 -0.00398812 -0.109849 0.0487658 0.0904987 0.131051 -0.0493412 -0.0040167 -0.0385395 -0.029692 -0.0022537 -0.0337995 0.0685162 0.0847557 -0.0521241 -0.0522424 0.0234192 -0.0829624 0.0271672 0.028378 0.00570216 0.016583 -0.00523636 0.0867779 -0.0790073 -0.0402332 -0.0529436 0.0402925 -0.142831 -0.103284 -0.0456758 -0.0932388 -0.0765025 -0.226315 -0.273124 0.0804278 0.194993 0.00736262 -0.115701 -0.129946 0.0376648 0.121779 -0.061662 -0.14394 -0.00428307 0.129165 0.0145574 0.00793624 0.0452606 0.0969034 0.157267 -0.00626712 0.034288 -0.129388 0.0854884 0.0936326 -0.0467635 0.00594625 0.0595112 0.0296318 0.0975952 0.0628328 0.0453874 -0.100697 0.0967644 -0.0487424 -0.0252476 0.0653339 -0.0701795 0.072392 -0.0444227 -0.0980155 0.0249338 0.146915 0.139089 0.0751365 0.0691205 0.0262658 0.144906 0.111619 0.034714 0.1137 0.0775396 0.0488879 -0.0653738 0.00188177 0.0780025 -0.0269425 -0.0904902 -0.146518 -0.117844 -0.0690615 0.0658053 -0.0502205 -0.192 -0.0650045 -0.143456 -0.123168 0.193311 0.0644749 0.18301 0.0336024 -0.0408781 0.123874 0.00742144 -0.0027808 0.127727 0.0254758 -0.0162439 0.0950206 -0.000875657 -0.0117232 0.040508 -0.087346 0.0845257 0.0109658 0.0246063 0.106172 -0.0470311 -0.0886491 -0.0228968 -0.00283514 -0.0785902 0.022554 0.126051 -0.0297859 0.0422971 -0.0107092 -0.0304357 0.215803 -0.0106178 -0.0215508 0.026337 0.0938995 0.0631275 -0.0810425 0.0284754 -0.0180014 0.146551 -0.00569767 -0.125749 0.0289167 0.00677964 -0.022552 -0.068684 -0.232787 -0.202166 -0.185217 -0.0856088 -0.10127 -0.109632 -0.0492751 0.0461768 0.0946035 -0.0504078 -0.0245864 -0.0379896 0.0422003 0.00634645 -0.0929995 0.196745 0.0467726 0.11115 0.0400406 0.0200436 0.128018 -0.0359286 0.000873836 -0.000225557 0.0693835 0.0507448 0.104417 0.0851044 0.000562838 0.0273153 0.00524294 -0.0272295 0.0606705 0.0207261 -0.0557477 -0.00453968 0.166505 -0.00330062 -0.0734839 0.0594477 -0.0183164 0.116533 0.0764528 -0.142106 0.0634334 0.00779843 -0.038389 0.125088 -0.0137705 0.0397878 0.178729 0.0612234 -1.07557e-05 -0.0682548 -0.0988015 -0.177268 0.00945504 0.0409098 -0.136608 -0.0445519 0.0221754 0.0390606 0.00917297 0.058734 0.121247 0.0982123 0.0274246 0.00461077 0.173485 0.183124 0.193989 0.119702 0.0108068 0.0797603 0.0724982 -0.0505145 -0.0563991 0.0721013 -0.02489 0.0632222 -0.00142192 0.0449294 -0.00738923 -0.104878 -0.0456565 0.037501 0.0932242 0.0197895 0.0129256 0.0591502 -0.000973713 0.0317666 -0.0275953 0.0326919 0.028055 -0.00349075 0.0227712 -0.00159823 -0.00707648 0.0211592 -0.0714774 -0.0139801 0.0728569 -0.0288184 0.054992 0.0870585 0.0089928 0.0571982 0.0220029 -0.0163351 -0.0625162 -0.0894789 0.00696509 -0.0590513 -0.22293 0.105243 -0.0129892 0.00462228 -0.0421915 -0.252105 -0.0564966 0.0472828 0.038263 0.135749 0.089361 0.243652 0.047589 0.0509406 0.00986271 -0.00863047 0.0445719 -0.0222898 0.00699869 -0.0447062 -0.150095 0.012039 0.0879425 0.142811 -0.00502835 0.189764 0.120381 0.0278267 -0.0635613 -0.000724996 0.0689831 -0.184281 0.0799157 -0.10772 -0.0541044 -0.165522 0.0191835 0.137204 0.0283103 0.0071667 -0.168543 -0.0904503 0.105159 -0.136282 -0.000919517 -0.216249 0.0324757 0.0331892 0.0622584 -0.175203 0.0453171 0.137224 -0.253625 -0.217104 -0.0551976 0.0422148 0.0662723 0.0932356 0.129296 -0.0503382 -0.181422 -0.054719 0.0323073 0.0520182 0.0372231 0.000277208 -0.0893271 0.0993739 -0.0618936 -0.0226002 -0.036829 0.0458781 -0.00928815 0.15106 0.109574 0.457502 0.233157 -0.117347 -0.0065347 0.0455173 -0.0379078 0.0167406 0.201363 0.176154 -0.0265421 -0.2245 -0.0660739 0.0308497 0.121708 -0.0741749 -0.0425441 -0.0171517 -0.115981 0.0491571 0.024153 -0.00447902 0.0116296 0.149637 -0.0783374 0.0108158 -0.0902513 -0.0258098 -0.00023454 0.00708448 -0.15071 -0.062993 0.0157813 0.0723081 0.0344397 0.0240646 -0.118159 -0.0835006 0.0693002 -0.0742329 -0.0430554 0.0344349 -0.0163827 0.0156877 -0.0402152 0.0369468 0.000140099 0.00849499 0.133693 -0.0624588 -0.097692 0.251719 -0.0333188 0.378496 0.109591 -0.0129103 0.288518 0.0864308 -0.0203612 0.0279142 -0.0649431 -0.187765 -0.132691 -0.0227074 0.0899592 0.0667042 0.0456155 0.0499867 0.078721 -0.00394078 0.0736518 -0.0742586 -0.135797 -0.0530619 0.0946297 -0.0814269 -0.184414 -0.065359 -0.0876394 -0.0161362 -0.0032785 -0.0280671 -0.02318 0.0701304 0.137079 -0.0384035 -0.0464523 -0.0834522 -0.0600714 -0.0223082 0.0629894 -0.0059131 -0.0469031 -0.0528478 0.0563044 0.0541179 0.111881 0.0463141 -0.0863415 -0.115936 0.205813 0.0863985 0.115132 -0.0451109 0.159789 0.00982089 0.0576395 0.000289883 -0.31731 -0.101867 0.285757 0.225569 -0.0565208 -0.11385 0.00855261 0.0881024 0.00402961 -0.150354 -0.120361 0.0858259 0.130718 -0.0700817 -0.225803 -0.00795467 -0.00673257 0.0358003 0.0265005 -0.128186 0.0128331 -0.0803189 0.0558483 -0.0973593 -0.139126 0.0724832 -0.0828207 0.221518 0.108041 -0.0419654 -0.0435471 -0.0446899 -0.0208023 -0.121663 0.0223315 0.0468193 -0.0306234 -0.0602487 -0.0635919 -0.076048 -0.0507676 -0.0785696 0.0864294 0.0656026 0.0650911 0.0866688 -0.216477 -0.045905 0.00104739 -0.0781066 -0.14508 -0.115693 0.115945 0.145271 -0.0751858 0.0471425 -0.0508613 0.0256148 0.0661085 -0.0833695 0.0998404 0.199236 0.104843 0.186136 -0.0950047 -0.0827369 -0.0301996 -0.0638476 0.0530585 -0.135999 -0.0501737 -0.0654451 0.00686536 -0.240298 -0.0272033 -0.104698 -0.159233 0.0853814 0.0804675 -0.151891 -0.153117 -0.0177668 0.0553133 0.143474 0.169053 -0.0286823 -0.00127846 -0.0721828 -0.170503 -0.0144616 0.248121 0.142696 0.0675 0.0843958 0.112792 0.188177 0.0878986 -0.090888 -0.0731479 0.0574191 -0.0233648 -0.170448 -0.142215 0.0375924 0.212932 0.109226 0.0146958 0.00437268 -0.0585159 -0.028137 0.025791 -0.0701902 -0.0439834 0.0893218 0.00079947 -0.0287005 0.0465641 0.316738 0.159083 -0.095305 -0.121661 -0.0807179 -0.0131168 -0.168656 -0.146079 -0.0504171 -0.0627275 -0.0319132 0.0931527 -0.0127285 0.0972173 -0.0733183 -0.000679069 -0.062642 -0.00906423 0.0847415 0.0410957 0.0757245 0.124382 -0.0223387 -0.125769 0.00101788 -0.0860599 -0.0329709 -0.0918256 0.115863 0.22982 0.0528766 0.0298222 0.0858657 -0.0645963 -0.00238832 0.0268864 -0.055447 -0.0606296 0.0844995 0.114773 0.216744 0.172469 0.0306815 -0.0428213 -0.0430695 0.0706255 -0.148535 -0.255161 -0.0169057 0.0803604 0.0113537 -0.14737 0.0213018 -0.0420219 -0.0642948 0.249837 -0.0778499 -0.0589762 -0.0747995 -0.0137301 -0.0995905 -0.325966 -0.0992879 0.0539853 -0.0286158 0.0693743 0.157326 -0.0439371 -0.0575812 0.0311677 0.0252805 0.0533602 -0.100861 -0.119885 -0.0701388 0.0893581 -0.0990931 -0.0168273 -0.11804 -0.101588 -0.103015 -0.0604215 -0.0709505 -0.0836266 -0.100264 -0.153839 -0.216518 -0.214512 -0.0873719 0.06029 -0.0338597 -0.0856237 0.00130498 0.0134674 0.0191623 -0.00642674 -0.00428959 -0.0482324 0.0643819 0.0174093 0.179678 0.242674 -0.0498894 -0.0445148 -0.0504876 0.219525 0.0268603 -0.11445 -0.0646183 0.00668982 0.0400016 -0.2415 -0.113273 0.0458663 0.0459319 0.0502231 -0.0414804 0.107421 0.104658 -0.160964 -0.0620626 -0.212113 -0.112639 0.0752996 0.135852 -0.117614 -0.00330497 0.0760486 0.0823969 0.0813458 -0.077258 0.118488 0.012203 0.0473159 -0.0177748 0.0280653 0.0360728 0.106179 -0.134316 0.0108862 -0.0937594 -0.265879 -0.171652 -0.0868547 -0.127116 -0.110665 -0.256036 0.211157 0.105937 0.0684512 -0.0342113 -0.188091 0.109992 0.101861 0.166712 -0.055682 -0.116761 -0.044735 0.168962 0.0914593 -0.037227 0.134195 0.13931 0.125053 0.14756 -0.103391 0.025689 0.136626 0.133536 0.0449953 -0.0571059 -0.0768898 -0.011823 0.093017 0.155503 0.149035 -0.170664 -0.119202 -0.0662388 -0.0941547 0.0217636 -0.161303 -0.246503 -0.0303188 0.0207227 0.00536625 0.0700515 -0.00700103 -0.0839857 0.0619146 -0.00994818 0.0547 0.0200202 -0.0108159 0.00147411 -0.178286 -0.21908 -0.194907 -0.0999767 -0.0826405 -0.145203 -0.0262879 -0.0661388 -0.0899124 -0.0927284 -0.108375 -0.106691 0.36315 0.153627 -0.021426 -0.0260419 -0.0786428 0.134333 -0.0257767 -0.0883195 -0.0435452 0.00326681 0.0730143 -0.0257236 -0.0554912 0.0428164 0.0386282 -0.044385 0.184286 -0.0419273 -0.0801138 -0.121087 -0.0628046 0.133421 0.0879573 -0.22515 -0.168196 0.103866 -0.0278502 0.11683 -0.0138775 0.00634934 0.0757382 -0.0484475 -0.0775798 0.029782 -0.0555072 0.0170205 0.0864165 0.128381 -0.0197536 -0.0451761 0.00613607 0.0709298 -0.0582068 -0.0351676 -0.12169 -0.0644449 0.0768076 -0.101194 -0.0919795 0.0974626 0.199314 -0.100596 -0.127229 0.0188579 0.160051 0.0225085 0.033121 -0.149706 -0.0886249 -0.115624 -0.115037 0.0163928 0.0518832 0.158486 0.298289 0.207075 -0.0910816 -0.187208 0.250667 0.210914 0.016522 0.0447815 0.0265103 -0.0412435 -0.0659635 -0.1622 0.12629 0.112699 -0.173482 -0.262224 -0.026218 0.0283453 0.0227682 -0.103329 -0.0814934 -0.0189159 0.00880783 -0.0209733 0.0879642 -0.0502712 -0.188161 0.0185828 -0.0630623 -0.0175692 0.0812401 0.108771 -0.178351 -0.0101373 -0.0748141 0.171833 0.0717568 -0.0587982 -0.0846898 -0.0288139 0.173512 0.144062 -0.0164952 -0.0503895 -0.0498505 0.0141184 -0.0196905 -0.0736393 -0.0692414 -0.222135 0.043018 -0.0024782 -0.0467756 0.0926024 -0.00493243 0.201104 -0.0296891 -0.0526105 0.0353586 -0.0397454 -0.0119143 -0.097523 -0.0820812 -0.0684548 0.0160892 -0.112667 -0.0019092 -0.129378 0.0335867 -0.2865 -0.0659472 0.0195223 0.106863 -0.0675698 0.0199388 0.270155 0.0992089 -0.191697 -0.124429 0.0782736 0.0857893 -0.0305719 0.0255998 -0.152984 -0.0228938 -0.0306129 0.0894073 -0.0215415 -0.0356083 -0.00221685 0.00239677 0.0308483 0.0846175 0.0211342 0.194782 0.227849 0.114945 0.109317 0.0278345 -0.166536 -0.142396 0.0264028 0.224155 -0.0821529 -0.281022 -0.12725 0.20734 0.0625885 -0.0116358 -0.0343663 0.173576 -0.0359472 0.00113076 -0.0808645 0.0129797 0.175766 -0.174197 -0.056385 -0.000271284 0.139916 0.0393558 -0.0952385 -0.129525 -0.0689082 -0.044847 -0.193764 -0.0984061 0.10456 0.0646381 5.39462e-05 -0.020957 -0.100961 0.157602 0.0339285 0.0590153 -0.140601 -0.0221954 0.0195871 0.169295 -0.00753677 -0.0750039 0.0453808 0.0939605 -0.00872899 0.0645588 -0.155374 -0.195792 -0.202159 -0.000376803 0.0158916 -0.05146 -0.02218 -0.222907 -0.0308419 0.161368 0.128541 0.0267931 0.103479 -0.0680251 -0.0470486 -0.0585899 -0.00856784 0.0990723 0.0175028 -0.030982 -0.0465126 0.0719783 0.163456 0.0258694 0.217109 0.173404 0.0345479 -0.0981218 -0.114853 -0.0174586 0.0311256 -0.0456937 -0.000467178 0.0198861 -0.214493 -0.324858 -0.148388 0.0631154 0.0112755 -0.103036 -0.135782 -0.038097 0.0349763 0.0483699 0.110773 0.0861169 -0.0574562 -0.0202885 -0.0525458 0.0545906 0.0804365 -0.0554947 -0.0742372 -0.297047 -0.017129 0.118153 -0.0248522 0.00440834 -0.155711 -0.178127 -0.187527 -0.0735539 0.109024 0.106214 -0.0812701 0.00634613 0.00604114 -0.010235 0.0698008 0.0747803 0.171049 0.0541893 0.00816858 -0.0367147 
bias: 
0.02174 0.0532381 -0.00167093 -0.0632091 0.0358764 0.0559282 0.000590886 -0.0134608 0.147295 -0.0238766 
