weights: 
0.00766188 -0.0596987 -0.0569374 -0.0714415 0.000403075 0.0864205 0.0687751 0.0851577 0.0580133 0.108136 0.0212802 0.0428222 0.113149 0.0711569 0.110967 0.00460687 -0.0356982 0.0355458 0.00437885 0.0541857 0.0184483 -0.00950151 0.0421634 0.0151256 0.0655963 0.0502922 -0.0343296 -0.0328288 -0.0595471 -0.0266751 0.106043 0.0598982 0.0641506 0.0349218 0.0550825 0.0380995 0.0308197 0.0919143 0.0425636 0.0574968 0.030808 -0.0466573 0.0119553 -0.0272898 0.00966052 0.0579151 -0.0065505 0.0265606 -0.00801665 0.0309955 0.00710778 -0.106955 -0.107989 -0.144312 -0.0789848 -0.000736968 -0.0696423 -0.0598497 -0.0875354 -0.0321843 -0.0800852 -0.110822 -0.0450894 -0.0890665 -0.0437315 -0.0724941 -0.169316 -0.111306 -0.145298 -0.0826007 0.0657089 -0.00997942 0.0239174 -0.00790344 0.0477021 -0.110175 -0.171503 -0.189691 -0.132355 -0.0563445 0.034299 0.0218164 0.0383453 0.0825661 0.106022 0.0571131 0.0506933 0.0546689 0.0547491 0.0562719 0.0523676 0.0332673 0.0581331 0.0774905 0.0949336 0.0471664 0.0206354 0.0380285 0.0402182 0.0522792 -0.0835343 -0.12897 -0.138814 -0.0991759 -0.0797817 0.026213 0.0371191 0.0571215 0.063272 0.029075 0.00538412 0.00975393 0.0101654 -0.0143399 -0.0566127 0.000193911 -0.0235644 -0.010227 0.00927953 0.00391919 0.0304464 0.00411507 0.0047901 0.00117994 -0.00682532 0.0412922 0.0682139 0.0870496 0.0989133 0.0499338 0.0848797 0.14108 0.163625 0.116855 0.0332455 -0.0365434 -0.0172435 -0.0271607 -0.0887877 -0.131635 -0.0628394 -0.0830676 -0.0819408 -0.0827316 -0.0732931 -0.0229471 -0.0583147 -0.0636606 -0.0732059 -0.0721862 0.000314207 0.119584 0.0190055 -0.0602124 -0.0126641 0.131871 0.0448908 -0.242189 -0.00314399 0.0439142 0.046347 -0.246709 -0.0639091 0.199335 -0.0174726 -0.111191 -0.0578492 0.227065 0.0463142 -0.0783182 -0.0290679 0.0886479 0.0714903 -0.0871656 -0.0249263 0.0264213 0.0918922 -0.0444376 -0.106543 0.00970692 0.110452 -0.0131135 -0.312972 -0.0111917 0.106047 0.0171818 -0.281873 -0.0790037 0.251021 0.0606225 -0.0992775 -0.0500383 0.233989 0.0859922 -0.0611895 -0.00579121 0.0989335 0.0555351 -0.089638 -0.0615958 -0.0101049 0.0817549 -0.0352686 -0.0993294 0.0104463 0.0916664 -0.0268987 -0.326292 -0.00377501 0.122622 -0.00404117 -0.30885 -0.0897514 0.270221 0.0969253 -0.135038 -0.0732617 0.262614 0.13105 -0.0247793 -0.0309713 0.100491 0.105589 -0.0320387 -0.0443167 -0.100633 -0.0258829 0.0403497 0.100996 0.0387017 -0.145137 -0.0968962 0.00623962 0.154724 0.107375 -0.161102 -0.112431 -0.0216678 0.175415 0.143168 -0.162357 -0.123469 -0.0364092 0.165109 0.152265 -0.100705 -0.0786933 -0.0256395 0.110916 0.133919 -0.0261905 0.00750414 0.00818841 0.0495348 0.00456512 -0.0596389 -0.0487385 -0.0283832 0.0845971 0.0513081 -0.0636861 -0.0553573 -0.0587684 0.0838842 0.0649481 -0.0583241 -0.0683418 -0.0800081 0.0659684 0.0757036 -0.0144753 -0.0327923 -0.0721352 0.0078882 0.0608923 0.0908909 0.0812525 -0.00289215 -0.0314184 -0.0946845 0.0808306 0.0549353 -0.0339722 -0.0197455 -0.0837544 0.104059 0.078921 -0.0451575 -0.0317167 -0.0974559 0.123209 0.0724408 -0.066479 -0.0473233 -0.0840201 0.12334 0.0704372 -0.0777829 -0.0956614 -0.0719209 0.0372381 0.0502772 0.0416747 0.0448818 0.018361 0.0276778 0.038693 0.0431541 0.048846 0.0324384 0.02298 0.0211239 0.0364144 0.0488978 0.0509698 0.00639219 0.00336827 0.0189691 0.0474914 0.0502236 0.00094861 -0.0012114 0.0109715 0.0555434 0.0569299 0.00380014 0.00906485 -0.0111287 -0.00941609 -0.0292649 -0.00818786 -0.00451542 -0.0111937 -0.00706149 -0.019654 -0.0141078 -0.0242219 -0.0170842 -0.00360859 0.00107665 -0.0192713 -0.0316649 -0.0219941 0.00881321 0.0114079 -0.0079676 -0.0187657 -0.0164516 0.0247887 0.0223752 0.022656 0.0218772 -0.000618402 0.00431977 -0.00257996 0.000887759 -0.00210705 -0.020089 -0.0175568 -0.0149856 -0.00307706 -0.01915 -0.0328121 -0.0281876 -0.0143757 -0.000976526 -0.0219576 -0.0355488 -0.0193795 -0.0150944 0.012724 -0.00525293 -0.0239345 -0.00204884 -0.00528397 0.131889 0.133371 0.146974 0.110926 0.0780998 0.110048 0.0785886 0.0745285 0.0397621 -0.0121809 0.0607059 0.0209372 -0.0317104 -0.0548858 -0.057372 0.00159149 -0.0560359 -0.107534 -0.118292 -0.117109 -0.0174244 -0.121802 -0.169692 -0.159543 -0.113772 0.0285293 0.0386984 0.0327977 0.0164401 0.0334435 0.0277315 0.0136844 0.00624371 0.00584975 -0.00805319 0.0129831 0.018652 -0.0115386 -0.00193085 0.00824061 0.0198667 0.0282862 0.0134292 0.0183565 0.009233 0.0236624 -0.0199639 -0.0420278 -0.0336553 -0.00149483 -0.0757231 -0.0850724 -0.108295 -0.111936 -0.0614433 -0.076994 -0.0902838 -0.0850509 -0.0540384 -0.0330553 -0.077634 -0.0391138 -0.0127079 0.0374681 0.0462706 -0.0168766 0.054618 0.110192 0.137953 0.0943757 0.0102801 0.0480223 0.0917784 0.0986851 0.0768431 -0.0346431 -0.0170394 -0.0654579 0.134598 0.0134846 -0.0251789 0.0704038 -0.131596 -0.10733 0.215625 -0.0702031 0.0482847 0.194111 -0.334624 0.132309 -0.00306419 -0.133617 0.291969 -0.119644 -0.0287779 0.0488074 -0.0925918 0.0996852 0.0722586 -0.0479155 0.0483304 -0.0127441 -0.149472 0.00618882 -0.000621313 0.0895448 0.118888 -0.188197 -0.250078 0.189241 0.0376077 0.0978776 0.171271 -0.438486 0.093164 0.0575608 -0.10127 0.272348 -0.194744 -0.0844242 0.0609205 -0.0843918 0.0780758 0.0190456 -0.122935 -0.0112945 -0.0282087 -0.0772161 0.115201 0.0678812 0.0141173 0.0688993 -0.193259 -0.190536 0.259266 -0.00410162 0.0749247 0.137664 -0.421125 0.18358 0.0216965 -0.0757971 0.29734 -0.19333 -0.0381845 0.0210885 -0.0680742 0.116963 0.0286221 -0.0819157 0.0172852 0.070654 0.0864353 0.0688231 0.00856565 -0.0623548 -0.131918 -0.0311413 0.128506 0.114392 0.056265 -0.148931 -0.259964 -0.158057 0.0206765 0.0914678 0.127325 0.0284651 -0.0705464 -0.0848045 0.0544553 0.062503 0.0588695 0.0430724 -0.0253604 -0.0759746 0.011836 0.0459968 0.0241216 -0.031259 -0.108701 -0.175898 -0.0700227 0.0928342 0.0869209 0.0739336 -0.132343 -0.258704 -0.180298 0.00109462 0.114416 0.186948 0.0846984 -0.043516 -0.0784352 -0.00126117 0.0424811 0.0732469 0.0692421 -0.00514091 -0.0243075 0.0898944 0.112686 0.0562285 -0.0244607 -0.0827263 -0.135027 -0.0249918 0.12084 0.08773 0.0847026 -0.111912 -0.227419 -0.157579 -0.00385798 0.108322 0.194723 0.10865 -0.0144169 -0.054823 -0.0796803 -0.0191282 0.0302058 0.0437149 0.00174125 0.0604365 0.0550584 0.0656664 0.0630094 0.0126764 0.0783303 0.0951518 0.0620355 -0.0283407 -0.08214 0.133209 0.0572848 -0.0699523 -0.0752044 -0.05218 0.0188216 -0.105408 -0.0817261 0.00315842 0.0168655 -0.105628 -0.0424804 0.00300818 0.000527257 0.011095 -0.00148611 -0.00645417 -0.00628303 -0.0124433 -0.0520076 0.011468 0.0273814 -0.00754062 -0.0801772 -0.108271 0.0598664 -0.0126353 -0.111993 -0.0732585 -0.0166128 -0.0430864 -0.141213 -0.0672125 0.0607828 0.0892984 -0.104378 -0.00843893 0.078931 0.100334 0.109819 0.0189784 0.0250794 0.0266257 0.0255616 -0.00182926 0.0365868 0.0711886 0.0362559 -0.0464524 -0.0719882 0.085525 0.0264182 -0.0861141 -0.0665554 -0.02373 -0.0269773 -0.128432 -0.0724904 0.0392383 0.0523734 -0.103497 -0.0123166 0.0610983 0.0620359 0.0632696 -0.0243208 -0.140101 -0.151361 -0.0823244 -0.0160793 -0.0966197 -0.0612101 0.115109 0.137595 0.0505841 0.185945 0.231226 0.139023 -0.0581999 -0.00854945 -0.0371653 -0.180152 -0.204377 -0.0540262 0.0226427 -0.010044 0.019888 0.0561306 0.0236432 -0.0223448 0.0502168 -0.0476357 -0.0516184 0.0292729 0.0526714 0.0146332 0.0835401 0.256925 0.24347 0.0827469 0.223707 0.264728 0.159002 -0.0552983 -0.0502613 -0.0641507 -0.25188 -0.28582 -0.117822 -0.05603 -0.0190141 -0.0191925 0.0204128 -0.00573433 -0.0845887 -0.0571677 -0.139463 -0.147308 -0.0731871 -0.0370781 -0.131544 -0.0554877 0.110105 0.103442 -0.0107598 0.107677 0.18304 0.0925988 -0.0770849 -0.0225244 -0.0690033 -0.207342 -0.206775 -0.00590304 0.0665997 0.0509383 0.0693768 0.135391 0.121176 0.0333493 0.00275558 -0.0335615 -0.0734954 -0.0779517 -0.0340837 0.0494774 0.0943362 0.113258 0.0818509 0.0543494 -0.10043 -0.128619 -0.127761 -0.110572 -0.0788261 0.0368624 0.0604907 0.0437763 0.0350551 0.034132 0.012009 0.0527937 0.0528536 0.068648 0.00167976 0.0171223 0.0367071 -0.00680081 0.0124081 0.0231785 0.0177549 0.126609 0.156884 0.136513 0.0679863 -0.148745 -0.166873 -0.174197 -0.140944 -0.121241 -0.0118096 0.0185107 -0.0127959 -0.0164518 -0.0230479 -5.71025e-05 0.0624989 0.0638483 0.0655085 -0.0174811 0.0674177 0.0784913 0.0289555 0.0471814 0.0694468 0.0774665 0.189383 0.219276 0.193585 0.1408 -0.123374 -0.13858 -0.148082 -0.106903 -0.0744911 -0.0508941 -0.045487 -0.0693725 -0.0540638 -0.0386811 -0.0910413 -0.0583603 -0.0534562 -0.0258196 -0.0754718 0.00103346 -0.0853457 -0.115459 -0.0786075 0.0014133 -0.025401 -0.105995 -0.126409 -0.0729103 0.0117854 0.0166959 -0.0396622 -0.0408672 -0.00760807 0.0737745 0.102391 0.0504585 0.0362111 0.0681323 0.120894 0.0572522 0.0194451 0.015308 0.0279896 0.0483056 -0.0946719 -0.125293 -0.132383 -0.126613 -0.0969829 -0.0723046 -0.102514 -0.115041 -0.0972297 -0.0658448 -0.0330373 -0.0554102 -0.0534611 -0.0503112 -0.0110431 0.0184332 -0.0183922 -0.0307435 -0.0170128 0.0173752 0.0224413 0.000184924 -0.000129049 0.00121715 0.0253756 0.059307 0.177832 0.226783 0.182107 0.0849718 0.0650748 0.187552 0.221552 0.169272 0.0554468 -0.0119937 0.0778828 0.103209 0.0409473 -0.0499236 -0.0686302 -0.0219024 -0.00456835 -0.0382216 -0.100751 -0.0824796 -0.031867 -0.00718094 -0.0352115 -0.0798727 0.107226 0.012373 -0.0769008 -0.0957847 -0.0725079 0.198404 0.090888 -0.0629916 -0.155645 -0.131968 0.234653 0.129457 -0.0100232 -0.168047 -0.17613 0.161418 0.120576 0.028837 -0.0903907 -0.172194 0.101586 0.0863969 0.0158266 -0.022731 -0.117644 0.0315773 -0.055391 -0.0680922 -0.0396744 -0.0258538 0.0965107 0.0108122 -0.0419184 -0.070781 -0.0258148 0.109 0.0244499 0.00209313 -0.0739149 -0.0472972 0.0564548 0.0250612 0.0266128 -0.0218422 -0.0750846 0.0339115 0.013255 0.017458 0.0345393 -0.0489332 -0.0192884 -0.0437468 -0.000109567 0.0507134 0.0375316 0.000526475 -0.0134134 0.0036096 0.00751223 0.0477961 0.00423603 -0.0112664 0.0276993 -0.0189998 0.0133126 -0.0386884 -0.000158197 0.0432253 0.015513 -0.0296636 -0.0434296 -0.00292479 0.0193249 0.0514487 -0.0163324 0.132879 0.0475637 -0.0888232 -0.0518757 -0.0584847 0.169619 0.0667388 -0.130317 -0.0354193 -0.0175488 0.167843 0.0804583 -0.200929 -0.0633992 -0.0124396 0.187979 0.0951446 -0.179977 -0.0578298 0.00334991 0.128936 0.0498226 -0.158898 -0.0754986 -0.0563936 0.0783109 -0.0170723 -0.0776738 0.00798248 0.0114147 0.129129 0.0110935 -0.11945 0.0143895 0.0421026 0.131624 0.0270726 -0.190756 -0.0150901 0.0494092 0.138955 0.0453483 -0.172696 -0.0264828 0.053848 0.0821304 0.0197457 -0.135431 -0.0519452 -0.0285554 -0.0182131 -0.0688905 -0.0257463 0.0896392 0.0326946 0.0145393 -0.0645217 -0.0773585 0.0907919 0.0637744 0.0146567 -0.0524584 -0.148755 0.0531946 0.0662236 0.0199004 -0.0290622 -0.126226 0.0487187 0.0885284 -0.00535557 -0.00706749 -0.042252 0.0524995 0.0426672 0.0497576 -0.0017363 -0.080887 0.128139 -0.0754684 0.019095 0.105874 -0.0836299 -0.0375829 0.0409076 -0.16943 0.125182 0.22716 -0.193107 0.0241159 0.00249864 -0.10799 0.074272 0.030956 -0.000894523 0.113522 -0.0459737 -0.114286 0.102536 -0.0443055 0.0382803 -0.0424467 -0.120169 0.102376 -0.0736196 0.0129512 0.0580846 -0.120184 -0.0515019 0.0585429 -0.173211 0.0806695 0.186953 -0.216261 0.0314107 -0.00400485 -0.136499 0.0539981 0.0176042 -0.0142182 0.0998277 -0.0656529 -0.110288 0.101643 -0.0674623 0.0419356 -0.0096195 -0.0672032 0.123278 -0.0655624 0.0138296 0.0987276 -0.0667942 -0.0252502 0.0656511 -0.179488 0.14079 0.260885 -0.19745 0.0409303 -0.0263068 -0.0934107 0.116106 0.0452155 0.0159452 0.057588 -0.0783417 -0.0958964 0.141374 -0.00897304 -0.0288291 0.0417904 0.138411 0.12087 0.0407072 -0.0043838 0.0873871 0.102053 0.0419981 0.0210406 0.056261 0.0996823 0.0337793 -0.0110654 0.00187442 0.0465827 0.0397803 -0.0374918 -0.044283 -0.0277382 0.0176644 -0.0233868 -0.0801185 -0.0694098 -0.0338017 -0.0861516 -0.0493111 0.0253501 0.0169263 -0.041102 -0.0555224 0.00693354 0.014623 -0.0261493 -0.0284388 -0.00118804 0.0361561 -0.014416 -0.0424989 -0.0118206 0.0161774 0.0112819 -0.0478418 -0.0398356 -0.0106533 0.0294494 -0.0131291 -0.0557362 -0.032193 0.000550597 -0.048942 -0.00395824 0.0656502 0.0577968 0.0152273 -0.00792756 0.0659785 0.0804152 0.045433 0.0435832 0.0376362 0.083404 0.0462669 0.0225011 0.0365426 0.0545274 0.0617671 0.0149227 0.00511638 0.0159838 0.0559217 0.031538 -0.012007 -0.0247941 -0.00998525 0.00911784 -0.023117 0.0559119 0.0200168 -0.101432 0.0292907 -0.135966 -0.105006 0.195479 -0.0223102 0.154215 0.114968 -0.305269 -0.126045 0.100748 -0.0391939 0.270764 0.111465 -0.182539 -0.0875121 -0.00296518 -0.0528709 0.12119 0.0759163 0.0031534 -0.02453 -0.0318333 0.0863647 0.0530492 -0.0580165 -0.018393 -0.151005 -0.0787107 0.24806 0.0540983 0.0885451 0.102093 -0.292325 -0.0873662 0.182352 -0.152358 0.218461 0.109181 -0.161297 -0.0352936 -0.104207 -0.132881 0.0956669 0.0769233 0.0184755 0.00110952 -0.00171339 0.0808556 0.0134068 -0.111387 0.0221277 -0.13015 -0.0941092 0.220489 0.022831 0.14696 0.130484 -0.31992 -0.120081 0.13742 -0.0862257 0.273684 0.104015 -0.193443 -0.078002 -0.0920897 -0.104263 0.102224 0.0471819 -0.0309989 0.0633356 -0.00887418 -0.0339992 0.171305 -0.00633734 -0.0275403 -0.0921742 -0.117554 0.130133 -0.109524 0.0452421 -0.0814107 -0.0607876 0.203875 -0.0880022 0.0170615 -0.0971181 -0.0289929 0.155324 -0.0923062 -0.00581821 -0.0757575 0.00379369 0.111682 -0.00933293 0.0838499 -0.0306747 -0.0308675 0.181638 -0.0238391 4.67235e-05 -0.112052 -0.0997404 0.153633 -0.129492 0.0779796 -0.10318 -0.0472529 0.229626 -0.0959581 0.0589417 -0.107985 -0.013505 0.182811 -0.0796179 -0.00826641 -0.129463 -0.0199266 0.0881677 -0.0605171 0.0885615 -0.0158592 -0.0453776 0.155121 -0.0542382 0.0288057 -0.0833149 -0.107277 0.148046 -0.123767 0.0732309 -0.109612 -0.0717711 0.206907 -0.113534 0.0643287 -0.086579 -0.00877424 0.164457 -0.103845 0.0544702 -0.0315233 0.0339724 0.084513 -0.0720266 -0.123864 0.00540125 0.053776 -0.0438229 0.0155459 -0.0454891 0.232968 -0.255959 -0.0416035 0.108554 0.0843834 -0.12699 -0.307062 0.274961 0.066848 -0.0278913 -0.219661 0.142958 0.207039 -0.0483763 -0.0687407 -0.0310173 0.138485 0.00460654 0.0629278 -0.017455 0.0998171 0.0946019 -0.0970049 -0.0183377 0.0402381 0.266997 -0.301352 -0.136564 0.07222 0.147844 -0.142519 -0.36843 0.219153 0.0647185 0.0155679 -0.246191 0.101202 0.1582 -0.065613 -0.0390523 -0.0689721 0.0868674 -0.0475651 0.0259342 -0.101322 0.149026 0.20116 -0.0541301 -0.0651049 0.0380076 0.366675 -0.224613 -0.151912 0.0127683 0.215832 -0.0349393 -0.33003 0.158537 -0.0259253 0.0923801 -0.176094 0.119852 0.0844405 -0.170857 0.031765 -0.00387042 0.109451 -0.120617 -0.0705617 0.0785687 0.139513 0.162434 0.130012 -0.0132567 -0.0210821 -0.00369772 0.02236 0.00712993 -0.0544541 0.000673585 0.02414 0.00206878 0.013423 0.00481359 -0.0213083 -0.0480435 -0.0839945 -0.0281935 -0.00437882 -0.0624967 -0.0890653 -0.0905239 -0.0569605 -0.0124964 0.022763 0.0857375 0.107356 0.0926501 -0.0237244 -0.0330109 -0.0190675 -0.00400081 -0.0038932 -0.0546947 0.0180297 0.0405927 0.00111182 0.0113299 0.0136084 -0.0044388 -0.0351617 -0.0778636 -0.0264161 -0.000350265 -0.0383782 -0.0733497 -0.0712218 -0.0461528 -0.0060565 0.0299782 0.0838961 0.118191 0.0950698 0.0169828 -0.0064199 -0.00107353 0.0188121 0.00908672 -0.010979 0.0692847 0.0967174 0.0640776 0.0503455 0.0623037 0.00737269 -0.0243251 -0.0705253 -0.0370341 0.0104118 -0.0883865 -0.131252 -0.135128 -0.125109 -0.0546578 -0.0330751 -0.0346051 -0.0427194 -0.071608 -0.0129424 -0.0413848 -0.055011 -0.0901111 -0.0930014 -0.0404328 -0.0496568 -0.0944324 -0.119704 -0.0961826 -0.0847127 -0.0454228 -0.078505 -0.111695 -0.0954575 -0.0765343 0.00563629 -0.0252238 -0.056534 -0.0613467 -0.00298684 0.0579634 0.0659943 0.0992098 0.081902 0.0804088 0.0875168 0.119662 0.138344 0.130789 0.109139 0.0928146 0.121992 0.152037 0.159991 0.0997136 0.0757486 0.116405 0.131121 0.139861 0.0975166 0.048303 0.0705261 0.0745014 0.0661825 0.0802699 -0.0276216 -0.0622462 -0.0597082 -0.0709432 -0.0357487 -0.0205779 -0.058022 -0.0758177 -0.0642204 -0.0348435 -0.0244246 -0.0625292 -0.0650389 -0.0417233 -0.0509333 -0.0362215 -0.0406141 -0.0545902 -0.0383905 -0.0463614 -0.0333016 -0.0307896 -0.0408509 -0.0448992 -0.0165407 -0.0289453 -0.0124009 0.0282218 0.0652249 0.0593488 -0.018447 -0.00322571 0.0397252 0.0781801 0.047523 -0.00844581 0.0437434 0.072239 0.0745888 0.0447234 0.0357876 0.0870135 0.112603 0.056069 0.0247616 0.0417614 0.0694155 0.0927298 0.0305568 -0.0027094 -0.0459597 -0.0538722 -0.0372905 -0.0248944 -0.033372 -0.0315595 -0.0373793 -0.0209966 -0.00848666 -0.0379414 -0.023274 0.0123667 0.00803729 -0.01871 -0.0425097 0.0245447 0.0620823 0.054117 -0.0306099 -0.054797 0.0457368 0.0579908 0.0502319 -0.0334172 -0.0582613 0.0518478 0.0202537 0.011408 0.0213305 0.0209676 0.0364666 -0.0145544 -0.0328004 -0.0157286 -0.0155308 0.00643068 -0.0119399 -0.0432886 -0.0522646 -0.0302601 0.0121465 -7.28868e-05 -0.0193214 -0.0746994 -0.0467899 0.00904292 -0.0177042 -0.0221678 -0.0630374 -0.0442372 -0.0308438 -0.043517 -0.0919269 -0.0513198 -0.0490093 -0.0788819 -0.13608 0.0152894 0.0197515 0.0195578 -0.165654 0.0252281 0.0921228 -0.0258326 0.0567614 0.0263576 0.129335 -0.0508461 0.0255384 0.0960735 0.0811542 0.0123539 0.00662459 0.138256 0.0314716 0.0309735 0.0170771 -0.0349728 -0.0017455 -0.010484 -0.00223443 -0.0809912 0.0474665 0.0329615 0.00563618 -0.0959368 0.0570906 0.0851791 -0.0579615 0.000893083 0.0400951 0.0984326 -0.105488 -0.0401502 0.013121 0.0445273 -0.0696283 -0.077146 0.0537601 -0.0645473 -0.00507203 -0.00909421 -0.0421494 0.00536443 0.00917135 -0.0195064 -0.0680541 0.0717747 0.0608303 0.0257632 -0.0862197 0.100931 0.128814 -0.0273756 0.0182709 0.0629821 0.131899 -0.0833561 -0.020335 0.0427663 0.0582181 -0.0560729 -0.077062 0.0603913 -0.0428343 -0.0292186 0.0359868 0.0902859 0.0500054 -0.0581001 -0.0779533 -0.0423169 0.0491748 0.0827932 -0.0132566 -0.0751998 -0.0793621 -0.0387391 0.0570285 0.0320154 -0.0848002 -0.0898927 -0.0770382 -0.00711608 0.0279433 -0.0617827 -0.0708802 -0.0519073 -0.0282804 0.0032463 0.0278782 0.0748699 0.0840572 0.0347133 -0.0466923 -0.00955161 0.015292 0.0640601 0.084611 0.00642665 -0.00184924 -0.000996171 0.00474383 0.0816002 0.0574054 -0.030826 -0.027478 -0.0320656 0.0331408 0.0731392 -0.0357214 -0.0399028 -0.0223033 0.0140216 0.0582692 0.0210694 0.056136 0.0800608 0.0316436 -0.0599114 -0.00659575 0.00766739 0.0753741 0.102951 0.0122757 -0.013518 -0.0293285 -0.00685265 0.0938101 0.0701159 -0.0388935 -0.0592338 -0.0572569 0.0368682 0.0954311 -0.0545098 -0.0776252 -0.0667803 -0.00677819 0.0625342 0.0632934 0.0964885 0.091933 0.0801648 0.0326856 0.0152587 -0.0173512 -0.0366255 -0.0274746 -0.00234387 0.02793 0.0371974 0.0412306 0.0250155 0.0127482 -0.019016 -0.00856779 -0.024542 -0.0256627 -0.0342278 -0.0693182 -0.0661162 -0.0997613 -0.102182 -0.0758526 0.0154297 0.0273435 0.00556679 -0.0010628 -0.0420537 -0.0114696 -0.0607342 -0.105962 -0.095707 -0.0691844 0.0586058 0.0707685 0.0533599 0.0329471 -0.0021803 0.0285326 0.057608 0.04848 0.0538676 0.0150768 -0.0166508 0.00038416 -0.0106409 0.00447899 0.0207009 -0.113234 -0.135838 -0.164174 -0.141687 -0.159031 -0.116984 -0.193676 -0.248711 -0.218856 -0.158737 0.0698266 0.0728838 0.0532123 0.0258956 -0.00482942 0.156037 0.193157 0.190659 0.180257 0.112422 0.106724 0.12799 0.122092 0.112294 0.111243 0.0266841 -0.0103138 -0.0411515 -0.00777773 0.0177079 0.00332217 -0.00975882 -0.0349941 -0.00610937 0.0179406 0.00506524 0.0149357 -0.0120093 0.00390563 0.02884 0.0110308 0.00635469 -0.0226955 -0.00652227 0.00367077 0.0336053 0.052967 0.0248511 -0.00205994 -0.0327928 -0.0341661 -0.0381211 -0.0245332 0.0313636 0.0788123 -0.0899403 -0.0536356 -0.0328963 0.0309735 0.0916243 -0.10765 -0.0416029 -0.0196164 0.0449635 0.120936 -0.0963153 -0.044989 -0.0177477 0.0598068 0.128723 -0.087209 -0.00859106 0.025016 0.0492594 0.0710098 -0.108843 -0.0601742 0.0165596 0.0780586 0.0746946 -0.166071 -0.0725587 0.0172975 0.100809 0.10177 -0.181279 -0.0680836 0.0081118 0.093071 0.120733 -0.16594 -0.0714995 -0.00262265 0.0872909 0.118069 -0.153343 -0.0287511 0.0335951 0.063649 0.0679721 -0.0442772 0.106772 -0.139157 0.0875962 -0.0228897 -0.0512842 0.182069 -0.241599 0.207833 -0.048185 -0.0843218 0.226124 -0.304732 0.231411 -0.0706532 -0.0656975 0.170474 -0.22924 0.170523 -0.0306655 -0.00650535 0.0729132 -0.115138 0.0597992 0.0229861 -0.0333426 0.0813097 -0.22948 0.0657404 -0.0177741 -0.0216034 0.165506 -0.314143 0.215052 -0.0234353 -0.0284611 0.214286 -0.361758 0.264837 -0.0393166 -0.0324808 0.13981 -0.295621 0.195639 -0.00434463 -0.00991627 0.0294004 -0.179932 0.065511 0.0102956 -0.0836933 0.153467 -0.132507 0.0783145 -0.0662351 -0.0774638 0.213125 -0.254321 0.211619 -0.0530391 -0.067908 0.249576 -0.331555 0.242178 -0.0806733 -0.0308931 0.200734 -0.241196 0.165809 -0.0657396 0.0146014 0.107858 -0.100105 0.0640401 -0.0522626 -0.168917 -0.0767554 0.0289706 0.103615 0.0673045 -0.154821 -0.0499671 0.0490269 0.115497 0.0696385 -0.115466 -0.0123398 0.0789262 0.125875 0.0715991 -0.089172 -0.0073418 0.094325 0.122264 0.0894861 -0.0710097 -0.00201202 0.0717092 0.12625 0.0923324 0.0183084 0.00269658 -0.0177813 -0.00603846 -0.0212389 0.00967017 -0.0122246 -0.0428011 -0.0247713 -0.0471948 0.0191581 -0.00769909 -0.0357716 -0.0234309 -0.0519258 0.00847561 -0.0248444 -0.028991 -0.0264903 -0.0303593 -0.00589402 -0.0310549 -0.0442742 -0.0208404 -0.022419 0.202402 0.105965 -0.0273561 -0.0811957 -0.0663375 0.182668 0.0657585 -0.0837714 -0.118173 -0.105213 0.168901 0.0501295 -0.078701 -0.107295 -0.112764 0.127159 0.010951 -0.0712775 -0.100366 -0.082374 0.101809 0.0107115 -0.0613078 -0.0615509 -0.0454405 0.0577244 0.027085 0.00669487 -0.00234328 -0.0366891 0.00454676 -0.00790615 -0.0139844 -0.0218852 -0.0252502 -0.064711 -0.0359482 -0.0456457 -0.0304495 -0.0101308 -0.0754467 -0.0489847 -0.0505002 -0.0180011 0.00678501 -0.0122347 -0.0211121 0.0102872 0.0376614 0.0657599 -0.0162761 -0.0428665 -0.0538947 -0.0515942 -0.0711771 -0.0262918 -0.0252158 -0.0195123 -0.0219779 -0.0199321 -0.0605423 -0.0154781 -0.0230568 -0.0131619 0.00380086 -0.0460623 -0.00782922 -0.0177176 -0.00188928 0.011126 -0.00341032 -0.00407217 0.0113211 0.0117486 0.0254475 -0.00843087 -0.062608 -0.06532 -0.0542446 -0.0501748 -0.0037337 -0.018679 0.00112296 0.00493266 0.0173728 -0.0373492 -0.00379585 -0.00472272 0.0124005 0.0349604 -0.0194838 0.0141311 0.0132557 0.0305229 0.0485052 0.0220306 0.0218152 0.045428 0.0352172 0.0538046 0.021358 0.0492073 0.0706442 0.0874411 0.085092 0.0324363 0.0561323 0.0693617 0.0875158 0.0868311 0.0303066 0.0617724 0.0798511 0.0848449 0.079238 0.0143197 0.024141 0.0668283 0.0701973 0.0608463 0.00349711 -0.0120658 0.0366534 0.0515711 0.0400462 -0.0189698 -0.0258886 -0.0337613 -0.0245705 -0.0176182 -0.013719 -0.0232453 -0.0338763 -0.0271596 -0.0276644 -0.0132733 -0.00671162 -0.0106161 -0.0231922 -0.0275787 -0.0122712 -0.0212102 -0.000478969 -0.016266 -0.0228298 0.0170339 -0.013012 0.0160287 0.00951953 -0.00371945 0.0371032 0.00147793 -0.0246456 -0.018963 -0.00205844 0.00105555 -0.0398824 -0.0677641 -0.0637899 -0.0452425 -0.0185631 -0.0451664 -0.0656161 -0.0708619 -0.0481381 -0.0148029 -0.05801 -0.0547587 -0.0592445 -0.0384914 0.0298209 -0.0289572 -0.0211561 -0.0181958 -0.00726841 0.039102 0.0502244 0.0244075 0.0331713 0.0276373 0.0408855 0.048953 0.0294252 0.0337826 0.0202473 0.0484655 0.0560156 0.0534126 0.0569013 0.0393593 0.0274002 0.03986 0.0535977 0.0575602 0.0465387 0.0316433 0.0210987 0.0491862 0.0521531 0.0520401 -0.0431154 -0.0441969 -0.0751186 -0.0613109 -0.0481512 -0.0644203 -0.0768392 -0.101269 -0.0863978 -0.0788692 -0.066374 -0.085162 -0.0952647 -0.0843872 -0.0805476 -0.0795751 -0.0874306 -0.0796283 -0.0738662 -0.0691113 -0.0493666 -0.0751642 -0.0527012 -0.0533946 -0.0423319 0.0208076 0.035125 0.0352512 0.0502446 0.0275098 0.0162934 0.0328003 0.0469181 0.0702159 0.0499553 0.0293922 0.0384565 0.039988 0.0465733 0.0296243 0.0342022 0.0406053 0.0295395 0.015201 0.00509006 0.0404581 0.0287065 0.0297154 0.0090743 0.0120319 0.0347008 0.0654111 0.0684413 0.0530729 0.05113 0.0197324 0.0513225 0.0816708 0.0791484 0.0736139 0.000782422 0.0223275 0.0617358 0.0909375 0.110156 -0.0635921 -0.0751604 -0.0456229 -0.00751082 0.0475552 -0.0837353 -0.106937 -0.0877934 -0.0552866 -0.000381504 0.00225334 0.00454363 0.0094726 0.0139985 0.028103 -0.0182398 -0.0252277 -0.00629422 0.000122891 -0.00157817 -0.0440108 -0.0552256 -0.0450627 -0.0300913 -0.0247026 -0.0561296 -0.0843662 -0.085846 -0.0809691 -0.0594274 -0.019343 -0.0421205 -0.0431909 -0.0441277 -0.0291226 -0.0464799 -0.073646 -0.0877387 -0.0928227 -0.0691336 -0.0162168 -0.0540856 -0.0708507 -0.0866674 -0.0924162 0.0384951 0.0228897 -0.0101806 -0.0448999 -0.0747163 0.120335 0.136544 0.108198 0.0454578 -0.010804 0.141835 0.187653 0.183225 0.124714 0.0601979 
bias: 
-0.00609341 -0.0172343 -0.0171551 -0.0282315 -0.00430113 -0.0117234 -0.0121892 -0.0185633 -0.0153862 -0.0165921 -0.0173448 -0.0122015 -0.0212795 -0.0131786 0.0141887 -0.000612457 -0.00066191 -0.00568301 -0.00875722 -0.00349761 0.0120889 -0.0120113 0.00847098 -0.00050762 -0.0297971 -0.0260433 -0.00794644 -0.0119477 -0.00104377 -0.00409496 -0.00485847 -0.00691773 
weights: 
-0.00259416 -0.00293333 -0.000352825 -0.00130785 -0.00250274 -0.00260978 -0.000810317 -0.00174426 -0.00117808 -0.000315441 -0.00213683 -0.000364212 -0.000701791 -0.0021177 0.000160463 -0.00204816 -0.00180862 -0.00173533 0.000750607 -0.00201927 0.000466656 -0.00131357 -0.000884014 -0.000359988 -0.000102795 -0.00227927 -0.00284793 -0.000919411 -0.00175561 -0.00158034 -0.000920926 -0.0017253 -0.000896365 -0.00129566 -0.00132469 -0.00184215 -0.000356397 -0.00133001 -0.000377101 -1.41908e-05 -0.00242639 -0.00194621 -0.000295984 -0.00253877 -0.000484054 -0.000519711 -0.00148263 -0.00125316 -0.000803822 -0.00273231 -0.00158109 0.00112012 0.00165123 0.000518517 -0.00175684 -0.000716706 -0.00133363 0.000349463 0.00123479 0.000894479 -0.00355509 0.000351087 0.000500371 -0.00170211 -0.0017587 -0.00287551 0.000267726 -0.000243868 -8.34161e-05 0.0003788 0.000710442 -0.00194409 0.000438543 -0.00232986 -0.00277441 -0.00172167 -0.00214683 -0.00179361 -0.00347669 -0.00164572 -0.00172625 -0.000845893 -0.00414532 0.000825127 -0.00161235 6.81626e-05 -0.00115458 -0.000911564 -0.00253079 1.11154e-05 0.00026611 -3.31797e-05 0.000146138 -0.00132537 -0.00181846 -0.00161898 -0.000761295 -0.000146482 0.00128722 0.00100045 -0.00106086 -5.82688e-05 -0.00160654 -0.000631385 -0.000639288 -0.00222812 0.00143874 0.000546163 -0.000998138 0.00135587 -0.00163816 0.000486556 -0.00197557 -0.00179215 0.000319029 0.000888288 -0.00141823 -0.00153915 0.00145573 0.000642876 -0.000720097 -0.000146753 -0.000866899 -0.00177455 -0.00114725 0.000824328 0.000397895 -0.000295233 4.24197e-05 0.000706777 0.000694458 0.000161995 -0.000206995 0.0013373 0.000247174 0.000714516 -0.000889139 0.00129964 -0.000143826 -0.000184846 -0.000756235 -0.000950286 -0.000614521 -0.00135116 -0.00167989 0.00121253 -0.000555422 -0.000475049 8.73317e-05 -0.00122691 -0.00270372 -0.00226289 -0.00299033 -0.00229677 -0.00243262 0.00012944 -0.00153056 -0.00174515 -0.00311715 -0.00125228 0.00154676 -0.00010994 -0.00116844 -0.00126847 -0.000368417 -0.00122964 -0.000425175 -0.00171723 0.000230412 -0.00103526 0.00168286 0.000800732 0.000609442 -0.00151577 -0.00220475 -7.83477e-05 6.71536e-06 -0.00156666 -0.000284283 -0.00223979 -0.00130299 -0.000391397 0.000570323 -0.000323276 -0.00204286 -0.0022696 -0.00240832 0.000113827 0.00118896 -0.00052613 -0.00186655 -0.000304306 -0.00139104 -0.000434192 -0.000621946 -0.00218798 -0.00168044 -0.00327738 -0.000306329 -0.00111062 -0.00045125 0.00209391 0.00105756 -0.000135997 -0.00282252 0.000439339 -0.000239359 -0.00149796 -0.00113583 -0.000553521 -0.000321516 -0.00218994 0.000987224 0.00108049 0.000681961 0.00120516 0.000306331 -0.000648214 0.000759126 0.00113933 -6.13441e-05 -0.00136449 0.00321792 -0.00073949 -0.00146031 -0.00212569 -0.000369725 -8.8156e-05 -0.00203083 -0.00225358 -0.00181967 -0.000160916 0.000304942 0.000113172 -0.000959267 -0.000628392 0.00144645 -0.000112883 -0.000266137 0.000147706 -0.00069561 -0.00189129 0.00051392 -0.000845758 0.00127096 -0.000792894 0.00065381 -0.000683388 0.00104772 -0.000396678 0.000651677 0.000858518 -0.0020084 0.000173038 -0.00024397 0.000183062 0.00174477 0.00154749 0.00148088 -0.000250076 -0.00235775 -0.00156633 0.00021641 -0.000194946 0.00137743 -0.000624102 0.000287028 -0.000297649 -0.000785105 0.000537174 -0.0016762 0.000203485 -0.0013182 -0.000606126 -0.00146458 0.000302961 0.000962717 0.000797427 8.35672e-05 -0.00156729 -0.000373021 -0.0011018 0.000586406 0.00232057 0.00131526 0.000629253 0.00113088 -0.000793292 -0.00190303 0.00019849 -0.00208512 -0.00114211 -0.00163789 0.000890062 -0.000184581 -0.000564584 -0.00273673 -0.00116333 0.00128622 0.000208111 -0.00164502 5.02019e-05 -0.00103367 -0.00134809 -0.00044874 0.000450939 -0.00188389 0.000167023 -0.000469044 -0.000971374 0.00132849 -0.0017423 -3.82698e-05 -0.00052571 -0.000303001 0.00150446 0.00121215 -0.00294905 -0.00265628 -0.000237745 0.000669337 0.000231109 -0.000480316 0.00112753 -0.00172965 -0.00111769 -0.00121326 0.000502178 -0.00184176 -0.00105047 0.000370604 -0.000300822 -0.000511664 0.000528548 0.00117864 -0.000845595 -0.00199554 0.000725361 0.0020717 0.000364892 -0.000430704 -0.000635628 0.00154032 0.00104843 0.0012033 0.000191275 0.000323575 0.00135724 3.14085e-05 -6.56349e-05 -0.000397826 -0.00147469 -0.000898717 -0.00230281 -0.00287255 0.00154024 -0.00323184 -0.000834565 -0.00204192 -0.00151636 -0.00210206 0.00075044 6.64401e-05 -0.00150083 4.9337e-05 0.00141589 0.00151187 -0.0011205 -0.000983083 -0.00153225 0.00225564 0.000696259 -0.00203723 0.00126957 -0.000771459 -0.000359115 -0.000790447 0.000789703 0.000437363 -0.00137828 0.000475524 -0.000314746 0.00033482 -9.93086e-06 0.00192232 -0.000242045 -0.00170601 7.10324e-05 -0.000518576 3.97859e-06 -0.000776453 -0.00115952 0.00105218 -0.00174317 -0.000426075 -0.000736298 -0.000980931 4.79698e-05 0.000476532 -0.00174851 -0.000697937 -0.000888555 -0.000293753 -0.000462882 -0.00174017 -0.00168197 -0.00108635 0.00108646 -0.00228552 -0.000675703 -0.000480318 -0.0016918 0.000191354 -0.00429148 -0.000320219 0.000365379 -0.000467056 0.00168731 -0.000332723 0.000442377 -0.000365295 -0.000859982 -0.00151042 0.000119752 -0.000572229 -0.000981085 0.00157569 -0.00142018 0.00141726 0.000112529 -0.000543324 -0.000944245 -0.000892147 0.000868139 0.00171594 -0.00101973 0.000559804 -0.00330024 0.000380202 0.000877128 -0.00176821 -0.000853207 -8.22887e-05 0.0020018 -0.00197022 -0.00104602 0.00071075 -0.00109567 -0.00113871 0.00139496 -0.00223009 0.000172795 -0.000156333 -0.00137039 -9.1222e-05 0.000161187 0.00251537 -0.00158005 -0.000595624 -0.000859383 -0.000596987 0.000478302 -0.00146257 -0.00206583 -0.00031685 -0.00101153 -0.000791293 0.0014928 -0.00150714 -0.000461759 -0.00132715 -0.00204607 -0.00169801 -0.00104093 -0.00169402 -0.000940042 0.00122565 0.000152378 -0.00013185 -6.98742e-05 -0.000617091 -0.000795442 0.00101972 0.000525397 -0.00202658 0.000341133 -0.00105827 0.000757546 -1.6733e-05 -0.000507401 -0.000398986 7.71206e-05 0.0010605 -0.00154508 -0.00200623 -0.00138997 -0.000820674 -0.0027096 0.00040318 -0.000397639 -0.000841666 -0.000350025 -0.000530899 -0.000344454 0.00022972 -0.00188446 -0.000476916 -0.00137 -0.000563825 -0.00174558 0.00236303 0.0003466 -0.00182407 -0.00104921 5.39752e-05 -0.0032315 0.000266643 0.000574773 -9.48224e-05 -0.000681715 -0.00119581 -0.00165846 0.000281082 -0.000635111 0.00139343 -0.00108776 0.000465439 -0.00220693 -0.00168067 6.72663e-05 -0.00136801 -0.00129159 -0.00101123 0.00174842 -0.00143221 -0.00252205 -0.0024874 -0.000682204 -0.000637891 -0.00051263 0.000775286 -0.00148837 -0.0013477 -0.00104501 -0.00127316 -0.000616387 -0.000363388 -0.00116878 0.000563989 -0.000147935 0.00224351 -0.00138628 -0.000642312 0.000865205 6.83827e-05 -0.00142262 -0.000652179 -0.000343611 -0.00277344 -0.000360972 0.000470576 -0.00195796 -0.000788678 -0.00058682 -0.000733161 0.000305159 -0.00116904 -0.000506969 -0.00105781 -0.00115651 -5.71172e-05 -0.000501348 -0.00214959 0.00275549 0.00121912 0.0010193 -0.00193751 -0.000880916 0.000751664 0.000561445 0.00100496 -0.000679456 3.7565e-05 -0.00108365 -0.00229206 -0.000225995 -0.00057532 -0.000239102 -0.000940831 -8.47251e-05 8.14531e-05 -0.00115633 0.000634891 -0.00183645 -0.002285 -0.00159576 -0.000643332 -0.00125085 0.000101338 0.000550103 -0.00184061 -0.00182236 -4.80219e-05 -0.00202078 0.000428222 -0.00103092 -0.000636424 -0.00103077 -0.0015941 -0.00197774 -5.51322e-05 -0.00046323 -0.000478753 -0.00190437 -0.00228198 -0.000698716 -0.000331003 0.000346357 0.00213882 -0.00137843 -0.0023638 0.000106205 0.000727732 -3.59152e-05 -0.000905202 -0.00266704 -0.00152854 -0.00150104 -0.000792805 -0.00152932 -0.000633435 -0.00172869 -7.17681e-05 -0.000688771 -0.000628717 -8.47176e-05 -0.00166436 -0.000557071 -0.000287318 -0.00197566 0.00166005 -0.000861463 -0.00137415 -0.00160933 0.000649727 -0.000816769 0.000459665 -0.000743861 -0.000468287 -0.000755927 -0.00062283 -0.00167825 -0.000868517 -0.00176173 -0.00289094 -0.00138116 -0.00182582 -0.000113758 0.000177665 -0.000637275 -0.000617513 -7.11254e-05 0.00159115 0.00115677 -0.000256986 -0.0019936 -0.00119303 0.000556346 0.000278821 -0.000227929 -0.00230777 0.000226785 -0.000524857 -0.00242069 -0.00196082 -0.00069279 -0.00113146 -0.00183827 -0.000457108 -0.00231831 -0.000464355 -0.00078399 9.44077e-05 -0.000702109 -0.00113785 -0.000562945 -0.000110007 -0.00234026 -0.000741082 -0.000909489 -0.000243232 -0.000448179 -0.00102245 0.000940861 8.70523e-05 0.000929544 0.000381344 -0.00173076 -0.000149696 -0.000277306 -0.000469753 -0.000610097 -0.00314707 -0.00175783 -0.00209976 -0.00350983 -0.00208994 -0.00193619 -0.00157738 0.00091639 -0.00142931 -0.0014101 -0.0012499 -0.00222731 0.000133297 -0.000428852 -0.00259436 -0.00120773 -0.00213219 -0.00301093 -0.000979642 0.000234048 -0.000596826 -0.000316326 -0.00123089 -6.98848e-06 -0.00121987 -0.00146774 -7.61203e-05 0.000614522 -0.00285366 -0.000931294 0.000543187 -0.00185528 -0.000762847 9.66458e-05 0.000211518 -0.00127155 0.000678189 -0.00291529 -0.000283699 -0.00182542 -0.00154655 -3.10202e-05 -0.00141975 -0.000907592 0.000909655 0.000300428 9.72146e-05 -0.00179286 -0.000812732 -0.00142664 -0.00200813 -0.000192001 0.00111822 -0.00122628 -0.00201503 -0.000505438 -0.00135287 0.000196636 -0.000782009 0.00177315 -0.000136224 -0.000391326 -0.000771168 0.000187231 0.000460406 -0.000559374 6.86975e-05 -3.35105e-05 -0.00144981 -3.9919e-06 0.000763522 -0.00023341 0.00103501 -0.00142787 -0.00144629 -0.000961341 0.000794534 -0.00205212 -0.000640644 -0.00010894 -0.00018683 -0.000398742 -0.000667749 0.000500953 -0.00134825 0.00068226 -0.00244323 -0.00105532 -0.002017 -0.0029012 -0.000276522 0.000482769 -0.000294298 -0.00133873 -0.001017 -0.000361291 -0.000275691 -0.000281944 0.0186655 -0.0128429 -0.0159615 -0.015022 -0.00870856 0.0175977 -0.0232729 -0.0345544 -0.0310444 -0.0167944 0.0210738 -0.0347018 -0.0529611 -0.0480598 -0.0196811 0.0265405 -0.00891113 -0.0200835 -0.0133684 0.0182842 0.0194953 0.0162717 0.026543 0.0293928 0.0458435 -0.00984688 -0.02812 -0.0205315 -0.0297414 -0.0414267 -0.00346926 -0.0124612 0.00408339 -0.00182523 -0.0126172 -0.0225926 -0.0120058 0.00967893 0.00380192 -0.0126309 -0.0256518 0.0151361 0.0488199 0.0356744 0.00034333 -0.0412326 8.08881e-05 0.0258003 0.00667968 -0.0258591 -0.00727729 -0.0176488 -0.00848461 -0.0121776 -0.0150764 -0.0232052 0.0195472 0.0319553 0.0171616 -0.00963808 -0.00502109 0.0689225 0.075441 0.0191343 -0.0196869 0.0109764 0.100159 0.097436 0.0499585 0.0198018 -0.0316896 0.0219066 0.0852405 0.102321 0.0766271 0.0239669 -0.0156414 -0.0123548 -0.0107777 -0.00536905 0.0258479 0.0453288 0.0446741 0.00729557 0.00192836 0.00981185 0.0612645 0.0724406 0.040793 0.033975 -0.023888 0.0127768 0.038079 0.044379 0.0588101 -0.0174505 -0.0171477 -0.0119048 0.00350004 0.036548 -0.00828269 -0.0122151 -0.00495271 -0.00174267 -0.000284015 -0.0204374 -0.0152828 0.000494077 0.002274 0.00635006 -0.0294692 -0.0195127 -0.000965294 0.0102516 0.0119916 -0.018585 -0.00791705 0.0106243 0.0215611 0.0257603 -0.00515055 0.00870773 0.0210889 0.0261313 0.0215983 0.0631323 0.0620988 0.0456795 0.0143006 -0.0118809 0.068551 0.0604721 0.0480012 0.0271902 0.00523613 0.023951 0.023208 0.0300695 0.0324719 0.0143557 -0.0164102 -0.00592675 0.0194733 0.0332454 0.0188527 -0.0263707 -0.00985288 0.00533985 0.0123288 0.00633884 0.0138533 0.0361112 0.0583538 0.0420938 -0.00232086 0.00092341 0.00208973 0.0161671 0.0161605 -0.0123851 -0.0444561 -0.0245108 -0.0429667 -0.0230102 -0.0075349 -0.0812505 -0.0496464 -0.0506785 -0.0475484 -0.00363311 -0.101898 -0.0574749 -0.00231686 0.0339572 0.075995 0.0196897 0.0287074 0.0485844 0.024021 -0.0021943 0.0034585 0.02285 0.0510237 0.0510637 0.0235156 -0.0124503 0.0337979 0.0496259 0.0229027 0.00552913 -0.0237828 0.0337534 0.0688821 0.0242052 -0.0170888 -0.0848463 -0.0140981 0.0757997 0.0892863 0.0613497 0.0636201 0.0669681 0.0350588 -0.0201388 -0.0471605 0.0644418 0.0540414 0.0252914 -0.0154123 -0.0186464 0.035823 0.0259994 0.0262601 0.0127581 0.024759 -0.0117549 -0.00287736 0.0259433 0.0497831 0.0641352 -0.0366476 0.00455425 0.0572965 0.0638537 0.0563794 0.0410791 0.00557091 -0.0218185 -0.0585823 -0.0868524 0.0543624 0.00753671 -0.0150782 -0.0374393 -0.0772889 0.0239438 0.0230629 0.0377134 0.00543361 -0.0462234 -0.0248659 0.0316767 0.081868 0.0585425 0.00334446 -0.0242312 0.0424992 0.0776227 0.05486 0.00321712 0.0395722 -0.00408025 -0.0373055 -0.0829069 -0.101418 0.00986032 -0.010095 -0.0456526 -0.0961583 -0.117473 -0.0244434 0.00854825 0.0147505 -0.0309356 -0.0929766 -0.0821375 0.00471633 0.0859638 0.0655547 -0.0235423 -0.108473 -0.00267684 0.108944 0.127185 0.0623467 -0.0811408 -0.0416671 0.00255507 -0.0047235 -0.0123113 -0.0556543 -0.00276179 0.0393663 0.0332025 0.0268926 -0.0532021 0.00525202 0.0466015 0.049593 0.0321724 -0.0532011 -0.00654143 0.026209 0.0274596 0.0019729 -0.0602304 -0.0262629 0.00230093 0.0111191 -0.00661823 -0.0331537 -0.00509233 0.0111099 -0.0197702 -0.015342 -0.0146818 -0.0436961 -0.0231697 -0.0212643 0.0229173 0.000450901 -0.0484089 -0.039782 -0.0113601 0.0413598 -0.0161413 -0.0405151 -0.0131531 -0.0211814 -2.42956e-05 -0.043566 -0.00850865 0.04921 0.0174506 -0.0030572 -0.0512355 -0.0037484 0.0246399 0.00591809 -0.0197087 -0.030886 -0.015007 -0.0277801 -0.0149652 -0.0157165 -0.032879 -0.0321007 -0.0490693 -0.0280507 -0.0235716 -0.0586926 -0.0325342 -0.017142 -0.0144829 -0.0220669 -0.0914357 -0.0265386 0.0221498 0.026227 0.0124146 0.0289261 0.0566594 0.0578353 0.0240019 -0.00726835 -0.00411719 0.0271602 0.0383564 0.0188501 -0.0111711 -0.044469 -0.0161887 0.00335413 0.0120952 -0.000360986 -0.0639315 -0.0383619 -0.0187068 -0.00762816 0.00266893 -0.0560129 -0.041658 -0.0278417 -0.0129742 0.0127171 -0.0257778 0.0211969 0.023525 0.0119638 0.0149817 -0.0657906 -0.029955 0.0063642 0.0320619 0.0369651 -0.120773 -0.0532572 0.00733505 0.0462439 0.0567032 -0.111985 -0.0287032 0.03252 0.0578696 0.0633154 -0.0608228 0.0032156 0.0438981 0.0544297 0.0550344 0.0232238 0.0550908 0.0600659 0.0235401 -0.0260477 -0.00261693 0.0323199 0.0484148 0.0324188 0.00623083 -0.033241 0.0055803 0.0124097 0.0237754 0.0342007 -0.0382182 -0.0172901 0.0134288 0.00654813 0.0408959 -0.0486877 -0.0107366 0.0505787 0.0787765 0.080758 -0.0307552 -0.0203685 -0.0196566 0.01796 0.0227916 -0.0484444 -0.0521498 -0.0363429 0.00996775 0.0111763 -0.0823045 -0.0904018 -0.0558108 -0.00491092 -0.00379552 -0.082527 -0.0741799 -0.0365641 -0.00209008 0.0086836 -0.0699943 -0.034985 0.0132376 0.0346638 0.0418414 -0.0686345 -0.0266178 0.00869821 -0.0112625 -0.0345311 -0.0672364 -0.0405331 -0.00972753 -0.0233828 -0.0169684 -0.0538551 -0.0013689 0.0173729 0.002106 -0.00777122 -0.0457387 0.0190642 0.0686565 0.0594245 0.0399432 -0.034306 0.0307229 0.114409 0.101859 0.0722931 0.0619083 0.0360646 -0.00323057 -0.0596168 -0.0784087 0.0473764 0.0367249 -0.0103272 -0.055215 -0.0746195 -0.0313579 0.000218751 0.0302188 0.0413204 0.0121661 -0.111905 -0.0264378 0.0643352 0.110378 0.0843821 -0.108651 -0.0582619 -0.0106796 0.037029 0.0416847 -0.0402459 -0.0327054 -0.011748 -0.00971269 -0.0200998 -0.00676659 -0.0115178 -0.00314673 -0.00535989 -0.0118751 0.0247025 0.0123441 0.0119401 0.0107946 0.0115205 0.0245217 0.00552056 0.00382636 0.016809 0.0355344 0.0219716 -0.000777498 0.00758737 0.037395 0.0642166 -0.027845 -0.0331153 -0.0213564 -0.00693059 0.00504508 -0.0494522 -0.0530838 -0.0303613 -0.00566204 0.020093 -0.064098 -0.05822 -0.028278 -0.00549344 0.0239912 -0.0419988 -0.0200624 0.00128203 0.0147431 0.0380198 -0.020311 0.0120798 0.0364987 0.0446181 0.0438754 -0.0346715 -0.00579563 0.0138967 0.0206319 0.0108602 -0.0207578 -0.00173721 0.0319333 0.0419941 0.0262265 -0.0268092 0.00506119 0.0368175 0.02809 0.00613665 -0.0125842 0.0219949 0.0396855 0.0174304 -0.011565 -0.000302542 0.0241799 0.0247685 0.0170256 0.00207593 -0.0231005 -0.00833353 0.0010015 0.00465314 -0.005333 -0.0288185 0.0228363 0.0362896 0.0106858 -0.016974 -0.0451368 0.0216897 0.0512884 0.0481641 0.0206679 -0.0646338 -0.0148941 0.0221208 0.0440326 0.0535374 -0.0466326 -0.0282012 -0.0166893 0.00754232 0.0435628 -0.0564242 -0.0400193 -0.00509534 -0.0264076 -0.083911 -0.013975 -0.00138366 0.0136287 -0.00645527 -0.0633325 0.0174873 0.00253621 -0.0299483 -0.0624355 -0.101717 0.0419607 0.0282514 -0.0319275 -0.089163 -0.103649 -0.0637069 -0.0299225 -0.012165 -0.0286691 -0.0396955 0.0562464 0.0514001 0.0216509 -0.0121657 0.00273298 0.073995 0.106788 0.0770568 0.00655878 -0.0112658 0.0563304 0.117784 0.0986641 0.0213634 -0.0159605 0.00176029 0.0424923 0.0394397 0.0296309 0.0116018 -0.0518059 -0.0368862 -0.031982 0.0023359 0.0158848 -0.01358 0.0141903 0.0293254 0.0465941 0.00010032 -0.0258394 -0.0179168 -0.0127166 0.0235977 0.000922995 -0.0608109 -0.0617307 -0.0481834 -0.0126718 -0.0203612 -0.0856287 -0.0724148 -0.0365916 0.000933777 -0.00105692 -0.0672233 -0.0425156 0.00832739 0.0626535 0.0492263 -0.0173978 -0.0405741 -0.0463902 -0.0679249 -0.0791847 -0.0270136 -0.0462202 -0.0514808 -0.0642261 -0.0592947 -0.0354304 -0.0465353 -0.0369899 -0.038394 -0.0254831 -0.0364246 -0.0292999 -0.00284227 -0.00149248 0.00643565 -0.0395844 -0.0136925 0.0263807 0.0220492 0.0230102 0.0564238 0.037699 0.0226152 -0.00972502 -0.0432878 0.0827082 0.0546089 0.0135923 -0.0327184 -0.056713 0.0819878 0.0455514 -0.0172233 -0.063207 -0.0707891 0.0149073 -0.00700853 -0.0464033 -0.0675342 -0.064899 -0.0693932 -0.0497354 -0.0355479 -0.0273157 -0.0284011 0.000384421 -0.0212455 -0.0279092 -0.0205692 -0.0114599 -0.0166762 -0.0307653 -0.021518 -0.010347 -0.00195964 -0.0330604 -0.0360627 -0.0204386 -0.0071321 0.00317352 -0.017934 -0.0120339 0.00411727 0.0128937 0.0237103 -0.000925948 0.0181145 0.0364654 0.0353214 0.0375985 -0.026494 -0.0222551 -0.00715883 -0.004004 -0.00563545 -0.0301594 -0.0200547 -0.00653917 0.00383952 0.0041823 -0.030028 -0.0238123 -0.015643 -0.0090989 -0.00499165 -0.0113715 -0.0050786 -0.000322567 -0.00168353 -0.00487591 -0.00187748 0.0101502 0.01591 0.00526123 -0.00739308 -0.00298367 0.000183308 0.011906 0.0134239 0.00129656 -0.00357188 0.00287987 0.0154164 0.0160689 0.00378688 -0.0173876 -0.0169501 -0.00840103 -0.00350765 -0.00516768 -0.0374231 -0.0355381 -0.0257789 -0.0149104 -0.0164757 -0.0441159 -0.0324519 -0.00723874 0.00144983 0.00236849 -0.00176299 0.000642584 -0.000726483 -0.00159463 -0.000899226 -0.00244222 -0.00282071 -0.00291986 -0.00215839 -0.000739996 -0.000945455 -0.00133447 -0.00103251 -0.00356079 -0.000520121 -0.00153054 -0.00105393 -0.00260032 -0.00213971 -0.00354351 -0.00176503 -0.00261655 -0.00213096 -0.0010042 -0.00239459 -0.000872892 -0.00140014 -0.000559158 0.000368357 -0.00169738 0.000802512 0.000333175 -0.00149729 0.00182828 -0.000300444 0.000449518 -0.000740426 -0.00120621 0.000155954 -0.00129168 -0.000603035 -0.000913909 0.000203093 -0.000263962 0.000139318 -0.000378684 0.00104326 0.000119707 -0.00136472 0.00200624 -0.000969436 -0.000704329 -0.00244338 0.000916154 -0.00149905 -0.00145477 -0.00197929 -5.00752e-05 -0.000909221 -0.000194691 -0.000920522 -0.00249726 -0.000900825 -0.00142864 -0.000713424 -0.000906229 -0.000381991 0.000635697 0.000799678 -0.00201761 0.00010829 -0.000622938 0.000659314 -0.00214188 -6.12208e-05 -0.00221822 -0.0014609 -0.00289775 -0.00167713 0.000238116 0.000117388 -4.05932e-05 -0.000734246 -0.00109491 -0.00043081 0.000569019 -0.00218114 -0.00107207 -9.55463e-05 -0.00170787 -0.000883537 -0.00179214 -0.000269085 0.000374649 0.000937029 -0.00153466 -0.00167152 -0.00204892 -0.00130214 0.00111464 -0.000371576 0.00189481 -0.000698074 -0.000775443 -0.000917681 -0.00175582 -0.00156791 0.000159386 -0.00136464 -0.000535221 8.17046e-06 0.000332789 9.22922e-05 -0.00102059 -0.000759485 0.000316367 -0.00022602 -0.00132781 -0.000362034 -0.000973497 -0.00204791 0.00128851 0.00217681 -0.00115188 0.000177909 -0.000547201 0.00133817 0.0015606 -0.00124038 -0.00202024 -0.00111896 0.00083962 -0.00022209 0.000237176 0.00134795 0.000765165 2.34074e-05 0.000570074 -0.000144404 0.000880532 -0.0004839 0.000520589 0.00113534 9.07347e-05 0.000628343 -0.000280202 -0.00066738 -0.0005941 0.000416943 0.000464007 -0.000179104 -0.00030802 0.000748622 0.0010631 -0.00145662 0.000521399 0.00134925 0.00122898 0.00149932 -0.00263724 0.00035904 -0.000538999 -0.00105915 0.000214446 -0.00224982 -0.000544049 0.00198826 -0.00019397 -0.000413134 -0.000329121 -0.00177606 0.000942938 0.000758177 0.00059935 0.00013198 -0.00135612 -0.00163724 -0.00123893 -0.00173002 -6.53811e-05 0.000873581 0.000302144 -0.000395216 -5.20169e-05 -0.00289622 3.95332e-05 -0.000461346 0.00104667 0.000855241 -0.00165668 0.00138651 0.00138914 0.000714991 -0.00232705 -0.00059744 -0.00144493 0.000184162 -0.00113971 7.81941e-05 -0.00205458 0.000667501 -0.000233664 0.00159289 -0.00118894 -0.000509686 -0.000814777 0.000127206 -0.0013662 0.000809115 0.00196179 0.00232855 -0.000798334 -0.00123106 -0.000856175 0.000588957 -7.93202e-05 4.06258e-05 -0.00093264 0.000231069 0.000187032 -0.000888617 -0.00219112 -0.000517302 -0.001887 -0.000802394 -0.000995443 0.00107831 -0.00058195 -0.000172121 -0.00112953 -0.000417952 -0.000378963 0.00169522 0.000107118 0.000464192 -0.000618651 0.000194023 0.000120959 -9.62215e-05 -0.00098075 -0.00138559 -0.00131608 -0.00184358 -0.00226563 -0.000647991 2.97905e-05 -0.000787513 0.00176511 -0.000281102 0.00168663 -5.90072e-05 0.00102699 0.000128922 -0.000765041 -0.000625077 0.0019766 0.000456915 0.000223459 -0.00135504 0.000310113 -0.000865636 -0.00113215 -0.00229656 0.000118543 -0.000760294 0.00243158 0.000710477 -0.00240502 -0.00177146 0.000655899 0.00166117 -0.000384666 -0.00162992 -0.000658598 0.00123523 -0.00110642 -0.00265616 -0.000585995 -5.26884e-07 -0.00205068 -0.00296513 0.000772815 0.000900239 0.000755084 0.000145135 -0.00162248 0.000504857 -0.000148262 -3.34238e-05 -0.000947631 0.000785513 -0.0011585 0.000868548 4.78485e-05 -6.23952e-05 7.8212e-05 -0.000618158 -0.000388539 -0.000128976 0.000877202 0.000593074 -0.00060762 -0.00255976 -0.00249573 -0.000520446 -0.000698966 0.00155031 -0.000799373 -0.000482692 -0.000229464 8.76674e-05 -0.00149356 1.15409e-05 0.000113709 0.00064021 0.000756082 -0.000686223 -0.000525686 -0.00147852 -0.0013469 9.32532e-05 0.000649945 -0.00050735 -0.00170469 -0.00159067 -0.000562912 0.000534788 -0.000884052 -6.29484e-05 -0.00143766 -0.000111008 -0.000841138 -0.00094788 -0.000362519 6.33881e-05 -0.000574987 0.000642996 -0.00104976 -0.00120403 -0.00133373 -1.64508e-05 -0.0020092 -0.00170495 -0.0027638 0.000761035 -0.0007505 0.00112111 0.00145348 1.53311e-05 -0.000935942 0.00114081 -0.000448182 -0.00125002 0.000379505 -0.00022252 -0.000784669 5.35701e-05 -0.00127363 -0.00162297 -0.000834525 -8.38962e-06 -0.00100082 -0.000505844 -0.000365785 -0.000233474 0.000124038 -0.00254467 -0.00129857 0.00104268 0.000694524 -0.000916686 0.0021725 -0.00229391 0.00169877 0.000735574 -0.000376711 -0.00138573 -0.000475289 -0.000663122 -0.000192609 -0.000283907 -0.000470765 0.000467864 0.000786904 -0.000253128 0.000254397 0.00067555 0.00111179 -0.00350536 -8.414e-06 -0.000366893 -0.000293794 7.89455e-07 0.000609784 -0.00131561 -0.00109674 0.000409066 -0.000941688 -0.000129609 -0.000111351 0.00243826 -0.000442548 0.000143586 0.00024218 -0.000717406 -0.000521292 -0.00200118 -0.00053016 -0.00229775 3.96342e-05 -0.000501315 -0.00127759 -0.00150532 -0.00100144 0.00112372 0.000256673 0.00207974 -0.000959815 -0.000995095 -0.000797869 -0.00128635 -0.00123259 -0.00127838 -0.000615646 -0.000265099 -0.000978904 -0.000108795 0.00109293 -0.00111863 -0.00131698 -0.000894868 0.000573512 -8.50568e-05 -0.00110334 0.0014666 0.000469658 -0.0018894 3.10737e-05 0.00182607 0.00210765 -0.00054506 0.00213831 -0.00096547 0.000381173 -0.00128813 -0.00172963 0.000150477 -0.00114518 -0.00233203 -0.000275635 -0.00155429 -0.000478975 -0.000915762 -0.00174039 -0.000361276 -0.00122175 0.000578422 -0.0024081 -0.00135119 0.000684042 -0.000278668 -0.00282196 -0.00024035 -0.00146907 -0.00245161 -0.000790217 -0.000869271 -0.000592009 -0.000521662 -0.00395546 -0.00282568 0.00081324 -0.00177098 -0.00160602 -0.000808578 -0.00152286 0.00103299 -0.00060578 -0.00106684 0.000769322 -0.00116409 0.000547812 -0.000308324 -0.000916378 -0.000268051 7.82699e-05 -0.000823886 -0.00107207 0.00111812 0.000286336 -0.000146838 -0.00121177 0.00071186 0.000782697 -4.21618e-05 -0.00125466 -0.000826165 0.000397526 -0.000857494 0.000252992 0.000681086 -0.00228855 -0.000957549 -0.000776242 -0.000998712 -0.00198066 -0.000735445 0.00178629 -0.00229319 0.00130756 0.00104827 -0.00175317 0.000113887 -0.00153491 -0.000885513 0.000974763 0.000254356 4.19366e-05 -0.000297595 -0.000992593 -0.00163204 0.000860021 0.00137381 -0.00207739 -0.00101562 -0.00106175 -0.00129201 -0.0016132 -0.00133644 -0.000442726 -0.00250658 -0.00147994 -0.00134564 5.99322e-05 -0.00138582 -0.00176172 -0.00196553 -0.000996239 -0.00127885 -0.000692149 -0.000401485 -0.000628381 0.00149166 -0.000560379 -0.00104837 -0.00148781 0.0015005 0.000613216 -4.29415e-05 0.00132332 0.000664344 -0.000607316 -0.00097656 0.00164024 0.00214674 -0.00123658 -0.000119624 -0.00325935 0.000404571 -0.00110187 0.00117073 0.000365556 -0.00167998 0.000827989 0.000138625 -0.000785949 0.00167566 -0.000869352 -0.000699787 -0.000779614 0.000258064 -7.30321e-05 -0.00112281 -0.000284711 -0.000348319 6.81129e-05 -0.000583553 -0.000675419 -0.000184512 -0.00171095 0.000205439 0.000991484 -0.0010766 -0.000372232 0.00135474 -0.000933757 -0.000771469 -0.00036353 -0.000894254 0.000367635 0.00129371 0.000293064 -1.27986e-06 -0.000753678 0.00026224 0.000719855 -0.000660659 0.000427614 9.56383e-05 0.000874228 0.000371222 -0.000410331 5.80562e-06 0.000410315 -0.00172474 -0.00130932 -0.000462051 0.000283111 -0.00033223 0.000763408 -0.00203559 -0.000945115 0.00163841 0.00129627 -0.000375978 -0.000640862 -0.000999804 -0.000457847 0.000135324 -0.000557734 -0.000793935 -6.71647e-05 -0.000817485 0.000349461 0.000782568 -0.000330742 -0.00306622 0.000520332 -0.000428064 7.28979e-05 -0.00290105 -0.000205902 0.000719518 -9.90124e-05 0.00102796 -0.00160545 -0.00152888 -0.000739292 0.0003306 0.000255769 -0.00150907 0.00163303 -0.00093327 -0.0018854 -0.00132564 -0.00215764 -0.00210281 -0.000668925 -0.00133481 -1.24968e-05 -0.00245596 -0.000549631 -0.000369966 0.000781652 -0.00169895 -0.000556118 -0.000852386 -0.00158621 -0.000688579 -0.000547544 -0.00184153 -0.000139051 -0.00154844 -0.00370577 -0.000981412 0.000275851 -0.00298351 -0.000880925 -0.00190536 -0.000352537 5.03699e-05 -0.000642515 -0.000939106 -0.000511845 -0.00164707 -9.11393e-05 0.000188391 0.00186491 -0.000554936 0.000671659 0.00137233 -9.32813e-05 -0.000695366 -0.000625113 0.00118116 0.000244159 0.000951008 -0.00265838 -0.000627408 -0.00173193 -0.000881956 0.000523304 -0.000826933 0.000553957 0.000160744 -0.000336679 -0.000524277 -0.0014576 -0.000111508 0.000421516 -0.000669299 -0.000574491 -0.000981699 7.14929e-05 -4.26223e-05 -0.00200768 -0.00238435 -0.000575052 0.00183693 -2.35434e-05 -0.00123916 -0.00156293 -8.53416e-05 0.000163028 0.00106049 -0.00114195 -0.000434979 -0.00180244 -0.000755491 -0.00180809 -0.00203479 -0.00344345 -0.00336872 -0.00159853 -0.00224892 -0.00281137 0.000162123 -0.00092205 -0.00304306 0.000349442 -0.002238 9.87101e-05 -0.00296095 -0.000714117 -0.00213145 -0.00149761 -0.000652769 -0.000657115 -0.00216107 0.000546443 -0.00176744 -0.00287383 -0.00228229 -0.000301834 -0.00114388 -0.00102423 -0.00137339 -0.000697919 0.00051575 -0.000786225 0.000449616 -0.00147391 9.71751e-05 -0.000891614 -0.00117731 -0.00091009 -0.00271857 -0.000965849 -0.00161355 -0.0022591 -0.000238159 -0.000858443 -0.00328607 -0.000804818 0.000902113 -0.00173142 -0.000263559 -0.000930168 -0.00171961 -0.000242893 0.000510425 -0.000450298 0.00129739 -0.000431068 -0.00037103 -0.002178 -0.00169765 0.000183135 0.000261751 -0.000521278 -0.000557756 -0.000456228 0.000490559 -0.000453871 0.000172383 -0.000917256 -0.00111749 0.00064911 0.00194661 0.00100231 0.000209386 -0.000909514 -0.000245308 -0.00231444 -0.00132221 -6.97782e-05 -0.000962084 -0.00091221 0.000847316 0.000725413 0.00097693 0.00165794 -0.000173564 0.0011252 -0.000725013 -0.00144502 0.00103733 -0.00334702 -0.00158986 0.000535307 -0.00221326 0.00128236 -0.00141598 0.00101655 -0.00106496 -0.000267075 -0.00201785 -0.00152322 0.000832337 -0.000371538 -0.00111386 -0.000168715 -0.000311853 -2.90663e-05 -0.000275009 0.00021305 0.000397455 -0.00168744 -0.00169532 -0.00134724 -0.00121462 -0.000114395 -0.000703517 -0.0012076 0.00119956 -0.000947758 -0.000150247 -0.000498371 0.000835827 -0.00161033 -0.000575278 -0.000834773 -0.00030266 0.000796902 -0.00236339 -0.000652157 -0.000108177 -0.000234158 0.000559549 -9.71449e-05 -0.00132895 0.00103856 -0.000173032 -0.00140744 -0.00100685 -0.000484168 0.00124336 0.00087976 -0.0011585 -0.000463564 0.000537854 0.000851841 -6.07246e-05 0.000494656 -0.00145794 -0.000297088 0.000222995 -0.000247896 0.00137396 0.00034046 -0.000432373 -0.000402875 -0.00137383 -0.0011915 0.000270787 0.000530648 -0.000876841 0.000286971 -0.000991895 -0.000184164 0.000251187 -0.00113808 -0.00057497 -0.00292971 -0.00160293 -0.000211822 0.000594109 -0.000142168 -0.000779477 -0.000165677 -0.0019941 0.000176311 -0.00170067 -0.000656835 0.000107066 -0.00162114 -0.0011144 -0.00156262 0.000833614 -0.000421218 -0.00265691 -0.0010325 0.00104325 0.00129244 -0.000751564 -0.000439862 -0.000247358 -0.000217407 -0.000260462 -0.00177331 -0.000875697 0.000272898 0.00167889 -0.000725464 -0.00268131 0.00122766 -0.000421412 0.00126931 0.000469972 -0.000493869 -0.000264571 0.000707036 -0.000194724 0.00152688 0.000676747 -0.000766974 0.000529225 -0.000990282 -0.000815358 -0.000763549 0.000729702 0.000989011 7.7369e-05 0.000514944 -0.000772731 -0.00197594 -0.000146039 0.00105642 0.000497316 0.00123642 0.000689444 0.000359318 -0.00117712 -2.43715e-05 0.000669689 0.00165748 -0.000955378 0.000727078 -0.000836457 -0.000666587 -0.00248996 -0.00136531 -0.00232645 0.00116938 -0.000196791 -0.000402103 -0.000109696 -8.57341e-05 6.46275e-08 -0.000403129 -0.000122224 -0.00175844 -7.62151e-05 0.000928288 -0.0019044 -0.00116897 0.00056279 -0.000196564 0.00147892 -0.000847248 0.00140115 -0.0002532 -0.0013162 -0.00194358 -0.00175682 -0.000601755 0.00085533 -0.000497799 0.000433993 -0.00079438 -0.0024265 -0.000841701 0.000333034 -0.00131287 -0.000680407 8.9042e-05 -0.0017299 -0.00160833 -0.00274561 -0.00110514 -0.000952231 6.74993e-05 -0.000457962 -0.00204365 -0.00103201 -0.00079883 -0.00067314 -0.000221995 -0.000909998 -0.00142694 0.000456 0.000119608 -1.39011e-05 -0.000765349 -0.000289036 -0.00147241 0.000757852 -0.000716958 -0.000633456 -0.00168427 -0.00037066 0.0010213 0.00061146 3.48819e-05 0.000126169 0.000230419 -0.00101569 -0.000843418 0.000409358 -0.000352589 -0.000584522 -0.000935262 -0.000889214 -0.000813308 0.000882787 0.00146089 -0.0015511 0.00165306 -0.000238849 -4.39664e-05 0.000930593 0.000712332 -0.000878732 -0.000581459 0.00201251 -0.00196161 0.0011501 0.00103312 -0.00122418 -0.000549404 -0.00195907 0.000449586 -0.000208108 -0.00151982 -0.00169768 0.000572444 -0.00196236 0.00303533 -0.00139098 8.50278e-05 -0.00128969 -0.00131476 -0.00110416 7.64035e-06 -0.000364947 -0.00143566 -0.00152355 -0.000876966 -0.00191088 0.00108516 -0.000636521 -9.44009e-05 -0.00112786 -0.000571558 -5.4142e-05 -0.00125987 -0.00193139 0.000305392 0.000315836 0.00143552 -0.000568403 -0.000290135 -0.00126503 1.28166e-05 -0.000190802 0.000780517 -0.000404222 0.000285549 0.00125555 -0.00227053 -0.000591866 0.000619305 3.14203e-05 0.000782353 -0.000976802 0.000584237 -0.000208202 -0.000602602 -0.000337442 -0.000300097 -0.00127885 -0.000932589 6.97525e-05 -0.000582021 -0.00102511 -0.00274954 -0.00240752 -0.000331833 0.000319606 0.0012669 -0.000848802 -0.00120001 -0.000374008 0.000159976 -0.0014584 0.000246306 -0.00226216 0.000713598 0.00134014 -0.00118624 0.000837773 0.00092143 -0.00120809 -0.00298784 -0.00172082 0.0024614 -0.00037221 0.000386328 -0.00130044 -0.000996619 0.00154442 -0.000806315 8.16137e-05 -0.00111658 -0.00192779 -3.69603e-06 0.000448746 -0.000925083 -0.00146296 -0.0012506 -0.00191373 2.96616e-05 -0.00183867 0.000177777 -0.000461125 -0.00149585 -0.00103422 0.000693999 -0.00117856 -0.000547193 -0.00142936 -0.000434821 7.74885e-05 -0.0013341 -0.00111026 -0.0022304 -0.00162985 0.000894731 0.000713246 0.000908667 0.00128128 -0.000752624 6.97753e-05 0.00107602 -0.000529056 0.000568765 0.000162311 -0.000867484 -0.000883953 -0.00268174 -0.000222836 -0.00153442 -0.000126889 0.00116308 -0.000194061 -0.00114751 -0.000549755 -0.000643828 -0.00133541 -0.00122851 -0.00127766 -0.00106665 -0.000429219 0.000154361 0.000222497 -0.000981743 0.000281231 -0.00180215 -0.000471361 -6.76099e-05 0.000937182 -0.00117691 6.6994e-05 0.00126709 -0.000274751 0.00158781 0.000446243 -0.000339224 0.00194246 -0.0017849 0.00159057 0.000713924 -0.000222548 -0.00055866 0.000974533 0.00101987 -0.000111889 -0.000394643 -0.000885081 0.000356567 -6.62534e-05 -3.91702e-05 -0.000505685 -0.000378112 -0.000682702 -0.000403862 0.000560273 -0.00130349 0.00130536 0.00126936 0.000122943 -0.000467523 0.00122356 -0.0018091 0.000707798 0.000297689 -0.0017539 0.00198786 -0.000696346 5.61677e-05 -0.000109402 0.000140629 0.00128968 8.17036e-06 0.00170063 0.00186541 -0.00229214 0.000647923 0.000536285 -0.000644815 -0.00104227 0.00142531 -0.00125236 -0.00163099 0.00201453 -0.00101708 4.74007e-05 -6.70525e-05 0.000806636 -0.000356164 -0.00216543 -0.00274652 -0.000339593 -0.000309907 -0.000944114 0.000229678 -2.73916e-05 0.00367307 -0.00110595 -0.000447983 0.00162529 0.000727794 -0.000602912 0.000513517 2.32798e-05 -0.00166169 -0.00214663 7.69026e-05 0.0009936 -0.000549041 1.21044e-06 -0.000973688 0.00062785 -0.00136289 0.000324695 -0.000403506 -0.00127792 -0.000754472 0.000766831 -0.000560888 0.00101966 -0.00266305 -0.00201952 -0.000286629 -0.0003275 -0.000388679 -0.000631167 -0.000640989 -0.00162624 -0.00107557 -0.000239546 -1.36306e-05 -0.00088114 -0.00202762 0.00107743 1.54717e-05 -0.00137189 0.000305021 -0.000996334 -0.00187556 -0.00106461 -0.000798777 0.000449472 -0.00283621 -0.00242167 -0.00137031 0.000817696 -0.000768954 -0.00139009 2.50012e-05 0.000123643 0.00110182 -0.000669157 0.000378437 3.537e-05 -0.000381626 -0.000111203 0.00040218 0.00108353 0.00169276 -0.000742279 -0.000246866 -0.00050024 -0.000753933 -0.000474472 -0.00219193 0.00043602 -0.00023407 0.00177041 -0.00280128 -0.000432194 0.00140517 -0.00115534 0.00140075 0.000974771 -0.00183292 0.000654843 -0.00240613 -0.00322278 0.000437793 -0.000148424 -0.000419059 -0.000264156 -0.000457642 -0.000510912 0.00124187 -0.00138259 0.000131186 0.000821781 0.000203931 -0.000237986 5.86758e-05 -0.00108063 -0.00209841 0.00159877 -0.000470474 -0.00231184 0.00102561 0.000328631 0.000423602 -0.000125676 0.000474114 0.000707769 -0.000139778 -0.0033327 0.000528646 -0.00140866 -0.00237863 0.000656718 -0.00136453 0.000545621 1.88529e-05 0.000540883 -0.00161836 0.000737445 0.00209541 -0.000263825 0.000126313 0.000335802 0.000348271 -0.000950223 -0.000462326 -0.00125949 -0.00231802 -0.000577327 -0.00147223 0.000117627 -2.45703e-05 0.000795803 -0.00179875 -0.00100848 0.000814613 -0.000525611 9.0989e-06 0.00105061 -0.000589582 0.000953364 0.000386461 -0.000622012 -0.000105487 0.000511494 -0.000297668 0.000463549 -0.0017425 0.00185388 -0.000286909 -0.0011143 0.000692812 -0.000212116 0.000778125 3.09002e-05 0.00102891 -0.00066614 0.000284259 0.00142375 -0.000238375 0.000301085 -9.59028e-05 0.000242002 0.000304012 -0.00143831 -0.00116688 0.00115782 -0.00148306 -0.00198058 -0.000329993 0.000537726 -0.000590325 0.000245602 -0.000527273 0.000255693 -0.000131126 -0.000620599 -0.00366254 0.00176188 -8.01183e-05 0.00103185 -0.0007556 0.000688183 -1.05728e-05 -0.000253951 -0.000405309 -0.000845948 0.000306275 0.00227534 -0.00104106 -0.000170262 0.000418803 -0.000862824 0.000837879 -0.000141489 -0.00104853 0.00167613 0.00387153 0.00161219 0.000678097 -0.0013132 0.00117714 -0.00169379 0.000237217 -0.00114887 0.000107213 -0.00134514 -0.000889276 -0.000978126 0.000432211 -0.00207738 -0.000244498 0.00011239 -0.00109411 -0.00148637 0.00059839 0.000721063 -0.00112839 2.62076e-05 0.000204135 -0.00195671 0.000243204 0.000406604 0.00140951 0.000590283 -0.00178681 -0.00123607 0.0022556 -0.000987953 -9.02747e-05 -0.00145705 -0.00109204 -0.000869556 -0.00162533 0.00126383 0.000811358 0.000257699 -0.000238043 0.00144339 -0.00157616 -0.000887689 -0.00199314 -0.00250938 -0.000876121 -0.000793958 1.01947e-05 -0.000612547 0.000339585 0.00169672 -0.000426734 0.000620475 -0.000764664 0.00068837 -0.00158313 -0.00152564 0.000228404 -0.00103089 -0.00163327 0.000440745 0.000829719 -0.000571247 -0.00122318 -0.000154193 0.000747572 -0.00201051 -0.000864016 -0.00137295 0.00110056 6.09088e-06 0.00106225 -0.000534981 -6.37189e-05 -0.00260325 0.00111098 -0.00102301 -0.000729995 -0.00208073 -0.000202307 -0.00110726 -0.0016869 -0.00101634 -0.000868336 0.000958791 0.000235715 0.000139719 0.000854701 -0.000355873 -0.00104843 -0.000716917 0.000819588 -0.000671206 0.00221546 0.000600237 4.3024e-05 -0.00182243 -0.000463469 -0.0011607 0.000531092 0.00117332 0.00135877 -0.000268716 -0.000481036 0.00156649 -0.000854803 -0.000885872 -0.00209835 -0.000592326 0.000168319 -0.00187069 -0.0003016 0.000308992 -6.04962e-05 0.000815754 -0.00102798 0.000358898 -0.000466512 0.000769384 -0.000700561 -0.000266098 -4.64485e-05 -0.000778845 -0.000392614 0.00099485 -0.00165323 0.00111189 0.00200109 0.00026901 -0.00116756 -0.000417053 0.00069586 0.000641339 0.000315724 -0.00085854 0.000948604 0.00022507 -0.000550191 -0.000640595 1.78604e-06 -0.000548006 -0.00139458 0.000413461 -0.000694739 0.000183385 -0.00300343 -0.000536312 -0.000850437 -0.000672861 -0.000191528 -0.00109714 0.000160621 -0.000666926 0.00106157 -0.00106776 -0.000775026 0.00157155 -0.000824684 -0.000853028 0.000637369 -0.00314317 0.00084685 -0.00107963 -0.000341288 6.74164e-05 0.000465454 0.00058786 -0.00172748 -0.0015443 -0.00218742 -0.00050997 0.000151119 0.000783621 -0.00089682 0.000957831 -0.000908829 5.02258e-05 -0.001521 0.000451273 -0.00269296 0.000170988 -0.00156324 -0.000390737 -0.00124872 -0.00120125 -0.000602485 -0.00198865 -0.00119695 -0.000761921 -0.00173697 -0.00158597 -0.000145907 -0.00219597 -0.000664267 0.000109523 0.000243609 0.00187219 -0.00118623 8.36347e-05 6.40975e-05 -0.000540272 -0.000439729 -6.09145e-05 0.000218836 7.73837e-05 -0.000458179 -0.00206933 -0.0018259 -0.0021931 -0.00141644 -0.00052627 0.000782953 -0.00120895 -0.0029977 -0.00143664 -0.00238082 -0.000923218 -0.00164337 -0.00180312 -0.000807968 -0.00147296 6.94584e-05 0.000131979 -0.00216906 -0.00107529 -0.00177465 -0.000419843 0.000979913 0.000596102 -0.00180645 -0.00114278 -0.000624573 0.000400606 -0.00134472 0.000109947 -0.000786721 -0.000809998 -0.00117165 -0.00199469 -0.00236653 -0.000753742 -0.000703355 0.00153416 -0.00175751 -0.00110065 -0.00181878 -0.00120724 -0.00177984 -0.000207874 0.000782944 0.00278942 -0.0016959 0.000496913 -0.000936864 0.00127385 -0.00131056 -0.00114327 -0.00032539 -0.000581513 -0.00128567 -0.0021811 0.000618936 8.24033e-06 -0.00013142 0.000398975 -0.000294781 -0.000962492 0.00196738 -0.00101811 -0.00120777 -0.00149533 0.00145101 -0.00245156 -0.0026983 -0.000445887 0.000901535 -9.95144e-05 0.000666385 -0.00048889 -0.00135348 0.000702747 0.00237274 0.00182725 0.000227165 -0.000409682 0.000530262 0.0013419 -0.000403111 0.00169733 0.000507291 -0.000380182 -0.000173128 0.000520053 -0.000832546 -0.000381973 0.00132892 -0.00199797 0.00128452 -0.00109483 -0.00085911 -0.000667391 -0.00168168 0.0027012 0.00083208 -0.000754996 -0.00115849 -0.00127389 -0.000277231 -0.00215605 -0.00216697 -0.00165631 -0.00105191 -0.00238133 -0.000496291 -0.000178711 0.000858594 -0.00155481 -0.000579811 -0.00089453 -0.0025314 -0.00127324 -0.000376075 -0.000293855 0.000278295 -0.000821685 -0.000810465 -0.00177457 -0.00196894 -0.00174626 -0.0022567 -0.00258631 -0.00110994 -0.00143414 -0.00129642 -0.00240525 -0.00107525 -0.00291341 -0.000999863 0.00162445 -0.00123254 -0.00042846 0.00118091 -0.00260009 -0.0031539 0.000303535 -1.12761e-05 0.00127662 0.000158233 0.000167239 0.000308911 0.00224502 -0.00169364 0.000759035 0.000564425 0.000378579 0.00167148 -0.000223805 -0.000644819 -0.001099 -0.00200803 -0.000144486 0.000588495 0.00137001 0.00246054 -0.000730409 0.00252001 0.000411896 -6.27894e-05 -0.000291962 0.00248102 0.000466352 0.000503357 0.000939533 -0.000795866 -0.00018773 -0.00035769 -0.00150878 0.00158007 -0.000660707 0.000236388 -0.0004335 -0.00109439 -0.000936871 -6.44691e-05 -0.00214683 -0.000453938 -0.000678934 -3.44409e-05 0.000965621 0.00119745 0.000536608 0.00113629 -9.0195e-05 -0.000476283 -0.000452364 0.00147995 0.000394454 0.00174332 0.000699747 -0.000234499 -0.000308522 -0.000302724 0.00151043 0.00127015 -5.01518e-05 -0.000418038 -0.00132724 -0.00146636 -0.00194407 -0.00127107 -0.000707612 -0.000738907 -0.00106869 -0.000880235 -4.80286e-05 -0.000210357 -0.000406709 0.00162186 -0.000345623 -0.0003473 0.00323819 0.000984999 0.00121172 0.000197482 0.000106164 0.000519357 0.000951389 0.00124517 0.00166067 0.000128811 0.00152557 -0.000746778 1.67972e-05 -0.00178265 -0.000206719 -0.000912942 -0.00287433 0.000122165 0.00248906 -0.000271033 2.38627e-05 -0.00150951 0.00118525 0.000377707 -0.00165104 0.000969746 -0.000583643 -0.000231968 -0.000288508 0.001089 -0.000377984 -0.00192955 -0.000145057 -0.00097094 -0.000182294 -0.00220317 -0.000745647 -0.00034859 -0.000679382 0.00103894 -0.00161761 -0.00384135 -0.00123966 0.000324587 -0.000778759 -0.00219816 -0.00132838 -6.89583e-05 -0.00129115 -0.000764138 -0.000140682 -0.000565751 0.00030192 -0.0009144 -0.00237262 -0.00116651 -0.00108774 -0.00170109 -0.00225551 0.000114684 -0.00166233 0.000415694 -0.000809342 0.00038196 -0.000652314 -0.000757717 0.000696771 0.000239746 -0.000678688 -0.00108278 -0.000130052 -0.00254342 -0.000761819 -0.000513169 0.000562382 -0.000694088 5.82028e-05 -0.00116905 -0.000624166 -6.29783e-05 0.000995803 -0.0013535 -0.00151964 -0.00249316 -0.00177915 0.00104354 -0.00109482 -0.00128967 -0.00256323 -0.000992177 -0.00374804 -0.00221145 -0.00147604 -0.00237924 0.000140192 -0.000617143 -0.000166643 -0.00106252 -0.00198375 -0.000336359 -0.00202686 -0.0019311 -0.00360164 -0.00131397 -0.0033325 -0.000917912 -0.00146608 -0.00188979 -0.00141035 -0.000492539 -0.00153146 -0.000522889 -0.00122603 -0.000496783 0.000381929 0.00059168 0.00098631 0.000395047 -0.000986847 0.000246796 -0.000200112 -0.000197888 0.000703471 -0.000999302 0.00141928 -0.00122536 -0.00285666 0.000386429 -0.0013801 -0.00101165 -0.000136845 -0.00226647 -0.000533297 0.0012843 0.00041907 7.00278e-06 -0.000276922 0.000636129 -0.000414216 -0.000388368 0.000450585 0.00143314 -0.000258177 -0.000560484 -8.46489e-05 -0.00209448 1.10785e-05 -5.41665e-05 -0.000722352 -0.00156218 0.000445846 -0.00167287 -0.00123647 -0.000324751 -0.000277029 0.000633202 -0.000792957 -0.00144828 -0.000178339 -0.0026235 -0.00024164 -0.000106533 -0.000342771 -0.000880987 -0.0012996 -0.000757014 -0.000108022 -0.000919264 -0.00123351 -0.000300579 -2.75681e-05 -0.000558414 -0.00120413 -0.00149855 -0.000746227 -0.000312237 -0.000135792 0.00134265 0.0030255 -0.000960067 -0.000869689 -0.000177653 -0.00178605 -0.00212894 0.00210737 0.00130968 -0.00016254 -0.00182888 -0.00211112 0.00215413 -0.00231486 -0.00094031 -0.00218453 -0.00192019 2.65411e-05 -0.00338382 -0.0019277 -0.00125401 -0.00225645 -0.000657336 -0.000497742 -0.000984306 0.000769009 8.79239e-05 0.00114312 0.000466072 0.00074565 0.000135521 0.00101872 0.000904487 0.00224056 -0.00307781 -0.00288879 -0.000252804 -4.62818e-05 0.0015652 -0.00116757 0.000131047 -0.00170622 -0.00066594 0.000691958 -0.000381848 0.000762522 0.000919928 -0.000125356 0.00190422 0.000519048 6.12105e-05 0.000538564 -0.00112912 0.000165015 -0.00119836 0.00122297 0.000553159 0.000795956 0.00228404 -0.00103865 -0.000415603 0.000140622 0.00110226 -0.000656963 0.000645734 0.000139118 0.000739743 6.81641e-05 0.000582402 -0.000341847 0.000215147 0.000324181 -0.00041989 -0.000794759 0.00138938 -0.00154231 -0.000438224 -0.00208304 -0.00153168 -0.00408275 0.000155857 0.00128378 -0.00363589 0.000139506 0.000613727 0.000492899 -0.000813523 -0.00168738 0.000767782 0.000794111 0.000758211 0.0014582 0.000913828 -0.00030706 -0.00107556 0.000534359 -0.00109634 0.000446523 -0.000543408 0.000143143 -0.0010364 -0.00044737 -0.00227001 1.7808e-05 -0.00205287 0.000776775 0.000427404 0.001033 -0.00143143 4.79369e-05 -0.000507091 -0.000553214 0.0019652 0.000149305 -0.001548 -0.000804983 -0.00033381 0.00133484 0.00141817 -0.000643338 -0.000557532 -0.00139741 0.000546961 -0.00157474 -0.00157027 0.00137513 -0.000731884 -0.00327358 0.00112923 -1.62259e-05 -0.00174404 -0.00219924 -0.00128038 -0.00100143 -0.000940736 -0.00168434 -0.00290002 0.000416619 7.54303e-05 0.00271769 -0.000959017 -0.00197408 -0.000379474 -0.00041953 0.00294846 -0.00196461 -0.000696656 -0.0012685 0.00175456 -0.000199007 0.000458591 -0.00104339 0.000219499 0.000737479 0.000479534 -0.000414621 0.00123013 -0.000202311 -0.00267154 -0.000205541 -0.0011915 -0.00182758 -0.000560892 0.000447329 -0.00132215 0.000475307 -0.00100062 8.06174e-05 -0.00217704 0.000267062 -0.00324249 -0.00128891 0.000846962 0.00152552 -0.00016447 0.00054681 7.5277e-06 0.00116781 0.000814147 0.00153292 0.00221861 -9.57802e-05 -0.00133394 0.000802491 -0.0014976 -0.00113119 7.06584e-05 -0.000419836 0.0002592 0.000311678 0.0011518 -0.000165372 0.000377438 0.000815644 -0.00206907 -0.000624042 -0.00193256 -0.00104573 0.000174371 -0.000342633 -0.00108303 -0.00145644 -0.00260305 -7.00947e-05 -0.00158003 -0.00198613 8.96329e-05 -0.00251769 -0.000778716 -0.000498166 -0.00221457 -0.00487099 -0.00247787 -0.00325127 -0.00119023 -0.00157462 -0.000256849 -0.000675635 -0.00385182 0.000907837 0.000266233 -0.0023053 -0.00292129 -0.000688722 -0.00115554 2.39176e-05 0.000703104 0.00102429 0.00102913 -0.000306591 0.00103536 0.000172211 -0.000672168 -0.000324446 -0.000316749 -0.000431066 -0.000377353 -0.000749464 0.000411243 -0.000693111 -0.000446877 0.000210758 -0.00157439 0.00213993 -0.00155703 0.00191031 -0.00181294 -0.000641653 0.000772267 0.00047891 0.000471739 0.0004839 0.000491937 0.000660166 -0.000863162 0.0011585 -0.000621744 0.000847031 -0.000660582 0.000486928 -0.000603562 -0.000288207 0.000279646 0.000453933 -0.000918082 0.000340916 -0.000300857 0.00125493 0.00174288 -0.0027841 -0.00102618 -0.000181112 -0.00164278 0.000234474 -0.00399449 -0.00266126 -0.00270055 -0.00254729 -0.0024235 -0.00076928 -0.000687263 -0.00295912 -0.000912242 -0.000174505 -0.00190115 -0.00156489 -0.00155456 -0.00119869 -0.000783921 -0.000294629 0.000345183 9.98243e-05 0.000673781 -0.000806937 -0.00323928 -0.0016239 -0.00137248 -0.00168179 -0.000595851 -0.000319443 0.000336747 -0.000387376 -0.000399583 -5.98089e-05 -0.000603586 0.000167209 0.00205703 -0.000848849 0.000157901 0.000472735 -0.000642516 -0.00114666 -0.000362589 0.00105092 0.000701058 -8.72008e-05 -0.00027456 0.00114214 5.60779e-05 -0.00205928 -0.000873436 -0.00138821 0.000397709 -0.00197742 -0.00160086 -0.000675237 -0.000535943 -0.0019742 -0.00221789 9.68086e-05 5.02263e-05 0.000143366 0.00162012 -0.000575537 -0.000980873 -0.000243455 0.000145575 0.000483032 0.00094202 -0.00100749 0.0015749 -0.00072087 0.0015723 0.000474461 -0.0017059 -0.00142966 0.000345653 0.000242894 -0.000331793 -0.000595093 0.000586336 -0.000334187 -0.00173868 -0.00102475 -0.000482499 0.00182086 0.00097272 -0.000473809 -0.00111996 -0.0246997 -0.0277519 -0.0278022 -0.0283518 -0.0284865 -0.0220889 -0.0246541 -0.0271422 -0.0257135 -0.0251612 -0.0192367 -0.0250049 -0.0232112 -0.0206035 -0.0209549 0.00446589 0.00489923 0.0123641 0.0110024 0.00791566 0.00876686 0.0165587 0.0191403 0.0199612 0.0147015 0.00493532 0.00956612 0.0158096 0.0176372 0.013644 0.0122536 0.0231835 0.0322263 0.0346342 0.0223061 0.0119563 0.0279272 0.0361263 0.0303764 0.01419 0.0234438 0.0368024 0.0428918 0.0305432 0.011742 0.010138 0.0181168 0.0250932 0.0111646 -0.0054973 0.00616883 -0.00246045 -0.009255 -0.0145999 -0.0151912 0.01692 0.00322473 -0.00875307 -0.0153468 -0.0165387 0.019337 0.00869527 -0.000492852 -0.00329813 -0.00575846 0.00650194 0.00565344 0.00941517 0.00943191 0.00453106 0.00758224 0.00863337 0.0215278 0.0235916 0.0126104 -0.0107504 0.00227158 0.028473 0.038307 0.0259362 0.00119138 0.0119253 0.0377453 0.0484126 0.0344649 0.0138613 0.0238948 0.0492246 0.0545863 0.0394787 0.0203492 0.027694 0.04172 0.0435776 0.0295362 0.0248109 0.0319799 0.0346313 0.0293463 0.0136233 -0.0123311 -0.0135402 -0.0125675 -0.0134395 -0.00941827 -0.00937343 -0.00883653 -0.00842109 -0.00583028 -0.00595442 -0.00723014 -0.00820244 -0.00478312 -0.00511176 -0.00334465 -0.00875021 -0.00700678 -0.00323769 -0.00115191 -0.00129575 -0.00419971 -0.00481722 -0.00218026 -0.00403174 -0.00380298 -0.00746137 0.0065923 0.00564096 -0.00523717 -0.0102494 0.0185372 0.0265975 0.0224857 0.0121175 0.00240077 0.0323679 0.0410033 0.0396706 0.0264664 0.0165743 0.0488576 0.0540558 0.0499102 0.04221 0.0321364 0.0452694 0.0472176 0.0444224 0.0363893 0.0280768 -0.0231565 -0.0231512 -0.0099484 -0.00123214 -0.00720817 -0.0292452 -0.029049 -0.0164644 -0.00451215 -0.00972881 -0.0176512 -0.0124665 0.00105475 0.00580148 -0.00188334 -0.00947624 -0.00652055 0.00347391 0.00127146 -0.00426955 0.00349597 0.00606334 0.0113609 0.0139543 0.00674411 -0.0238586 -0.015061 0.000629468 0.00579846 0.00653252 -0.019794 -0.0162495 -0.00540034 0.00197121 0.00939345 -0.0128739 -0.00789802 0.00143515 0.00695666 0.00774658 -0.0365384 -0.0275763 -0.0187712 -0.0124275 -0.0161558 -0.0130329 -0.010617 -0.00385088 -0.00827497 -0.0139805 0.014913 0.00499514 -0.00157227 -0.00239486 0.00413694 0.0155523 0.00744213 0.00605482 -4.2748e-05 0.00448863 0.0102354 0.00614447 0.00945466 0.00322618 0.00753771 0.00183677 0.0027216 0.00839653 0.0021225 0.00259811 0.00415194 0.0038983 0.00575624 0.00111479 0.00136714 0.020888 0.0131296 0.0112576 0.00358117 -0.00379151 0.0105274 0.00879858 0.00346001 -0.00531757 -0.0143378 -0.0085309 -0.011666 -0.0161465 -0.0234074 -0.0269906 -0.00727304 -0.00944246 -0.0148721 -0.0153713 -0.0173133 -0.00721174 -0.0058243 -0.00154582 -0.00420072 -0.00874588 0.012304 0.00643621 0.00737367 0.0135965 0.0185989 0.0247213 0.0175177 0.0198061 0.0165613 0.0165944 0.01525 0.0173348 0.0174352 0.0147518 0.00942353 -0.021685 -0.0177759 -0.0144366 -0.0191619 -0.0203572 -0.00979295 -0.00187695 -0.00355402 -0.00924145 -0.0128019 -0.00928474 0.0156435 0.0289245 0.0204927 0.00145276 0.0153434 0.0493827 0.0714616 0.0588984 0.0281796 0.0472921 0.0870137 0.107901 0.0854889 0.0462669 0.0430162 0.076758 0.0936219 0.0649434 0.0284673 0.0161567 0.0390089 0.0522483 0.0312331 0.00200728 0.00727661 -0.00696577 -0.0171899 -0.0256636 -0.024157 0.0190118 0.000759877 -0.00592116 -0.0152463 -0.0122091 0.0333134 0.017085 0.00913932 0.00139624 0.0100492 0.0295281 0.014324 0.0116197 0.0112937 0.0216592 0.0175282 0.00915685 0.00503788 0.0105722 0.0262257 0.0197906 0.0047175 -0.00967251 -0.027205 -0.0261484 0.0252415 0.00138847 -0.00767423 -0.0266512 -0.0212252 0.0370416 0.016452 0.00652099 -0.00787302 -0.00363976 0.0298048 0.019058 0.0101444 0.00112898 0.00787108 0.0231981 0.0158578 0.00961539 0.00645084 0.0149804 -0.0124656 -0.0109156 -0.00720762 -0.00430433 -0.0014114 -0.0115318 -0.0127055 -0.00664252 -0.0125195 -0.00760897 -0.00952964 -0.0103353 -0.00674417 -0.0089052 -0.00885339 -0.00837478 -0.00715078 -0.00236627 -0.00447022 -0.00898436 -0.0015577 0.00323824 0.00452347 0.00575758 0.00247585 -0.0106597 -0.0146619 -0.0157905 -0.0140951 -0.0184251 0.00143283 0.00285746 0.00369324 0.00276247 -0.000865308 0.000212155 0.00592369 0.00341432 0.00376175 0.00158393 -0.00625964 -0.00395467 -0.00153638 0.00345214 0.00266207 -0.0141549 -0.00970693 -0.00367281 0.00315292 0.00435889 -0.0238076 -0.0248458 -0.0176572 -0.00856895 -0.000499659 -0.0291971 -0.029254 -0.0241499 -0.0190789 -0.0105437 -0.0250455 -0.0249686 -0.0162994 -0.0156086 -0.0113417 -0.0160412 -0.0157866 -0.00554644 -0.00442082 -0.00506676 0.0060423 0.00882354 0.0151634 0.0120742 0.0143736 -0.0050027 -0.0119966 -0.000903156 -0.000636921 -0.00456785 -0.00510487 -0.0183571 -0.00812207 -0.00493465 -0.00328561 -0.00312548 -0.0142579 -0.000280402 -0.00558075 -0.00190527 -0.00339276 -0.0101174 0.00369699 -0.00349066 0.000310164 0.00288238 0.0016201 0.0171177 0.0136928 0.0151087 0.0193357 -0.000246223 0.00314596 0.00733392 -0.00318575 0.0102786 -0.00613288 0.000523337 0.00581335 -0.00381776 0.00546801 0.00126649 0.0150079 0.0114901 -0.00104458 0.00242603 0.0035835 0.016123 0.00974616 -7.23614e-05 0.0138681 0.0214798 0.0355179 0.0344682 0.0237883 -0.0277862 -0.0360744 -0.02775 -0.0179273 -0.0121912 -0.0236845 -0.0300526 -0.0238078 -0.0197784 -0.0136725 -0.0440377 -0.0435755 -0.0361271 -0.0321607 -0.0208532 -0.0358734 -0.0374144 -0.0359309 -0.0331996 -0.0255917 -0.0186948 -0.0181901 -0.017916 -0.0172487 -0.0101808 0.00865024 -0.00230952 -0.0190618 -0.0338906 -0.0410518 0.0265995 0.017938 0.00345682 -0.0137322 -0.0268299 0.0414328 0.0407941 0.0297415 0.0111446 -0.00447345 0.0499346 0.0518622 0.0446601 0.0306357 0.0133195 0.0501008 0.0592056 0.0481842 0.0344801 0.0232115 -0.008752 -0.0150217 -0.0176014 -0.0202765 -0.0200924 -0.00553927 -0.0066155 -0.00806127 -0.00641263 -0.0100084 -0.00549691 -0.00795636 -0.00454274 -0.00247402 -0.0069984 -0.00524222 -0.00240967 0.00147108 0.0049909 -0.00176374 -0.00660497 -0.00219045 0.00545406 0.00440778 0.000282499 -0.00264392 -0.00640997 -0.00584236 -0.00753416 -0.00780524 -0.00030348 0.00326334 0.00686972 0.000179638 -0.00148231 -0.00123225 0.00507691 0.00283207 -0.00185083 -0.00545513 -0.00355409 0.00134101 0.00295952 0.000672405 -0.00558584 -0.00788328 -0.0013554 0.00260165 -0.000183728 -0.00754623 -0.0391575 -0.0429062 -0.0439592 -0.0327733 -0.0273034 -0.0333785 -0.040334 -0.0389147 -0.0346719 -0.0266535 -0.0272867 -0.0315895 -0.0356429 -0.0278764 -0.0182863 -0.00895913 -0.0110279 -0.0188591 -0.0179471 -0.0115292 0.0141985 0.0101931 -0.0012858 -0.00597972 -0.00452357 -0.00560438 0.00196794 0.00330443 -0.00221084 -0.00452356 -0.0020347 0.00312038 0.00639542 -0.00343257 -0.00297745 -0.0117199 -0.0138212 -0.0123377 -0.009262 -0.00643532 -0.021574 -0.0107904 -0.00800322 -0.000955851 -0.00360215 -0.0214059 -0.006437 -0.00309345 0.00319002 -0.00585746 -0.0147979 -0.014938 -0.0237258 -0.0224758 -0.0169414 0.00899448 -0.00193013 -0.0224995 -0.020493 -0.011192 0.0287955 0.0147951 -0.00514691 -0.000603532 0.00136426 0.0263265 0.0194079 -0.00285886 0.00176274 -0.000311692 0.0268051 0.0229461 0.00239337 0.00327489 -0.00616787 -0.0158307 -0.0168322 9.99658e-05 0.00382545 -0.00660019 -0.0198086 -0.0236471 -0.00284554 -0.000934245 -0.00974837 -0.00763777 -0.013675 0.00248211 0.00421462 -0.0105497 -0.00135365 -0.0113863 0.000185495 -0.00496057 -0.0153078 0.00246041 -0.00231995 0.00462884 0.00144119 -0.00428283 0.00412208 -0.00380432 -0.000219382 0.00338253 -0.00300084 0.00953483 0.0041717 0.0153866 0.0204726 0.0107348 0.0170384 0.0176241 0.0296132 0.0333868 0.0218171 0.0203509 0.0207665 0.0324619 0.0299005 0.0187128 0.0182484 0.0137203 0.0181205 0.014671 0.00565875 -0.0282139 -0.02229 -0.0200113 -0.0229758 -0.0244468 -0.0096246 -0.00434273 -0.00231263 -0.00732306 -0.00663166 -0.00502405 -0.00130935 0.00511458 0.00399986 0.0018161 -0.0185543 -0.0155537 -0.0103326 -0.0115103 -0.0124552 -0.0285832 -0.0294848 -0.0245599 -0.0259125 -0.0227956 -0.0266791 -0.0294458 -0.0310557 -0.0339023 -0.0336656 -0.0208538 -0.0236254 -0.0264324 -0.026535 -0.0251629 -0.0165168 -0.0209706 -0.0203491 -0.0204468 -0.0193268 -0.0118564 -0.0135503 -0.00923749 -0.0120718 -0.0143288 -0.00826364 -0.0071232 -0.00655202 -0.0108533 -0.0143182 0.0169712 0.0330464 0.0412145 0.0289181 0.0164731 0.03332 0.0487765 0.0524924 0.0456914 0.0263109 0.0357261 0.0471979 0.0522723 0.0410979 0.0235437 0.022035 0.0266518 0.0291063 0.0189522 0.00235182 0.00337669 0.00497366 0.0082746 -0.00168037 -0.0139045 -0.00283565 0.0221472 0.0393517 0.0391891 0.0207959 0.0109318 0.0288627 0.0457303 0.0367739 0.0190993 0.013813 0.0249064 0.0355713 0.0282912 0.0130098 0.00370636 0.0101051 0.0162971 0.0106908 4.54763e-05 -0.00629844 -0.00343434 -0.000685701 -0.00532575 -0.0150649 0.0150596 0.0175299 0.0179088 -0.00179188 -0.0210828 0.0370146 0.04015 0.0348188 0.00791481 -0.0175962 0.00756335 0.000654822 -0.00966074 -0.0359971 -0.0547332 0.000719148 -0.0105754 -0.0278109 -0.050199 -0.054945 -0.0310649 -0.0599247 -0.0790744 -0.0688977 -0.0514763 0.0287813 0.0194243 0.0323324 0.0258731 0.0223946 0.0135259 0.0162653 0.0301849 0.00607281 -0.00160837 -0.000226608 -0.0041053 -0.00985585 -0.038652 -0.0406506 -0.0176399 -0.02622 -0.031665 -0.0459772 -0.0387039 -0.072712 -0.070719 -0.0637501 -0.0574379 -0.0361109 0.0235125 -0.035988 -0.0685894 -0.0869002 -0.017037 0.0459469 -0.0379517 -0.0671659 -0.0539767 0.0245865 0.00535467 -0.0643379 -0.0427567 0.0112221 0.0927954 -0.0625452 -0.0534141 -0.00505309 0.0510269 0.0927581 0.00122226 0.00810362 0.0313469 0.082251 0.0598759 -0.0153164 -0.0428218 0.000345938 0.0352215 -0.0111172 -0.0287509 -0.0685363 -0.0475564 -0.017683 -0.0227974 -0.016595 -0.0476161 -0.0636449 -0.0578062 -0.0382212 -0.0258186 -0.0379878 -0.0656991 -0.0592636 -0.0521918 -0.0338503 -0.0395944 -0.0515329 -0.0242146 -0.031821 0.0195751 0.0237237 0.0364303 0.0359323 0.0161027 -0.00346589 0.00172426 0.00695589 0.00489211 -0.0106342 -0.013803 -0.0127578 -0.0087175 -0.0194676 -0.0258879 -0.00809044 -0.0118445 -0.0180639 -0.0247153 -0.0315649 -0.00270793 -0.0228442 -0.0284149 -0.0238673 -0.0258751 0.00669541 0.0285802 0.0221332 -0.00522647 -0.0412644 -0.0035043 0.00650771 0.0097294 -0.00625026 -0.0332638 -0.0127843 0.00189178 0.0085471 -0.00427542 -0.0336185 0.000548388 0.0096347 0.011426 -0.000130397 -0.0381063 0.00712078 0.00994338 0.000989001 -0.0169088 -0.0443978 0.0407958 0.00579298 0.0161116 0.131025 0.0895351 0.00377249 -0.060991 -0.0405264 0.0945885 0.0910574 0.0438667 -0.0403327 -0.0433839 0.0476179 0.0708692 0.0993911 -0.0112508 -0.0439772 0.00968327 0.0437241 0.143838 0.0161745 -0.0386138 0.0354235 0.0420012 0.0371879 0.0475526 0.0597156 0.0619076 0.0400467 0.032102 0.0245364 0.0366945 0.0308202 0.0033494 0.0704402 0.0307042 0.0338835 0.010106 -0.0244929 0.0268245 -0.0181105 -0.0198435 -0.0450011 -0.0653641 0.0497774 -0.00469709 -0.0118493 -0.0143757 0.00684645 0.0621778 0.0464643 0.0244755 0.00107936 0.0203429 0.0107374 -0.0234743 -0.0291677 -0.0287605 0.0167306 -0.0479117 -0.0597535 -0.0574553 -0.0286407 0.0177187 -0.0481366 -0.0406553 -0.0375963 -0.00218691 0.0214954 -0.0101781 -0.0227018 0.00356576 0.0281386 0.0208454 0.0266553 -0.0027383 -0.00585313 -0.0479996 -0.0899906 0.0104251 0.0195406 0.0354041 0.00609426 -0.0269941 0.0395438 0.0666207 0.0759324 0.0326427 0.00251856 0.04278 0.0672444 0.0746867 0.080073 0.0410005 0.00732232 0.0391276 0.0764833 0.0871346 0.0609706 0.0702353 0.0622783 0.0647077 0.0349113 0.0086385 0.0334546 0.0276195 0.024442 -0.0120525 -0.0217316 0.0140866 0.00048139 -0.003012 -0.030818 -0.0232285 0.023538 0.00862614 0.0187865 0.0090633 0.0169692 0.0248142 0.0277581 0.0415878 0.0461613 0.0422132 0.0233026 0.0315348 0.0428948 0.0322458 0.0369466 -0.00729953 0.00132265 0.00492516 -0.0157097 -0.0179059 -0.0310372 -0.0338946 -0.0328417 -0.0463541 -0.0316423 -0.0517178 -0.0619844 -0.0643457 -0.064351 -0.0404572 -0.062799 -0.0635243 -0.062554 -0.0598707 -0.0334963 -0.0161339 0.0251993 -0.00891455 0.0110249 0.0270788 -0.0506513 -0.0257901 -0.0535086 -0.0172416 0.01801 -0.0531792 -0.0201822 -0.0189812 0.00728803 0.00906899 -0.0599645 -0.0326719 -0.00193689 0.0213261 -0.00960321 -0.0235041 -0.0436454 -0.0204586 -0.010761 -0.0508386 -0.0349906 -0.0131258 -0.0672948 -0.0509193 -0.0360875 -0.043028 -0.0382297 -0.0721702 -0.04456 -0.018417 -0.0380913 -0.0248592 -0.0329078 -0.00831614 -0.0104099 -0.00760089 -0.0124799 -0.0188022 0.0154045 -0.0272397 0.032174 0.00100052 -0.0229806 0.00172594 -0.0470327 0.0556739 0.0117814 -0.00076642 0.039991 0.100337 0.0601494 -0.00935653 -0.0327148 0.0133026 0.0901949 0.0867692 0.00720627 -0.0310589 -0.00141306 0.0643333 0.0886401 0.0284041 -0.00364495 0.0140767 0.0687049 0.101036 0.0441693 0.0290453 0.0416114 0.0810232 0.0241824 0.0221539 0.0200673 0.0537861 0.0871278 -0.0724823 -0.0813972 -0.0641076 -0.0204584 0.0256375 -0.0545137 -0.0706523 -0.0600645 -0.034983 -0.0098446 0.00542013 -0.0195361 -0.0192238 -0.0157005 -0.0307242 0.0625564 0.0333271 0.0272085 0.00623525 -0.00122411 0.0393205 0.0229191 0.00420158 0.0332129 0.0604056 0.0611169 0.00153987 -0.00789601 0.000244126 0.030849 0.105897 0.0347035 0.00540276 -0.00786678 0.00449572 0.109426 0.0277252 0.000100604 -0.0314171 -0.0209945 0.102374 0.017996 -0.016054 0.00764302 0.0265438 0.0218628 -0.0319112 -0.0118776 -0.00299726 -0.0412783 0.0121444 -0.0433407 -0.0187271 0.00389889 -0.0258999 0.0119854 -0.0144489 0.00630231 0.0199661 -0.0107518 0.0197565 0.0197651 0.0181094 0.0312992 -0.013524 0.0376981 0.0519173 0.0149179 0.0350952 -0.0233821 0.0445321 -0.0204719 -0.0587315 -0.0843463 -0.0324908 0.0260073 -0.0545808 -0.0900642 -0.0478477 0.0208127 -0.0137289 -0.051392 -0.0467525 0.0253434 0.113622 -0.0515359 -0.0495916 -0.0110832 0.101707 0.148806 0.00902049 -0.0161649 0.0548832 0.166185 0.126719 0.0820406 0.117573 0.117979 0.0789488 0.0399189 -0.00422198 0.0124141 0.0104554 -0.00509902 0.0182757 -0.0346514 -0.0309878 -0.0177638 -0.00206241 0.047757 0.00560617 -0.0247067 -0.00937784 0.019099 0.0454436 -0.000286288 -0.0149808 0.0146981 0.0275845 0.036114 -0.0440161 -0.0218115 -0.0196493 -0.0497055 -0.109208 0.021899 0.0500286 0.0625981 0.0379285 -0.0251004 0.0268612 0.0532748 0.0745389 0.0672411 0.0161918 -0.0130102 -0.00314896 0.0185718 0.0337183 0.00468709 -0.0182379 -0.0293936 -0.0129825 0.0150237 -0.00621208 0.0064139 -0.0104713 -0.0191915 -0.0128038 -0.0169216 -0.0218342 -0.027272 -0.0295767 -0.0305106 -0.0404175 -0.0184764 -0.0254222 -0.0311919 -0.0428961 -0.0550512 -0.0087891 -0.026218 -0.0370241 -0.0580075 -0.0696606 -0.00554361 -0.0323973 -0.046575 -0.0563101 -0.0628803 -0.0104746 -0.0348546 -0.0351373 -0.0311612 -0.0201002 0.0249737 0.00629534 -0.00525842 -0.00322723 3.38387e-05 0.0525298 0.0200175 0.0154257 0.023561 0.0292996 0.0283944 0.0124031 0.00938597 0.0348722 0.0410577 0.0249891 0.0205498 0.0263055 0.0404969 0.0500538 -0.0249457 -0.0240938 0.00699047 0.0325091 -0.00288277 -0.0470223 -0.054888 -0.0293047 0.00381748 -0.00443149 -0.02763 -0.0339788 -0.0311002 -0.0192079 -0.0126412 0.0119025 0.0087586 -0.00989513 -0.0112259 -0.0187554 0.0170698 0.0189555 0.00451983 -0.00264095 -0.00773738 -0.0304007 -0.00333836 0.0371128 0.00297303 -0.000277928 0.00903367 0.0104898 0.0291687 -0.00473858 0.0064171 0.0574542 0.042954 0.0472589 0.0139332 0.0242333 -0.00388509 -0.00894732 0.00671298 -0.000489088 0.0108485 -0.0258266 -0.0264065 -0.00172112 0.0141297 0.0232273 0.0037502 -0.04831 -0.0521883 -0.0437479 -0.0501862 0.00203161 -0.0592953 -0.0659428 -0.0493566 -0.0285168 0.00430327 -0.0418651 -0.0657158 -0.0643537 -0.00584737 -0.00260729 -0.0339231 -0.0637533 -0.0705886 -0.0225522 0.02449 0.00790923 -0.0383789 -0.0496548 -0.0154253 -0.00405452 -0.0413958 -0.0567576 -0.0230129 -0.0172627 0.0225697 -0.0500657 -0.0490603 0.00679571 0.0435461 0.0358327 -0.00875457 -0.00609159 0.0388072 0.0668004 0.0546487 0.0175143 0.00433742 0.0556953 0.0618067 0.0885123 0.0611391 0.04782 0.0968529 0.0600591 0.01912 0.000499026 0.00172028 -0.00347292 -0.00608359 -0.0207806 -0.0413241 -0.0429763 -0.0430946 -0.0285297 -0.0518068 -0.0698394 -0.0790213 -0.069801 -0.0421323 -0.0642302 -0.0832378 -0.0925462 -0.074814 -0.0380006 -0.0653929 -0.0876981 -0.0737037 -0.0474793 -0.0233423 0.0454727 0.0461313 0.0567486 0.0429844 0.0503061 0.0405636 0.0239645 0.0170477 0.00131569 0.0172704 0.00781768 -0.0152953 -0.0220996 -0.020194 0.00541731 -0.0410754 -0.0647432 -0.065433 -0.0511145 -0.0245894 -0.0348729 -0.0552088 -0.0501719 -0.0242141 0.00140357 0.0622464 0.0593493 0.0586249 0.0452323 0.0244374 0.0236958 0.0180178 0.0110386 -0.00496357 -0.0215831 -0.00575924 -0.00917261 -0.0149693 -0.0353435 -0.0465985 -0.000532696 -0.0121206 -0.0307251 -0.0489649 -0.0488558 -0.0115065 -0.0379628 -0.0526323 -0.0556009 -0.0409459 0.019755 0.0253751 0.0286539 0.033863 0.0364792 0.0106065 0.00681299 -0.00219583 -0.00731278 -0.00647264 0.0182887 0.0125862 -0.00170625 -0.0188746 -0.0182703 0.0341555 0.0240878 0.00418811 -0.0178151 -0.0198206 0.0421641 0.0223385 0.0137077 -0.00342967 -0.00943866 0.0150931 0.0255158 0.0310377 0.0214649 0.00465957 0.0135522 0.00954065 0.0100374 0.000953456 -0.0112526 0.00488215 0.0055122 0.00774004 -0.00916726 -0.0230161 -0.0108711 -0.000794202 -0.00447293 -0.0200508 -0.0308004 -0.0199473 -0.0168197 -0.0103416 -0.0105363 -0.00778346 -0.041872 -0.0203555 0.0114813 0.0184851 0.0133871 -0.0354765 -0.0188192 0.0130491 0.0223262 0.0216098 -0.0114217 -0.0149219 0.00658224 0.0129756 0.0424433 0.00230247 0.00073206 0.0109832 0.00525407 0.0350934 0.0100019 0.00312711 0.0168143 0.00576602 0.032301 -0.0234781 -0.00529884 0.0172369 0.0116122 0.00263256 -0.0147491 -0.0132917 -0.0166257 -0.0108722 -0.0149901 0.00395111 -0.00509701 -0.0226197 -0.0210114 -0.00873514 -0.035719 -0.0256793 -0.0282137 -0.0147829 0.00717042 -0.064042 -0.0708835 -0.0586598 -0.0317427 -0.0110163 -0.00175441 -0.0347716 -0.031904 -0.0104492 -0.0769567 -0.0190309 -0.113984 -0.114765 -0.0553584 -0.087009 -0.0805239 -0.145622 -0.176804 -0.102173 -0.0894141 -0.0528935 -0.0824407 -0.10566 -0.0736432 -0.0982079 0.0840047 0.0448541 -0.0022222 0.0188347 -0.0259871 -0.036189 -0.00779691 0.0066544 -0.0177158 -0.0489567 -0.0454738 -0.0183573 0.0294817 0.0610354 0.0413883 -0.00270528 2.58688e-05 0.0453772 0.0792445 0.114568 0.0504753 0.0336369 0.022934 0.0328279 0.109779 0.0788525 0.0516456 0.0265263 0.00326473 0.0811498 -0.0250321 -0.0117871 0.00115543 0.00534849 -0.000895209 -0.0123051 -0.00262163 0.00324142 -0.000372517 0.00122858 0.0109458 0.00960287 0.0112021 0.0036094 0.00556071 0.0167013 0.0205691 0.024834 0.0168886 0.0201201 0.0158593 0.0155528 0.0287174 0.022437 0.0319047 -0.00604235 -0.00127768 -0.0184968 -0.0151769 -0.0101047 -0.0116196 0.00308423 0.000392949 0.0146329 0.00417049 -0.0150526 -0.0249893 -0.0246874 0.0111654 0.0218471 -0.00179519 -0.0215702 -0.0372798 -0.0107893 0.00166954 0.0147228 -0.00923696 -0.0351461 -0.0283238 -0.0231947 0.00630342 0.0214861 0.0500504 0.0320908 0.0410778 0.0229047 0.0582303 0.102574 0.0452863 0.0447738 -0.0176634 0.0358068 0.12934 0.0783063 0.01895 -0.0107286 -0.0157977 0.0337382 0.0399787 0.0107242 0.047141 0.0123752 -0.0112428 -0.00657839 0.0051534 0.00440837 0.0240769 0.0152187 0.0507785 0.0532847 0.0188743 0.115901 0.130616 0.120981 0.0611501 -0.074212 0.0291629 0.133538 0.201569 0.140736 -0.0514207 -0.0370384 0.00430226 0.0711941 0.0756992 -0.0169175 -0.0274077 -0.0400533 -0.0146177 0.0183583 -0.0522918 -0.0340246 0.00583262 0.0126262 -0.0418705 -0.0458494 -0.0564624 -0.0423596 -0.0244669 -0.0351964 -0.0128453 -0.0255507 -0.049256 -0.0389475 -0.0267147 0.00544398 -0.0124605 -0.0262727 -0.0155323 -0.00963552 0.0365289 0.0138899 0.00893873 0.0219139 -0.0028432 -0.00424497 -0.0075544 -0.0245287 -0.013103 -0.0521696 -0.0188175 -0.0439206 -0.0682304 -0.0397902 -0.03547 -0.0191134 -0.0689719 -0.110613 -0.085628 -0.0463962 -0.0712484 -0.0793793 -0.0706135 -0.0386928 -0.010234 0.00170203 -0.0395722 -0.0515163 -0.0224359 -0.030625 -0.0332659 0.0031966 0.00574712 0.0127382 -0.00447113 -0.0352276 -0.00354433 0.00219177 0.0188253 0.0130699 -0.0316462 -0.0203039 -0.0155095 0.0381865 0.0913836 -0.0300949 -0.0356616 -0.0269402 0.0218624 0.0784485 -0.0388124 -0.058462 -0.0632878 -0.0220037 0.00769651 -0.0129008 0.00483135 -0.00193338 -0.00748398 0.00305647 0.000391843 0.00172255 -0.0221299 -0.0336561 -0.0289022 0.00593497 0.0142454 -0.00879094 -0.0178865 -0.0296112 0.00864546 0.0178216 0.00410255 0.0133065 -0.00264245 -0.00753503 -0.00688277 -0.0106757 0.0200808 0.0225022 -0.0425337 -0.0653477 -0.053908 -0.0300273 0.050433 0.0591892 0.0596405 0.0166266 0.00473109 0.0529781 0.0770658 0.150637 0.14921 0.0889982 0.0575838 -0.0030541 0.0468344 0.115179 0.087745 0.0345799 -0.00491946 -0.0207476 0.0173595 -0.00211089 -0.0455329 -0.0291133 -0.0526304 -0.0585582 -0.033922 0.00926154 -0.0132834 -0.0164379 -0.0350988 -0.0198007 0.00313675 -0.00298666 0.00641172 -0.0215888 -0.0124902 -0.0168554 0.0205492 0.00483258 -0.0265314 -0.0464785 -0.0630994 0.0552769 0.0305197 -0.0141124 -0.0591652 -0.0923348 0.00685577 0.0506447 0.0806169 0.103072 0.0617142 0.00647858 0.024562 0.0528292 0.0723382 0.0622286 0.00645137 0.0270161 0.0495929 0.057931 0.0372235 0.0132484 0.0274632 0.0369908 0.048166 0.0407541 0.0488139 0.0452646 0.0333135 0.0346615 0.0349203 -0.0308652 -0.0204412 -0.0278843 -0.0388284 -0.0421024 -0.00883872 -0.0144968 -0.0335187 -0.0381076 -0.0276297 0.00193856 -0.0124981 -0.0353884 -0.0416447 -0.0254126 -0.00180898 -0.0174763 -0.0310881 -0.0255541 -0.0189773 0.0127574 0.000187427 -0.00868299 -0.00349746 -0.0128456 0.0306092 0.0578566 0.0888062 0.113636 0.105127 0.0188994 0.0865005 0.0983878 0.111552 0.0892517 -0.0175397 0.0697157 0.134434 0.157632 0.086534 -0.0383645 -0.00648533 0.043054 0.086575 0.0508864 0.00126942 0.00574007 -0.000276878 0.0220792 0.0150346 0.000641761 -0.00820193 -0.0232566 1.41058e-05 -0.0271846 -0.0357998 -0.0368893 -0.0458458 0.00976129 0.025255 -0.0684839 -0.081137 -0.0847025 -0.0449959 -0.000265923 -0.049084 -0.0761658 -0.0902636 -0.0798273 -0.0225997 -0.00801408 -0.0149027 -0.0388828 -0.0518799 -0.0117065 -0.0264444 -0.0143203 0.0168469 0.0194799 -0.0189806 -0.0549557 -0.065852 -0.0609244 -0.0372767 -0.041124 -0.0727096 -0.111754 -0.129252 -0.0809832 -0.0550855 -0.0238685 -0.0860947 -0.122327 -0.0717109 -0.0449529 0.0890967 0.0328414 0.00442755 0.0331157 0.0391925 -0.0272046 0.0328314 0.0413935 0.0184251 -0.024045 -0.0259382 0.024052 0.041429 0.0698223 0.0547331 -0.00118021 -0.00998937 0.00248015 0.0572027 0.0928317 0.026231 -0.0093209 -0.0182021 0.0361306 0.0674199 0.0102439 -0.0320784 -0.0591882 -0.0274689 -0.00384791 0.0384658 0.033043 0.00753211 0.0102684 0.039571 0.0114219 0.0155221 0.000340397 0.0133136 0.0391826 -0.0115995 -0.00327509 -0.00563746 0.0175384 0.0359887 -0.0118315 -0.00176918 0.000758364 0.0180287 0.0252432 0.0106624 0.0170428 0.0117402 0.015962 0.01618 -0.052477 -0.0360899 -0.0165171 -0.0154887 -0.0108129 -0.0254407 -0.0373535 -0.0295693 -0.0280832 -0.0150607 -0.00151763 -0.0209772 -0.0218202 -0.0304795 -0.00767971 0.0118336 0.00692 0.00670255 -0.0150071 -0.00835775 0.0204202 0.0251371 0.0286805 -0.00446793 -0.00740506 0.0100542 -0.00851254 -0.0297701 -0.0337983 -0.0293943 0.0298094 -0.0222424 -0.0599762 -0.0628018 -0.0570481 0.00769802 -0.0368508 -0.0697158 -0.0682824 -0.0615945 0.00254543 -0.0199717 -0.0373791 -0.0257182 -0.0183554 0.0267203 0.0110924 0.00496636 0.0249398 0.0331447 -0.00183066 -0.00232933 -0.0153599 -0.0129539 -0.0265474 0.000576493 0.0151967 0.00658921 0.0249348 0.0279315 0.0324243 0.0466134 0.0493966 0.054843 0.0768201 0.0454987 0.0457343 0.0401798 0.0503869 0.0876631 0.0641206 0.0359599 0.0112708 0.00885014 0.0530687 0.000341833 0.00240426 -0.0129807 -0.00543761 -0.0410198 0.0631426 0.0663069 0.0220469 0.0102229 -0.0352296 0.00827701 0.0513803 0.0574138 0.0725662 0.0424296 -0.0600049 -0.0346633 -0.0168844 0.0363357 0.0427051 -0.0640158 -0.0789098 -0.0946793 -0.0716389 -0.055515 0.0419494 0.0186834 0.00593261 -0.0136693 -0.0579647 -0.0102173 -0.0102581 0.0214835 0.0334416 -0.00290553 -0.0204432 -0.0145057 0.020467 0.0353842 0.0305969 0.00599732 0.0126661 0.0256137 0.0259383 0.0401148 0.0551598 0.0437587 0.024024 0.0210857 0.0510352 0.0483823 0.0241379 0.014997 0.0235276 -0.0199869 -0.0260581 -0.0431022 -0.0311792 0.043188 0.00496501 -0.0470248 -0.0931245 -0.109678 0.00162425 -0.00810565 0.00862273 -0.0538639 -0.118005 -0.0599918 -0.0263245 0.0868346 0.0380392 -0.0276981 -0.0409383 0.00291147 -0.00780365 0.0238969 0.0452216 0.0220649 0.00215678 -0.0106103 0.00683244 0.0232664 0.00362751 0.00775244 -0.00677428 -0.00739371 0.00334001 -0.0148663 0.0069624 -0.0131417 -0.0185797 -0.0041177 -0.0219117 0.010452 -0.0181524 -0.0161859 0.00462855 -0.0176938 0.0149077 -0.0189448 -0.0103405 -0.00607075 -0.0164332 -0.0455654 -0.0526439 -0.0285554 -0.0122316 -0.00446437 -0.0129017 -0.0771094 -0.0352468 -0.00785303 0.0235514 0.0346706 -0.0467668 -0.0215935 -0.0100641 0.0186067 0.0313105 -0.00133206 0.0052094 -0.00241104 0.0114418 0.0122437 -0.0461166 -0.0244136 0.00151882 0.00959056 0.0145771 -0.0276275 -0.018512 -0.00326178 -0.00168876 0.00685919 0.00139275 -0.00547157 -0.00131717 -0.00604099 0.00467126 0.0195481 0.0173546 0.0228421 0.00961081 0.0229011 0.0165343 0.0245498 0.0420907 0.0334978 0.0421723 -0.0316561 -0.012959 0.0090324 0.0221654 0.0183871 -0.0155015 -0.01413 -0.00209064 -0.00319787 0.00493672 0.00521007 0.00997259 0.0120891 0.00799153 0.00636386 -0.00844691 0.00461037 0.0205629 0.0166009 0.0218209 -0.0269155 -0.0153463 0.00704658 0.0115628 0.0237638 0.00918877 0.0338656 0.0357395 0.0190692 -0.0107738 0.00373524 0.0369046 0.0545773 0.0517904 0.0177129 -0.00784406 0.0098491 0.0307492 0.0574799 0.0540788 -0.00681319 -0.00990857 -0.00191344 0.0221293 0.0339959 -0.00392897 -0.00744957 -0.00895952 -0.00356473 0.00845646 0.00859053 0.00624611 0.0110107 -0.00474477 -0.0161298 0.0045951 0.0014039 0.0122305 0.000674641 -0.0107051 -0.0152568 -0.00819787 0.00399062 -0.0102593 -0.0273491 0.0041805 0.0263535 0.0465328 0.0225491 -0.0147286 0.0294029 0.0619702 0.0860738 0.0532765 -0.00553106 -0.0200095 -0.0247081 -0.0205043 -0.0255776 -0.0220032 -0.00579917 0.00387866 0.00873462 -0.00314536 -0.00490731 0.000752074 0.0295654 0.0367446 0.00817923 -0.000195835 0.0267958 0.0481515 0.0503704 0.0249096 0.0159179 0.0167538 0.0248835 0.0205946 -0.00384613 -0.013737 0.0288041 -0.0190808 -0.0580533 -0.0898474 -0.113417 0.0412428 0.0037632 -0.0431062 -0.0693821 -0.0735848 0.0586814 0.0138755 -0.00202519 -0.00856236 -0.0288301 0.0476047 0.0208774 0.0157379 -0.00727012 -0.0493465 0.033351 0.0148601 0.00729812 -0.0160865 -0.0693777 -0.0280569 -0.0366859 -0.0229997 -0.0211917 -0.0176697 -0.0274203 -0.0393329 -0.0117843 0.0028644 0.00589381 -0.0107041 -0.0225899 0.0112057 0.0416068 0.0550667 -0.0237645 -0.0221297 0.000709861 0.0431668 0.072487 -0.0277244 -0.0158457 -0.00720444 0.0513047 0.0873389 -0.00474563 -0.00532586 0.00422541 0.00229668 -0.0115102 -0.0171845 -0.0148523 -0.00245244 -0.00217613 -0.00940034 -0.0238342 -0.017891 -0.0027461 0.00296684 -0.00554016 -0.0227613 -0.0145102 -0.00295282 0.00160662 -0.000539004 -0.017869 -0.0183481 -0.00854172 -0.00547269 -0.00379834 0.0128054 0.0147784 0.0149788 0.00184651 -0.0114954 0.023116 0.0260911 0.0316626 0.0176075 0.00175693 0.0231703 0.00808639 0.0110389 0.000533467 -0.0115105 0.00177661 -0.0167038 -0.0239444 -0.0438376 -0.0511033 -0.00403897 -0.0248808 -0.0392194 -0.0544614 -0.0522264 -0.0850909 -0.098031 -0.0614258 -0.0119748 -0.00933215 -0.0466903 -0.0603974 -0.0129945 0.0397127 0.0146538 -0.0380715 -0.0564055 0.00915135 0.0537428 0.0223135 -0.0474193 -0.0631705 0.00217125 0.0510383 0.0199259 0.0040007 0.00549555 0.0378642 0.0575619 0.0195318 