weights: 
0.169782 -0.00154047 -0.316961 -0.742803 -0.595917 0.0326676 0.375573 0.249117 -0.0807726 -0.241701 -0.0788272 0.536874 1.14506 1.04291 0.424951 -0.167653 -0.0890555 0.115274 0.232725 0.384573 -0.532659 -0.635526 -0.715241 -0.496815 0.0672323 -0.053541 -0.30711 -0.528872 -0.568138 -0.323023 0.107003 -0.248021 -0.614597 -0.433973 -0.214258 0.301064 0.31914 0.132884 0.08607 0.104186 0.216729 0.389671 0.513835 0.422391 0.194 -0.0969997 0.137672 0.231086 0.308838 0.169789 0.0626096 0.118966 0.18309 0.218025 0.10303 -0.341121 -0.123896 0.407713 0.56065 -0.0179746 -0.270221 -0.0121391 0.353418 0.726615 -0.133084 -0.108117 0.0265353 0.264368 0.693926 0.18728 -0.117735 -0.15762 0.119681 0.313001 0.184407 0.409071 0.125486 -0.157771 -0.236075 -0.112029 0.369052 0.0458013 -0.260319 -0.152032 0.0133583 0.298637 -0.14987 -0.273628 -0.146285 0.14597 0.117272 -0.191542 -0.219078 -0.127505 0.251706 -0.0748673 -0.0738669 -0.151675 -0.0919418 0.191107 0.139032 0.00695933 -0.130498 -0.28329 -0.141411 -0.0976265 -0.366456 -0.515912 -0.322282 0.15695 -0.411917 -0.504729 -0.322494 0.0154943 0.46959 -0.425192 -0.0970501 0.13631 0.620982 0.564189 0.0775201 0.406721 0.514742 0.46088 -0.0302437 -0.0155507 0.295596 0.454555 0.51415 0.599185 0.474289 0.726654 0.564665 0.364837 0.111092 0.104613 0.0555388 -0.0141602 -0.23123 -0.317952 -0.32807 -0.539622 -0.627189 -0.607678 -0.40275 -0.199322 -0.489373 -0.320124 -0.160231 0.124299 
bias: 
-0.219031 0.0487525 -0.234953 0.0207282 -0.018821 0.0408226 
weights: 
-0.0686581 -0.147847 -0.124986 -0.0683252 0.110565 -0.0541994 -0.0263882 -0.123919 0.0129126 0.146712 0.051881 -0.018597 -0.114482 -0.00634546 0.128647 -0.0570849 -0.00259863 -0.0231623 -0.0187764 0.0842187 -0.0575683 0.180086 0.224617 0.18661 0.0418577 -0.0108397 -0.138848 -0.105321 0.0244891 0.162537 -0.15061 -0.0381383 -0.104058 -0.114394 -0.0515377 -0.0954009 -0.0687678 -0.157598 -0.173983 -0.1545 -0.0253056 -0.00996387 0.042605 0.0165443 -0.0196974 0.0227635 0.182953 0.24099 0.254744 0.143445 0.0975215 0.0136234 -0.0705539 0.253699 0.229351 -0.0314343 -0.2217 -0.138589 0.242092 0.348805 -0.0997968 -0.257368 -0.265846 -0.172635 0.128087 -0.15327 -0.219025 -0.316945 -0.35635 -0.0404954 -0.0345582 0.0192222 0.0221909 -0.00811751 -0.127468 0.0586677 -0.0323407 0.0182182 0.018514 -0.0226172 -0.036674 0.0797641 0.093241 0.085523 -0.0440718 -0.0411289 0.0301391 0.0649888 -0.011815 -0.0470982 -0.0460253 -0.0365444 0.0135086 -0.0164204 -0.064375 -0.0787929 -0.0851225 -0.0462979 -0.10208 -0.0787045 -0.0310779 -0.13016 -0.102272 0.0696744 -0.0105866 -0.11231 -0.0716555 -0.152641 -0.00628335 -0.0157341 -0.0460864 -0.0811264 -0.226311 -0.174059 -0.0315636 0.0359029 0.0227664 0.0610481 0.054492 -0.00811019 0.19001 0.205687 0.189233 0.183938 0.107208 0.0396439 0.0778115 0.0189903 -0.0972333 -0.23024 -0.00509234 -0.111428 -0.0952509 -0.0507033 -0.0702562 0.0696704 0.0237443 -0.105586 0.0529637 -0.00984901 -0.093553 -0.0596905 -0.0969963 -0.0722255 -0.0239966 0.0435357 0.0316281 0.0424993 -0.0372559 0.0444652 -0.119545 -0.0900683 -0.0922763 0.0129816 -0.0840847 0.0358827 -0.163604 -0.0828525 0.0711443 -0.00313635 0.066252 0.270154 0.0189678 -0.0843258 -0.209027 -0.00528537 0.0799424 0.207368 0.132843 0.0495493 -0.0248069 -0.109808 -0.18343 0.145572 0.02239 -0.091155 -0.105907 -0.120478 -0.00345185 -0.0425925 0.0986244 0.088589 0.0145822 -0.121733 -0.102973 0.098585 0.171172 0.144388 0.0943514 -0.131725 -0.0841125 -0.0762982 0.186453 0.282191 0.180974 0.0429831 -0.0921195 -0.137468 -0.0336048 0.00714944 -0.192519 0.0411333 0.0903147 0.180778 0.142998 -0.172591 -0.105817 -0.135237 -0.232977 -0.0399588 -0.0840592 0.155669 -0.106133 -0.320672 -0.274629 -0.0450255 0.158457 0.136598 -0.016204 -0.129364 0.132251 0.102089 0.130067 0.165805 0.0334134 -0.0564261 -0.0308087 -0.00806248 0.0464761 0.017279 -0.0390845 0.0290625 -0.0308629 -0.00100185 0.0884269 0.0678433 -0.000694061 0.00266353 0.010481 -0.0335352 0.00253842 -0.0480331 0.0874406 -0.0175928 -0.0742001 -0.0328024 -0.058673 0.0774234 0.0873018 0.0299298 -0.103153 -0.112722 -0.102535 0.0723674 0.0657256 0.0123762 0.0612987 -0.0886179 0.0462642 -0.18985 0.0803974 0.0955046 -0.0957028 -0.0600063 -0.0673869 0.0180529 -0.00678934 -0.0997775 -0.110334 -0.0788981 0.122108 0.103125 0.0677167 -0.108044 -0.132547 -0.12103 0.0470414 0.0478876 0.104605 0.173588 -0.0805649 -0.131987 0.11064 0.211233 0.278541 -0.073998 -0.103005 -0.031427 -0.0119598 -0.106284 -0.118775 -0.122897 -0.221449 -0.266169 -0.183968 -0.0810141 -0.246085 -0.183221 -0.112287 -0.109003 -0.0689926 -0.298269 -0.220005 -0.32278 -0.263559 -0.0374461 -0.0613023 -0.203991 -0.129084 0.00670498 -0.0932247 -0.168833 -0.301985 -0.123055 0.086126 -0.00437016 -0.00999191 -0.288119 -0.197671 0.175925 0.00990938 -0.155368 -0.108409 0.161116 0.20051 -0.0588023 -0.0964462 -0.0438721 -0.102702 -0.0799132 -0.0569384 -0.0280363 0.0479711 0.0251938 0.0535625 -0.0674557 -0.0483217 0.067181 -0.121656 0.0200995 -0.0026346 0.107455 -0.0423911 -0.255666 -0.0623569 0.147398 -0.0435038 -0.299395 0.0762566 0.144945 -0.046617 -0.312526 -0.243808 -0.0229694 -0.2598 -0.135721 -0.289129 0.0477414 0.157369 -0.194022 -0.261402 -0.0991011 0.208645 0.0288143 -0.299806 -0.202645 0.0155636 0.419603 -0.0818619 -0.374804 -0.0336538 0.0872007 0.430577 -0.117653 -0.436707 -0.0212032 -0.0132243 0.103032 0.0864662 0.0225721 -0.0236645 -0.0121075 0.0682486 -0.0552591 0.0513379 0.031312 0.0473158 0.0144269 -0.0228386 0.0996579 0.0509846 0.0500318 0.0798249 0.129086 0.149174 0.0823132 0.045303 0.127333 0.170338 0.0355461 -0.140198 -0.13981 -0.0060366 0.174864 0.0155692 -0.204596 -0.0603991 0.218911 0.263796 0.00225953 -0.133478 0.0675051 0.402628 0.0358821 0.0256354 -0.0415666 0.230459 0.120075 -0.326845 0.0964751 0.11708 0.112886 -0.0305158 -0.237932 0.132856 -0.0948216 0.0901958 0.0151254 -0.195545 -0.231773 -0.0308822 -0.112678 -0.132479 -0.0469275 0.10403 -0.0699397 -0.128858 -0.170826 -0.0111996 0.140067 -0.0304481 -0.186024 -0.203843 0.0389234 0.0244945 0.0537272 -0.0815698 -0.0200126 -0.0971149 0.0270196 -0.0166363 0.00873943 -0.0235436 0.00607757 0.0646505 0.0187771 -0.0651962 -0.011384 0.0114814 0.0590265 -0.0547548 -0.0336062 -0.0983435 -0.0229252 0.245879 0.00548829 0.0060143 -0.104646 -0.0116263 -0.046109 -0.00797065 -0.0254211 -0.0151606 -0.072333 -0.0853529 -0.0243582 0.054118 0.0177304 0.0288187 -0.135112 -0.0483896 -0.0669731 -0.0739485 -0.0607281 -0.0745527 -0.0333363 0.0583673 -0.0197859 -0.13726 -0.0368155 -0.0789031 0.0306614 -0.0346182 -0.069116 0.041155 -0.0755563 -0.032758 -0.0360844 -0.0452463 -0.0213403 -0.0903843 -0.179617 0.0631543 0.223093 0.161275 -0.0509711 -0.109104 -0.0269573 0.060813 0.230522 -0.0418888 -0.0875236 -0.149239 -0.073236 0.190188 -0.0740603 -0.0403003 -0.117129 -0.0887184 -0.00920785 -0.0123869 0.00900053 0.00953849 -0.0819509 -0.190097 0.0448718 -0.0121518 0.00902829 0.0426508 0.0764041 -0.00958287 -0.0280052 0.0337852 -0.0380103 0.00566327 -0.0185963 0.0114838 -0.00249934 -0.018004 0.0180018 -0.0391633 0.0399421 -0.00853183 -0.00519203 -0.0931434 -0.00633141 -0.0326443 0.0494144 -0.0377803 0.0119619 0.00513553 0.00884367 -0.037457 0.012892 0.00771551 -0.00448188 -0.00684198 -0.0320994 -0.0818047 -0.124368 -0.00329096 -0.0525965 -0.0527627 -0.121845 -0.0936335 0.0596417 -0.0284217 -0.0273353 -0.0624467 -0.0681566 0.0247619 -0.046406 -0.0509984 -0.136635 -0.026409 0.0295163 0.0137236 -0.051669 0.0136092 -0.0251276 -0.0267777 -0.0453109 0.0162579 -0.0266777 -0.0427699 0.00749509 -0.0566483 -0.109298 0.0214366 -0.0063275 -0.0475926 -0.0349735 -0.078007 0.0390567 0.0819144 0.00429146 -0.00642896 -0.0938131 -0.0659812 -0.0820545 -0.0654047 -0.0735356 -0.137606 -0.0631223 0.00935415 -0.216489 -0.080632 -0.0438338 -0.0290375 -0.0866671 0.0697067 0.407385 0.25921 0.0975555 -0.113597 -0.0134301 0.0799195 0.134265 0.203488 0.126982 -0.196588 -0.139018 -0.223996 -0.328129 -0.389949 -0.0600657 0.0284882 0.0224833 0.0665618 0.0959879 -0.141564 -0.0709476 0.0228954 -0.0544335 -0.046148 0.0171687 0.172028 0.118499 0.0820792 0.178419 -0.0386604 -0.0378704 -0.00089711 -0.0651767 -0.139505 -0.0789642 -0.12325 -0.048064 -0.0346085 -0.357003 0.162102 -0.107607 -0.18738 -0.272056 -0.334759 0.237332 0.0804466 0.00940819 0.086194 -0.0731349 0.0800778 0.159809 0.13256 0.116198 0.0267919 -0.138359 -0.118889 -0.15514 -0.140944 0.13461 -0.158544 -0.332199 -0.0256883 -0.0826855 0.0700533 0.159033 0.157756 0.106266 0.0298816 -0.0352458 0.0617265 0.0731658 -0.0375213 -0.0542665 0.0833187 0.0616548 -0.0941056 -0.19394 0.0231827 -0.00443688 0.000934042 -0.15163 -0.150225 -0.0777676 -0.0786406 0.106202 0.0608455 -0.0608552 -0.132209 -0.0802595 0.136072 0.10688 0.0797502 0.170046 -0.0522611 0.0965269 -0.0724814 0.063653 0.0565758 -0.00957767 -0.140718 -0.149077 -0.253315 -0.00322975 0.0534216 -0.186005 -0.295199 -0.265642 -0.122721 -0.203899 -0.0808975 -0.0401868 0.0987821 0.186319 0.0406145 -0.329102 -0.155957 0.0965674 0.0807673 0.105181 -0.0630362 -0.173949 -0.133462 -0.0459588 -0.139503 -0.088923 -0.100812 -0.102663 -0.0419921 -0.100536 0.0318301 0.207973 0.193776 0.221318 0.128801 -0.198571 -0.127849 -0.1123 0.0199589 0.160782 -0.00168233 -0.0797525 -0.0378696 -0.122886 0.082249 0.357375 0.401625 0.0444087 -0.0752274 -0.0408004 0.138112 0.0207632 -0.260416 -0.203255 0.0618876 0.0496337 -0.0765574 -0.165396 -0.0895187 0.249395 0.047637 -0.128594 -0.181901 0.0311539 0.0446882 0.0886648 0.0731822 -0.0160655 -0.0278786 0.104963 0.0288721 0.107808 0.0581216 -0.126203 -0.0194539 0.0715739 -0.0750837 -0.0891045 -0.258497 0.0781121 0.0327239 -0.0213983 -0.0760576 -0.213433 -0.0102597 -0.0643175 -0.0742506 -0.181491 -0.079204 0.0223347 -0.187326 -0.0996934 0.156187 0.33456 -0.0779848 -0.0563351 -0.157476 0.0174007 0.404542 -0.16497 -0.22295 -0.207902 0.176491 0.277986 -0.0815525 -0.258785 -0.00420509 0.249662 0.1025 -0.0534883 -0.0953598 0.035175 0.236845 -0.13296 -0.151238 0.0367386 -0.0512987 -0.0574751 0.0355443 0.0430196 -0.0134522 -0.117578 -0.0654589 -0.0520595 -0.0131977 -0.0653045 -0.0881755 0.0546455 0.0168038 0.0559366 -0.0477975 -0.0395232 -0.0535556 0.0716195 0.0991808 0.00382569 -0.124814 0.0338032 0.0290485 -0.0129048 -0.0353607 0.118068 0.0879842 0.0148155 0.0180119 -0.189244 -0.103309 0.0409226 -0.0659678 -0.124831 -0.0829075 -6.3206e-05 0.105707 0.0077684 -0.0498288 -0.0189666 0.0409783 0.0232746 -0.16338 -0.0619805 0.0173971 0.082384 -0.0225782 -0.186573 -0.132533 -0.0831168 -0.0764288 -0.046415 -0.283238 -0.283204 0.0314229 -0.0108067 0.0116041 -0.257577 0.034184 0.163962 0.208692 -0.119677 -0.297499 -0.0372716 -0.0869659 -0.134015 -0.141651 0.00662383 0.123634 0.0670547 -0.130373 -0.131058 -0.0439193 0.002544 0.0447616 -0.0189833 -0.0529361 0.0327582 0.00294343 0.0156158 0.0748576 0.0506622 -0.0310076 -0.0982557 -0.0259372 0.0647243 0.0124426 -0.0760854 0.018584 -0.0614328 -0.11847 -0.108843 0.0142535 -0.0234857 -0.100486 -0.0413049 -0.00552032 -0.0509817 -0.132123 -0.0533042 0.0270784 0.049552 0.0795301 0.0261637 -0.0586012 -0.0280889 0.0876397 -0.0675681 -0.129993 -0.101882 -0.157796 -0.0620254 -0.039254 0.156996 -0.0374296 -0.0400295 0.0495005 0.0412913 -0.0603113 -0.0509463 0.0404357 -0.0200903 -0.180143 -0.173127 0.118123 0.0435821 -0.0687592 0.0546048 0.0939912 0.030565 0.213511 0.0626786 -0.132401 -0.254962 -0.0415329 0.00795982 -0.0846464 -0.0905931 -0.0462099 -0.204166 -0.216922 0.0228954 0.0168888 0.135896 -0.21844 -0.00479554 0.160675 0.172649 -0.0942122 -0.0148773 -0.0375105 -0.0418377 -0.0224884 -0.0760233 0.0387704 -0.0531297 -0.048977 0.0481105 -0.00513874 -0.0372632 -0.0317684 -0.158345 0.00405877 -0.00412675 -0.0413832 0.00994171 -0.0312151 -0.0319629 -0.109728 0.0604799 0.0460144 -0.0342856 -0.0172305 -0.0489156 -0.119894 -0.0215816 -0.0379437 0.174579 -0.0788196 -0.185563 -0.0953357 -0.100877 -0.139198 -0.20678 -0.11537 -0.236753 -0.125966 0.146877 0.313399 -0.177863 0.0639142 0.328399 0.336688 -0.017667 -0.0537594 0.192101 0.141391 -0.0625799 -0.127711 0.0107959 -0.0174212 0.00973757 0.0829455 0.126077 0.0354951 -0.0805083 -0.0574391 0.0352788 0.0279424 0.0824143 0.074258 0.233034 0.0391974 -0.117166 -0.12769 -0.028226 -0.149456 -0.190984 -0.0409621 -0.0643946 -0.185261 -0.0067531 0.158089 -0.0166562 0.113156 -0.153857 -0.208128 -0.0692542 -0.0831717 -0.0178731 0.0187225 -0.125055 0.0844888 0.0544695 0.11204 0.114831 -0.162102 -0.188361 0.089541 0.0953237 0.0923476 -0.164432 -0.232659 0.10395 0.0641035 -0.110356 -0.254221 -0.357398 0.205146 0.159656 0.0116124 -0.0795694 -0.115969 -0.0558313 -0.0546052 0.00315886 -0.121156 -0.0251407 0.13587 0.00882187 0.0258035 -0.15938 -0.196784 -0.0547343 0.108021 -0.104615 -0.226797 -0.343194 -0.0965665 0.118166 0.0446518 0.084439 -0.204816 0.056642 -0.137173 -0.0720742 0.127713 0.278667 -0.183294 0.059259 -0.0275252 0.0986103 0.430483 0.137112 0.268722 -0.00153986 -0.146757 0.497068 0.213492 0.0612649 -0.188219 -0.151915 0.368584 0.196272 -0.000451978 -0.0641933 -0.103745 0.151612 -0.0193094 0.0338178 -0.101454 -0.0352297 -0.0831867 0.0157249 -0.0755144 -0.0071426 0.0145473 0.0362216 -0.0378257 0.0710736 0.10549 0.07711 -0.0504414 -0.0213243 -0.00643333 0.0769394 0.0469081 0.0418767 0.071816 0.0268084 0.0898804 0.0310833 -0.00286069 0.0961584 -0.0898157 -0.256589 0.0202924 0.00896897 0.0401526 0.129491 -0.125027 -0.0660661 0.0582519 -0.162119 0.105125 -0.026188 -0.072596 -0.0479069 -0.223363 -0.0156573 -0.123373 -0.141505 -0.124962 -0.17743 0.118123 0.143389 0.103536 -0.0191793 -0.120483 0.0597443 0.102759 0.0936862 -0.0207769 -0.0681518 -0.0602207 0.0301959 0.0322391 -0.242931 -0.118225 -0.0648006 0.0200913 -0.147838 -0.353785 -0.227526 0.154508 0.124511 -0.203751 -0.322491 -0.0332089 0.0633495 0.00860847 -0.32103 -0.279532 -0.0202882 -0.0493945 -0.112276 -0.123648 -0.102735 -0.0222942 -0.0194167 -0.103864 -0.112242 0.0196272 0.0237729 -0.0151109 -0.0383019 -0.0900436 -0.00871303 0.115437 -0.081446 0.171552 -0.0125533 -0.154421 0.0600981 0.0510194 0.183457 0.220105 -0.144308 -0.206901 -0.0617921 -0.0785258 -0.200798 -0.0815165 0.0570989 0.0207529 -0.0966103 -0.232111 -0.0304747 0.153001 -0.107163 -0.114131 -0.0977267 -0.0918026 -0.0232324 -0.256032 0.0200113 0.147911 -0.12521 -0.141182 -0.183057 0.00783052 0.185336 0.149817 0.0415931 -0.0520738 0.161743 0.160094 -0.163282 -0.131602 0.0322159 0.0687128 -0.143383 -0.143941 0.207803 0.116858 0.106823 -0.376 -0.0630902 0.246959 0.21085 0.341714 -0.182927 -0.228536 0.0562344 -0.114973 0.430705 0.186302 -0.0870953 -0.164545 -0.00776153 -0.0238517 -0.0189533 0.111634 0.0895955 -0.00459039 -0.0940326 -0.0357356 0.0806369 0.0718133 0.0240709 -0.00135966 0.0141548 0.0684555 0.0168062 0.0118294 0.0594473 -0.0255838 -0.0427405 0.0121204 -0.0841646 -0.0290815 -0.017738 0.0515238 0.0819048 -0.0376997 0.0734699 -0.0840652 -0.0131729 0.209879 0.168611 0.0286073 -0.234767 0.204479 0.158586 0.112572 -0.11996 -0.216513 0.0614458 0.0484959 0.0678826 -0.0578686 -0.22193 -0.0927442 -0.0913451 -0.0401332 -0.0319632 -0.125622 0.0200737 0.0640933 -0.0144398 -0.0992881 -0.0563577 0.0958878 -0.0811132 -0.0976339 -0.0414873 -0.0417758 -0.0694376 -0.0615371 -0.144105 -0.0926785 -0.059286 -0.227736 -0.0977696 -0.0228717 -0.183385 -0.261921 -0.102916 0.0235568 -0.0580165 -0.0875671 -0.119543 -0.03189 -0.203404 -0.0162453 0.108051 -0.0179399 -0.118294 -0.0162065 0.067583 0.0712934 0.0559019 -0.0774608 -0.279512 0.211297 0.0668001 -0.0990386 -0.0849902 -0.0134333 -0.0340827 -0.13457 -0.231209 -0.0399539 -0.0282241 0.0191734 -0.119835 -0.176988 -0.192311 -0.162922 0.0175511 0.106291 -0.0650125 -0.117318 -0.201384 -0.15778 -0.122971 -0.0761392 -0.0106524 -0.0219948 -0.0476743 0.00388027 -0.128165 -0.245779 0.02582 0.15803 0.0935239 -0.0948898 -0.19878 -0.0320262 0.1055 -0.0605556 -0.208097 -0.0484914 0.089038 -0.0714429 0.185664 0.231155 -0.14443 -0.0509833 -0.198698 -0.0611014 0.539068 -0.00349739 -0.320852 -0.34845 0.0352834 0.551612 0.101337 -0.323399 -0.0871702 0.0815824 0.314019 -0.13387 -0.275526 0.0096428 -0.0355728 -0.0289602 -0.00597709 -0.0902035 -0.10836 -0.136732 -0.15206 0.0110675 -0.00815888 0.00630065 -0.115978 0.0742928 0.0154629 0.0833322 -0.0625621 -0.0538933 -0.0434762 0.14997 0.235831 -0.00592697 0.0214842 0.0911341 0.125203 0.0632123 -0.0238739 0.0999301 0.115066 -0.0262543 -0.0025603 0.10216 0.00977735 -0.0855122 -0.185499 -0.157482 -0.0593421 -0.0354417 0.16489 -0.161064 -0.20997 -0.00209508 0.298214 0.159185 -0.135774 -0.0351629 0.272046 0.31368 0.071853 -0.0642849 -0.0262595 0.0195394 -0.180028 -0.042614 0.0420701 0.205239 -0.0572751 0.00822995 -0.0520326 -0.0764124 0.200654 -0.0622608 -0.0105804 -0.153024 -0.0760797 0.0332387 -0.084954 -0.152782 -0.231668 0.00809321 -0.111252 0.0246604 0.0832645 0.199174 0.0932716 -0.211301 0.0144125 0.0523459 0.0705116 -0.204172 -0.303829 0.0454616 0.0863522 0.0343445 0.0387863 -0.0795798 0.135904 0.205835 0.0816756 0.0124627 -0.0399675 0.100018 -0.0174999 0.0285322 0.232063 0.398132 -0.0386083 -0.0895922 -0.165714 -0.0368384 0.20094 -0.04657 0.0367405 0.0753272 -0.0347346 -0.0306327 0.0348728 0.133357 0.0771491 0.00620784 0.00399288 -0.00142829 0.075173 0.0631346 0.0242356 0.106305 0.0187296 -0.127673 -0.103878 0.0302118 0.246396 0.0180637 0.0968801 -0.0901854 -0.215697 -0.0938733 0.0426535 0.098478 0.208765 0.221827 0.129332 0.00852196 -0.102366 -0.098455 -0.0365469 -0.237606 -0.0240494 0.0172276 -0.0183253 0.0980009 -0.0155771 -0.215299 -0.209605 -0.123626 0.0553568 0.23854 0.0310229 -0.241207 -0.419708 -0.280077 -0.102564 0.140443 -0.0244536 -0.136309 -0.263249 -0.19033 -0.0139878 -0.0579366 -0.0252389 -0.0239451 0.0424895 0.0306004 0.0249404 -0.0149978 0.0599532 -0.0150643 -0.00610078 -0.0149052 -0.0396808 0.0220283 0.0166145 -0.0163815 -0.0424191 -0.00321336 -0.0943175 -0.15213 0.013287 0.0155263 -0.0170962 -0.0366156 -0.0412793 -0.0561207 0.00083341 0.0346065 0.117831 0.131336 -0.182356 -0.0606158 -0.0837983 0.102919 0.263042 -0.120484 -0.183602 -0.200425 -0.0325888 0.141715 -0.061942 -0.119016 -0.19607 -0.389147 -0.224997 0.093387 0.12952 0.0768186 -0.0108154 0.067232 -0.0634412 0.00827444 0.0700685 -0.0124863 0.0299294 0.141178 -0.0178712 0.141702 0.0683129 -0.012902 0.0258259 0.0412982 0.0531506 0.106004 0.118546 -0.119023 -0.167983 -0.130201 0.0541892 0.293244 -0.0391648 -0.051679 -0.204166 -0.207462 -0.248168 -0.127944 -0.10144 -0.110319 -0.0152722 -0.0683189 -0.165763 -0.0309586 0.0822608 0.243194 0.230266 -0.0324702 -0.0707737 0.0875825 0.348686 0.261788 0.0838111 0.0631249 0.0225707 0.0590511 0.000174779 0.0844608 0.0833729 0.128843 0.129217 0.197699 -0.197034 -0.121043 -0.09679 -0.229362 -0.224175 -0.0348967 0.120563 0.178326 0.18307 0.121819 0.105498 0.0757022 0.0176104 0.0811136 0.26236 0.138318 -0.0976889 -0.04978 0.0347369 0.202985 -0.0236255 -0.029537 -0.0103246 -0.0656191 0.0165363 -0.338605 -0.582488 -0.571337 -0.451863 -0.210643 -0.483672 -0.318379 -0.277096 -0.243835 -0.00445007 -0.110947 0.0561159 -0.0763842 0.022638 0.0733454 0.147912 0.0615769 0.03791 0.00630461 0.0137218 0.0912817 -0.126237 -0.0701684 -0.115221 0.0175098 0.0447808 -0.0637059 -0.0467732 -0.0713491 -0.0267562 -0.0515588 0.0332517 -0.0600029 -0.084585 -0.155695 -0.032192 0.0054504 -0.0132396 -0.0702883 -0.0859072 -0.017726 0.0451184 0.0503191 -0.0970786 -0.0636987 -0.0772284 -0.00142153 0.0161041 0.0181088 -0.037674 -0.159721 -0.15715 -0.193076 -0.160195 -0.174176 0.130589 0.209984 0.242347 0.117698 -0.0506285 0.248377 0.23346 0.107127 -0.113799 -0.0895895 0.0176095 -0.0270411 -0.0534099 0.0266954 -0.0853163 -0.257013 -0.158796 -0.12912 -0.00738084 0.0665654 0.159872 0.0967304 0.163162 0.344498 0.0842928 0.0436106 -0.0538179 -0.0613922 -0.0340902 -0.224875 -0.0756356 -0.027194 0.133211 0.188391 0.127474 0.274124 -0.000114691 -0.0324958 0.011152 0.0215675 -0.193747 -0.182757 -0.168935 -0.000400836 0.242257 -0.0457413 0.0221166 -0.0114207 -0.0168669 -0.0290687 0.0619256 0.0774033 -0.0711239 -0.0156708 -0.05562 0.0311777 0.0579299 -0.181041 -0.184862 -0.0454281 -0.0727188 -0.183599 -0.219524 -0.20669 -0.0497163 -0.146613 -0.118228 -0.0571644 -0.0138501 0.072516 -0.0283425 -0.020871 0.0196139 -0.0368447 -0.0309987 0.141782 0.1005 -0.00564254 -0.105568 0.0556378 0.278006 0.140531 -0.00193279 -0.0790501 0.00807459 0.0217972 0.0804532 -0.0586792 0.00200639 0.00372292 -0.182347 -0.050852 -0.0749773 0.0597515 0.0188623 -0.289652 -0.121745 -0.19177 -0.0163305 -0.0189892 -0.0336904 0.0176164 -0.216007 -0.112403 -0.0788951 0.182851 0.179585 -0.152041 -0.0767872 0.0352979 0.187802 0.317541 -0.0594383 -0.0825231 0.0803526 0.280188 0.337811 -0.0822429 -0.0319045 0.105093 0.0452118 -0.0488184 -0.0338387 -0.0415382 -0.0223795 0.000180146 -0.0454703 -0.0442372 -0.00201634 -0.07194 0.065343 0.00463227 -0.128786 0.00445438 -0.0608474 -0.0391502 0.0589175 0.130149 0.0417201 -0.0296122 -0.0304406 0.109705 0.139914 0.0142552 -0.0855244 -0.00309148 -0.00616566 -0.0814653 -0.0646192 -0.0221776 0.1989 -0.0626033 -0.2048 -0.0734689 0.00246225 0.0431411 -0.0471106 -0.263996 -0.0856488 0.0599548 0.0926377 -0.0480972 -0.149625 0.0126895 -0.0180344 0.0860923 0.0772473 -0.164005 -0.0824707 0.0489429 0.0125801 -0.146477 -0.164912 -0.128006 -0.0207661 -0.0448077 -0.0773913 -0.191267 -0.1184 0.00960158 -0.131881 -0.248336 -0.194591 -0.177158 -0.0918997 -0.347857 -0.301053 -0.173143 -0.172966 0.0113266 -0.17821 0.0335054 -0.0522875 -0.0495091 0.0109058 0.0701004 0.0498582 -0.0290485 -0.0292996 -0.200776 0.305847 0.232417 -0.120578 -0.231287 -0.214145 0.367241 -0.0156404 -0.174836 -0.367147 -0.168634 -0.0510559 -0.0282101 -0.213045 -0.233268 -0.0924176 0.0147963 -0.12701 -0.014301 -0.112613 -0.0333628 -0.0871559 0.0274075 0.100643 0.0270204 -0.159907 0.146948 0.110013 -0.0750329 -0.180036 0.00198274 -0.153014 -0.0725975 -0.196083 -0.162065 0.00940583 -0.0459898 0.0744663 0.0194175 -0.154515 -0.0375339 -0.00460997 -0.0596097 -0.111304 -0.075754 0.0551041 0.0210923 0.119044 0.249032 0.156229 0.0137479 0.141297 0.244392 0.278154 -0.0302787 -0.191615 -0.074445 0.0494 -0.159874 -0.295218 0.065385 -0.270956 -0.119982 -0.166287 -0.107491 0.0543104 0.0387224 -0.112869 0.03128 -0.0437401 -0.0543088 0.0459183 0.0383367 0.103551 0.0239567 -0.0568452 -0.0288769 -0.0430249 0.101027 0.046055 0.137402 -0.12648 -0.0483995 -0.0317806 0.0801524 0.049002 -0.127003 -0.0742514 0.0416448 0.0388594 0.0633651 -0.0349655 -0.0417574 0.0842082 -0.00328691 0.0327963 -0.163386 -0.0471687 0.283178 0.165327 -0.250621 -0.150605 0.0227907 0.000237846 -0.144637 0.0949539 -0.312619 -0.283485 0.012424 0.179777 0.145074 -0.0482785 -0.013369 0.145539 0.0692187 -0.0286451 -0.00244895 -0.123973 -0.0193426 -0.102851 -0.0660108 -0.0659123 -0.18421 -0.179507 -0.0510237 0.367282 -0.254265 -0.141758 0.191392 0.249908 0.0532164 0.127897 0.338283 0.236346 0.0737154 -0.249807 -0.173253 -0.0961229 -0.0551961 -0.187865 -0.0820327 -0.398032 -0.0689443 -0.0318599 -0.0688095 0.0728023 0.010211 0.0285822 0.0289909 0.00517245 -0.00935537 0.121127 -0.0189094 0.0560019 -0.0456782 -0.03325 0.385017 0.106396 -0.0599709 -0.105223 -0.117417 0.153888 0.381188 0.0590331 -0.193158 -0.175132 -0.020037 -0.0790508 0.0265053 -0.0563118 -0.0282846 -0.0103093 -0.0279181 -0.000380169 -0.0892149 -0.0444434 0.0182356 -0.0233183 -0.0498054 -0.193117 -0.0340931 0.14458 0.241359 0.0340977 -0.134629 -0.00837153 0.0170709 0.192227 0.259482 0.107051 -0.0347522 0.0528734 -0.153388 0.0267453 0.0617061 -0.014647 -0.144411 -0.0566776 -0.00316529 -0.0634089 -0.0767639 -0.111782 -0.212507 -0.140642 -0.100039 -0.0728011 -0.0468036 -0.118357 -0.200711 -0.126203 -0.0111135 0.137569 0.27464 -0.0629232 -0.0656002 -0.0306107 -0.0156213 0.288783 0.276937 0.0743476 -0.0967802 -0.00558539 0.0900427 0.0628026 0.0295353 0.0660193 -0.0776977 0.00798264 0.0172721 0.017434 0.0779236 -0.100115 -0.0754136 -0.0480006 -0.0498287 0.00507847 -0.0473034 -0.101073 -0.0628401 -0.0438401 -0.0292056 -0.0195399 0.0358916 0.0868828 -0.0292871 -0.0786009 0.217623 0.182465 0.0471809 0.0119634 0.0250484 -0.0305036 -0.0555216 -0.108532 -0.122428 0.060828 -0.0497703 -0.180406 -0.13429 -0.0952221 -0.00459644 0.0445511 -0.0914193 -0.188919 -0.16446 -0.10384 -0.0403982 0.0112835 -0.0357957 -0.124457 -0.105014 -0.0526216 0.156039 0.164152 0.0859356 0.0737285 -0.00996123 0.0963747 0.126781 0.0175427 0.0576279 -0.108925 -0.11554 -0.00216391 -0.01097 0.0578906 0.103435 -0.0364699 -0.16538 -0.215011 -0.0809104 0.136168 -0.0399237 -0.235154 -0.223413 -0.168693 0.103378 0.0794633 -0.0720605 -0.0379999 -0.0816674 0.0398893 0.0130537 -0.146929 -0.211324 -0.247218 -0.039511 -0.096582 -0.0910017 -0.204726 -0.309726 0.00351037 -0.0542724 0.00819519 -0.0660289 -0.288899 -0.0295 -0.00253264 0.00831741 -0.0907901 0.105766 0.0345202 -0.054961 -0.0381421 -0.17072 -0.0632806 -0.0751386 -0.118426 -0.125819 -0.0269551 0.0730593 -0.0213749 -0.0213321 0.0272924 0.0273614 -0.0175038 -0.00042405 0.0575044 0.00343647 0.0468552 -0.163882 0.00155683 0.062193 -0.129043 -0.196456 -0.261576 0.102848 0.150316 0.0542636 -0.0832308 -0.254267 0.00298862 -0.0213467 -0.108653 -0.138637 0.0788116 -0.140784 -0.193319 -0.0315535 0.0516037 0.163705 -0.130522 -0.12483 0.0867385 0.107219 0.295545 -0.106852 -0.134488 0.101626 0.0506191 0.30587 -0.0106628 -0.00499681 0.0829221 -0.0350931 -0.0131023 -0.0208426 -0.00949641 0.0446762 0.0268145 0.0255672 -0.0338072 -0.0275074 0.0580173 -0.00420727 -0.0297611 0.0246752 -0.050784 0.0364149 -0.00252262 0.0212022 -0.0788516 -0.0212089 -0.0741692 -0.0151196 -0.000159634 -0.0909664 -0.0208918 0.0123282 -0.0979593 -0.0649297 -0.107774 -0.142615 -0.0529615 0.0664089 0.250044 -0.175479 -0.0347727 0.0862548 0.136476 0.224863 0.0123196 0.0126166 0.0669631 0.0359696 -0.0613893 0.0354888 0.0311236 -0.013455 -0.106997 -0.156987 0.00372595 0.0391382 0.131992 0.126937 -0.0802654 0.128142 0.0827579 0.087081 -0.00846652 -0.19083 0.0779425 0.0711717 -0.0339571 -0.160687 -0.0456176 0.0795064 0.0158746 -0.0350204 -0.21937 -0.256679 -0.0888988 -0.10925 -0.151308 -0.13806 -0.163656 
bias: 
-0.0180428 -0.0418184 -0.185711 0.0745988 -0.155945 -0.206815 -0.0383392 -0.0584447 -0.0385269 -0.172511 -0.0511173 -0.162032 0.063392 0.104693 0.0214138 0.0432787 
weights: 
-0.0203624 0.100706 0.0816574 -0.0442173 -0.0161135 -0.125828 -0.0548861 0.0110916 0.0318645 -0.185489 -0.437568 -0.227082 0.088006 0.0815209 -0.135865 -0.130504 -0.0687655 0.0725876 0.0853136 0.0218695 0.0552688 0.0329849 -0.0845662 -0.0506971 0.0252556 0.0106958 0.00633533 0.140122 0.168097 0.173178 -0.0430104 -0.113383 -0.203162 0.0113486 -0.0266089 -0.0584337 -0.0107565 -0.0627914 -0.21478 -0.0213605 0.100559 0.0783827 0.0266757 -0.139234 -0.0693515 0.0684947 0.134588 -0.125828 -0.00833092 -0.0347783 -0.0552113 -0.042653 0.00733563 -0.0681411 -0.0678777 0.184144 -0.00711181 0.0824391 -0.104986 -0.0807532 0.156751 0.295669 -0.256135 0.139621 0.0296335 0.165955 0.18472 -0.00197396 0.1356 0.0538749 -0.0455523 -0.085725 -0.0169537 -0.0369948 0.0281753 -0.0740953 -0.017795 0.0118211 -0.0446766 0.0315614 -0.0588263 0.0587514 0.0348975 0.0207371 0.00632253 -0.0122855 0.00160154 -0.0109611 0.0456603 -0.0145101 0.0076649 -0.121607 -0.0175754 0.0249733 0.0388382 0.0890114 0.14883 -0.0902604 -0.0315086 -0.0365203 -0.139812 0.0132117 -0.0185161 0.0570934 -0.171995 -0.320081 -0.0620667 -0.029798 -0.0671304 -0.146665 -0.211229 -0.345115 -0.550998 -0.216754 0.0881106 -0.0733586 -0.00449765 -0.0555248 0.02448 -0.0831139 0.0631613 0.0407966 0.0641339 0.0277268 -0.0215524 -0.0333943 0.0622456 -0.0934466 -0.0495351 -0.0519703 0.0773678 -0.0408907 -0.0884254 -0.139223 0.00213279 0.0898144 0.0845525 -0.130813 0.260587 0.142078 -0.0267192 0.0482571 -0.0774056 0.0368999 -0.0518307 -0.014792 0.154568 -0.40433 -0.107618 -0.0639932 -0.0478907 0.144288 0.147068 0.0897336 -0.0103104 0.0269647 0.0122113 -0.204814 0.00733097 0.146431 -0.00495951 -0.155662 -0.0896329 0.0117771 0.110719 -0.113968 -0.00979356 -0.116801 -0.0641858 -0.00961698 -0.0404659 0.115244 0.0679484 -0.0237917 -0.0304347 -0.140145 -0.1679 -0.216235 -0.10207 -0.0676223 0.0088587 -0.0833691 0.225194 0.321398 -0.0481663 -0.0615568 -0.0349475 0.213822 0.11336 0.117822 0.0959192 0.0675588 0.0667992 -0.071541 -0.0887973 -0.0139784 0.275302 -0.344323 -0.281305 -0.0483655 -0.0725172 -0.126837 0.0422288 0.0883823 0.185436 -0.105195 -0.0611389 -0.0615469 0.0350406 0.0422019 -0.212025 0.168192 0.0731769 -0.178891 -0.00664819 -0.00104358 0.281667 0.413443 -0.0109151 -0.0173888 0.00531892 0.0866045 -0.0442603 -0.118332 -0.0913832 -0.111904 -0.131444 0.00743198 -0.278612 -0.184419 0.143825 0.105666 0.0327185 -0.0810762 0.196017 0.286981 0.229285 -0.051718 0.29043 0.319147 0.079873 0.0697456 0.154603 0.0549145 0.249459 0.0629334 -0.115082 -0.327214 -0.194191 -0.185778 -0.189918 -0.147366 0.0525093 0.0274962 -0.0586691 -0.157601 -0.0383309 0.13268 0.0829563 -0.136545 -0.251106 -0.00443876 0.162327 -0.0125671 0.0350191 -0.0197878 0.151068 -0.0776465 -0.0103222 0.114507 0.0728455 0.145098 0.0315738 -0.0196474 0.108817 -0.10575 -0.0431897 -0.182522 0.0718089 0.0858105 0.0840951 0.089568 -0.0308644 -0.0108193 -0.153079 -0.0398618 0.0948736 -0.325065 -0.263659 -0.166511 -0.303326 -0.129909 0.0490726 0.112192 -0.256398 -0.282723 -0.073644 -0.0990155 0.00676934 -0.104238 0.00211031 -0.104067 -0.0488311 0.0806962 0.0624326 -0.0251178 0.00789201 -0.0604534 0.190827 0.0353136 -0.0231356 -0.0573264 0.00275388 0.0888963 -0.138516 0.0263387 0.0885043 0.0580178 0.076765 -0.0353996 -0.0372809 0.0521851 -0.0323935 -0.0571463 -0.0171713 -0.0449655 0.0342542 -0.012483 -0.049015 -0.177822 -0.129954 0.142454 0.0102082 -0.042694 -0.15549 -0.0183187 -0.10337 -0.0466685 -0.219873 -0.282134 -0.148191 -0.162465 -0.0479794 0.0942844 0.205947 -0.248301 0.120696 0.208256 0.165573 0.12522 -0.0013147 -0.0805814 0.245985 0.260285 0.150647 0.0319981 -0.0396072 0.116681 0.0451005 -0.0141925 -0.0430839 -0.0378524 -0.0593651 -0.141771 -0.15657 -0.0159559 0.0202215 -0.0183985 -0.128381 -0.124034 -0.0605241 0.0667025 0.111697 -0.0773094 -0.0549623 -0.023292 0.0360312 0.154042 -0.0802747 -0.0319826 -0.00336883 0.00535528 -0.0906292 -0.176637 -0.0748956 0.0557869 -0.0228465 -0.0540261 -0.0335222 -0.0870255 0.0450552 -0.074417 -0.0165547 0.0657977 0.0312144 -0.0321516 -0.0935924 0.106607 0.0135836 0.0501101 0.0510219 0.116085 0.018098 0.0128732 0.0213591 0.130823 -0.0144021 0.0813368 -0.0713724 -0.00339071 -0.0400086 -0.016963 -0.00846144 0.0370747 0.0925899 -0.149088 0.0777946 0.0983049 -0.0404593 -0.0176347 -0.132654 0.0420172 0.134318 -0.0243319 -0.0473396 0.0466403 -0.12379 0.17512 0.0416196 0.0494547 -0.106512 0.0125487 -0.122578 -0.156984 -0.0357237 0.0460023 -0.157714 -0.290531 0.0405416 -0.0152964 -0.0332955 -0.0450183 -0.0381231 0.0665201 0.0574908 -0.0269403 0.016558 0.0223648 -0.00543249 0.0366415 -0.213244 -0.129467 0.138473 0.278168 0.0707556 -0.0474394 -0.355904 -0.0164437 0.362007 -0.00268063 -0.116228 0.0753975 0.20241 -0.124378 0.0504257 -0.0176623 0.23285 0.142683 -0.049746 -0.074714 0.041477 0.153421 0.0973188 -0.0494746 0.0344537 0.00509987 -0.0591834 0.0367738 0.0856994 -0.065728 -0.00537781 0.0645303 -0.00713232 0.0827454 -0.025078 -0.176169 0.109788 0.0664181 -0.0185013 -0.00297928 -0.121965 0.132615 -0.0161306 -0.0341983 0.0363281 -0.0568634 0.0607979 0.163187 -0.0578069 0.0393597 -0.0671107 0.100131 -0.0686632 -0.289458 -0.197475 -0.044084 -0.00588323 -0.105694 -0.106771 -0.0913154 -0.104012 -0.306264 -0.247814 -0.171182 -0.267417 0.0912224 -0.126627 -0.0758374 0.0977984 0.208126 0.0253172 -0.0608079 -0.063829 0.2711 0.203132 -0.0526229 0.00936213 -0.049874 0.206854 -0.0291256 -0.0168151 -0.022783 0.0415357 0.182052 0.0279234 -0.0851352 -0.00171446 0.16876 -0.0253217 0.00194816 0.0142432 0.155113 0.053559 -0.0496537 -0.00593341 -0.0203585 0.237517 0.209455 -0.0235032 0.0143851 -0.131282 -0.0646055 0.197661 0.22246 0.0207875 -0.0678316 0.175897 0.148138 -0.0446798 -0.11251 -0.0234775 -0.0901859 -0.0749774 -0.133114 -0.0135966 0.0365889 -0.116631 0.0520628 -0.00828425 0.00312255 -0.050891 -0.0621583 -0.0944326 0.0714579 0.0260746 0.164113 0.154983 0.10809 0.139202 -0.0655627 -0.0847807 0.00969541 0.146107 0.0265688 -0.114371 -0.0867174 0.023513 0.307697 0.0827061 -0.0694459 -0.00891056 0.175133 0.120854 -0.126302 -0.127993 -0.0104107 0.0292932 0.192004 -0.0876255 0.101379 0.0144477 -0.0402397 0.238898 0.141884 -0.0813756 -0.0512516 -0.173741 0.141988 -0.145619 -0.0584994 -0.0525284 -0.0718012 0.0903133 0.026332 0.079893 -0.0817341 -0.0120936 0.114569 0.245717 -0.0315381 -0.0669565 0.0321945 0.0708648 -0.0320854 -0.0394771 -0.0601474 0.00741962 0.351274 0.034439 0.047628 -0.0388316 -0.0462193 0.354442 0.162181 -0.0951494 -0.0504586 0.0470082 0.132527 0.113685 -0.109386 -0.0283381 0.353537 -0.240786 -0.322655 -0.085285 0.111109 0.320208 0.00996981 -0.180492 -0.0746892 -0.0544598 0.0701297 0.0351829 0.0208678 -0.0670649 -0.0476962 -0.121483 -0.001182 0.105928 -0.0954157 -0.0992054 0.00652591 0.059661 -0.00349592 -0.108225 -0.178423 -0.0524406 0.0810779 -0.0168865 -0.0516556 0.072238 -0.0315809 0.108615 0.101388 0.0746436 0.040513 -0.252098 -0.218955 -0.0522623 -0.226008 -0.00419876 -0.177465 -0.140027 0.0438267 -0.133619 -0.0980759 0.0699516 0.0163421 -0.0197369 -0.152765 0.142287 0.358608 0.325808 0.0809406 0.12563 0.300587 0.326091 0.172438 0.0355146 0.185012 0.0677036 -0.00536508 0.294259 0.146907 0.0502556 0.0482537 -0.0409652 0.248941 0.105825 -0.0593128 0.0356182 -0.0280432 0.0219327 0.109195 -0.0501528 -0.0600035 -0.00310732 0.0440819 0.00592752 -0.0116963 0.0315346 -0.0770842 0.029226 -0.00672715 -0.0490498 0.0111014 0.0204816 0.238618 0.150437 -0.0587012 -0.270134 0.245308 0.184346 0.00504798 -0.111136 0.0112238 0.260604 -0.108514 -0.147459 -0.179144 0.0196345 0.23239 0.149391 -0.00163475 -0.120225 0.247294 -0.0583213 -0.0937707 0.0320827 0.204181 0.113208 0.0703708 0.0229411 -0.00302707 -0.0349847 -0.0359511 -0.0215854 0.207853 -0.031839 -0.0729447 -0.0392332 -0.0338284 -0.0233591 -0.183309 -0.151963 -0.0271784 -0.0253924 0.00182568 -0.10979 0.00795087 -0.0157232 0.0197889 0.0970065 0.012665 0.0440298 -0.107711 0.237193 0.253387 0.144886 -0.0808154 -0.125598 0.0263314 0.240605 0.0711279 0.00887603 -0.11629 0.140138 0.0340644 -0.0277595 -0.00566825 -0.18284 0.222916 0.0229322 -0.0294847 0.0485698 -0.0584179 0.110816 0.0767023 -0.00762011 -0.00161158 -0.00903337 0.146852 0.0431995 -0.162024 -0.0682893 0.150778 0.181607 0.306024 0.0290263 0.0121754 -0.0946605 -0.0361843 0.183232 0.0787166 0.0845486 -0.336672 -0.160866 -0.137336 -0.0112735 0.06695 -0.110356 -0.0556432 0.169756 0.232217 0.0672744 -0.167443 -0.0457876 -0.00818698 0.0572398 -0.047622 0.153658 0.160932 0.153348 0.140042 0.0866303 -0.0423623 -0.060735 0.131457 -0.085313 -0.117063 0.0380973 0.0319532 0.00862199 -0.019865 -0.121577 0.0986385 0.00582675 0.10369 0.0073214 -0.0145681 -0.136789 0.117423 -0.256825 -0.364204 -0.147027 -0.200526 -0.0551008 0.0288251 -0.16846 0.0312858 -0.0273154 0.0671874 0.137858 0.269396 0.203489 0.192243 0.290466 0.163193 0.287572 0.134974 0.019068 -0.139666 0.0563258 -0.0551202 -0.00194403 0.033083 0.000258165 0.0177488 0.00995734 -0.048557 -0.119736 -0.07955 -0.0117653 0.0708751 -0.0392687 -0.0920563 0.0102127 0.041371 0.00932702 0.0699946 0.0325376 -0.0227313 0.0203942 -0.115221 -0.0507393 0.0495184 -0.0244164 0.00820306 0.0151929 -0.0117485 0.23079 0.177929 0.0443408 0.028822 -0.254681 0.150776 -0.0446087 -0.0924787 -0.100329 -0.377874 -0.359297 -0.0914567 -0.0204658 -0.0633703 0.367018 -0.235633 -0.121794 0.170623 0.110217 0.392348 -0.0308076 -0.0467372 0.16339 0.235387 0.201106 -0.0263105 -0.0650716 0.0513396 -0.0618184 0.0485733 -0.0483861 0.016181 -0.0967044 0.135364 -0.041096 -0.0225598 -0.0296342 0.192973 0.264818 -0.0484016 -0.0391525 -0.123235 0.065311 0.116774 -0.167673 0.232375 0.0136865 -0.208764 0.0373487 0.0700816 0.0696899 0.229423 0.234809 0.0778279 -0.00972463 0.0200197 -0.204527 -0.00836383 0.204993 0.0793752 0.245713 0.219887 0.0717333 0.0428704 -0.0394264 -0.055117 0.00273967 -0.0169558 -0.0120725 -0.00277112 0.0296053 0.0914621 -0.0480132 -0.0724579 0.241347 0.106802 -0.215682 0.0968879 0.00278035 -0.0245528 -0.263819 -0.112609 0.203686 0.0929762 0.00336559 -0.203271 -0.440151 -0.0201974 -0.0106163 -0.130984 0.129714 0.0088345 -0.090514 0.133904 -0.0212528 0.164645 0.0844749 0.161855 -0.0146829 0.086765 -0.0415602 -0.217064 0.190695 0.253251 0.0270883 0.103254 -0.0649292 -0.00942154 0.0533325 0.153036 -0.181555 -0.363596 0.146498 -0.225964 0.0161024 -0.061284 -0.0146082 0.0477412 0.188392 0.0903976 0.0938049 -0.0738351 -0.109428 0.0732209 -0.0724006 0.00863262 -0.0317796 -0.0547924 -0.0466341 0.0276698 -0.106314 -0.0180319 0.124248 0.364457 0.298902 -0.137166 -0.189524 0.0696986 0.0632555 0.132913 -0.0320445 -0.0188662 -0.0167135 -0.0730361 -0.127674 0.131266 -0.325271 -0.411445 -0.356161 -0.0943942 0.036005 0.0423102 0.0816868 -0.0352349 -0.0964918 -0.00985612 0.146184 0.132726 -0.125356 -0.240074 -0.241554 -0.280916 -0.411147 -0.222694 -0.132667 -0.217779 -0.104322 0.00594911 0.0593988 0.168901 0.0303524 -0.0756253 0.138253 0.0656418 0.156368 0.00353105 -0.0786699 -0.11586 0.0138034 -0.214637 0.0488023 0.0755527 -0.154335 -0.0627348 -0.224503 0.497548 0.533105 0.0957262 -0.144787 0.09313 0.162101 0.2267 -0.0302083 0.202794 0.300081 -0.301472 -0.0647087 -0.0664173 0.381724 0.493428 -0.0423855 -0.10314 -0.0392892 0.221424 0.0988661 -0.000165013 -0.103504 0.177374 0.326731 -0.0153046 0.0638633 -0.100055 0.194525 0.037342 -0.0328438 0.0478498 -0.00746304 -0.0251832 0.0538246 -0.121547 0.00800113 -0.00328094 -0.0203589 -0.0471711 -0.0771547 -0.0503112 0.0715062 -0.0951411 -0.204738 -0.0421994 0.249123 0.219362 0.181933 -0.211399 -0.350823 0.261643 0.312696 -0.0539123 -0.200045 -0.187312 -0.0395454 -0.0133721 -0.0105495 -0.142244 0.169089 0.204394 0.086302 0.198763 0.0296743 0.316401 -0.0725883 0.0332741 0.352685 0.20412 0.11911 -0.000342701 0.00411567 0.204368 -0.113596 -0.232414 0.0440983 -0.0281368 0.128831 0.0214018 -0.101284 0.00128812 0.0141187 -0.0765731 0.120388 0.251769 0.0193824 -0.0100973 -0.00782886 0.237355 0.320144 0.0196297 -0.0303342 -0.0262661 -0.100528 -0.0284742 -0.0628468 -0.0121618 0.0421338 -0.00910075 -0.0193312 0.245005 -0.00208073 0.138033 0.028214 -0.0268325 0.433406 0.157792 -0.0543343 -0.0629311 -0.0236966 0.00329715 0.12334 -0.0334561 -0.251681 -0.0668432 0.0532059 0.142896 0.172954 -0.0666974 -0.0831217 -0.0600824 -0.00891383 -0.0890239 0.0851793 0.0992619 0.157104 -0.0216808 -0.224561 -0.0239808 -0.0529254 0.221186 0.398204 -0.093311 0.0537462 0.0332601 0.241321 0.218485 -0.0995169 -0.151598 0.0606056 -0.0791295 -0.0724836 -0.0266402 0.0337107 0.150202 -0.293378 -0.348923 -0.036591 0.0491638 -0.115475 0.00914149 0.0249143 0.0940627 0.150756 0.0372647 0.0111946 0.0913765 0.249395 -0.0606575 0.0845745 0.0516531 0.132919 -0.039102 0.0759847 0.0115629 -0.265916 -0.276849 -0.149358 -0.180553 -0.101696 -0.200107 -0.279991 -0.45567 -0.208454 0.0217762 -0.145452 -0.160647 0.0204174 -0.241306 0.00241392 -0.169857 -0.357216 0.0445863 0.0173304 0.0350797 -0.13321 0.128178 0.176159 0.103438 -0.00636074 0.0436874 0.00344953 -0.00321195 -0.0120444 -0.0149799 -0.1047 -0.0370054 0.0369998 0.0657218 0.0216778 -0.127695 -0.118212 -0.0509411 0.0587325 0.0168496 -0.0373655 0.0966936 -0.051803 -0.00676386 0.0133254 0.00881062 -0.178779 -0.101693 -0.0732407 0.00181437 0.211943 0.30107 0.0541464 -0.143841 -0.491604 -0.0158018 -0.161043 0.0979856 -0.0174486 -0.334325 -0.175191 -0.296631 0.0723809 0.162566 -0.223203 0.0769197 0.0442148 0.0862016 -0.120348 -0.182478 0.249854 0.0239767 -0.127329 -0.108235 -0.054592 -0.00430071 -0.0228594 0.0619779 0.0223027 0.0169156 -0.132741 -0.0202216 0.127179 0.179736 -0.0143408 -0.131401 -0.22259 -0.20581 -0.248768 0.0687021 -0.129362 -0.238 -0.043942 0.0510699 -0.00607064 0.0823951 -0.124117 -0.198285 -0.0256783 -0.0740513 0.103494 0.0311182 -0.00316477 -0.117543 -0.0962141 0.170288 0.195686 0.187251 -0.0851669 -0.127308 -0.021064 0.0635701 0.0668819 -0.0428064 -0.0654394 0.0224396 0.124547 0.0869606 0.0540369 0.00623653 0.110867 0.172153 0.225254 0.101949 -0.0314258 -0.340778 -0.115601 0.125656 0.126871 -0.00478721 -0.275209 -0.130257 0.160917 -0.0855101 0.17544 -0.135343 -0.0288182 -0.014775 0.0751878 0.0812177 0.00822164 0.0185663 -0.010623 -0.131842 0.208853 0.0890387 -0.105921 -0.238506 -0.179542 0.125571 -0.0157805 -0.0110101 -0.0597689 -0.0503893 0.0271366 -0.0372399 -0.240114 -0.162508 0.146407 0.0539228 0.241424 0.169556 -0.0609089 0.158709 0.129069 0.236786 0.0982576 -0.0772784 -0.116713 -0.0302359 -0.0426921 -0.072141 -0.185225 -0.143195 0.0541973 -0.0418896 -0.031941 0.139101 0.105905 -0.0316852 0.102227 0.123259 0.0967728 0.322215 0.168086 -0.0715603 -0.266963 -0.16268 0.0403213 -0.0856586 -0.0763897 -0.230881 0.00346131 0.206682 0.0955911 -0.0849595 -0.12086 0.184464 0.0670093 0.163205 0.135869 0.217353 0.015005 -0.122058 -0.0369743 0.146603 0.0618788 -0.330792 -0.21738 -0.261544 0.312158 0.14194 -0.0366221 -0.0084857 -0.0252143 0.0705522 0.135488 0.135916 -0.0134616 -0.16408 -0.135825 -0.192828 -0.125479 -0.20422 -0.112163 0.0286385 0.164441 0.0384187 0.0681177 -0.182374 0.0799442 0.0153437 0.000305394 -0.229993 -0.251908 0.0921643 0.0630617 0.0281927 -0.0539285 0.0843491 0.11424 0.0473314 -0.0596199 -0.0577217 -0.0889612 0.183153 -0.0336302 -0.0187641 0.203687 -0.0468245 -0.0525828 -0.0965034 0.222461 0.399951 0.347563 -0.02874 0.056161 0.0953833 0.0416183 0.0334947 0.115942 -0.00139412 0.0391521 -0.184607 -0.144193 0.043367 0.135652 0.0152449 -0.0280185 0.0574945 -0.0112187 -0.0187757 -0.0788717 0.105459 0.158036 -0.0656048 -0.0707839 -0.0350769 -0.188895 -0.183097 0.259703 0.120203 -0.0692381 -0.214668 -0.12772 0.467959 0.159691 0.0599224 0.31537 -0.000150484 0.030586 0.0729764 0.154175 -0.105793 -0.158322 -0.138055 0.102874 0.120885 0.171437 -0.0149733 0.0105584 -0.0013798 0.0696402 0.0397633 -0.00990053 -0.0084555 -0.0458377 -0.18705 0.0102778 0.0311205 0.155468 0.115709 -0.0484851 0.174749 0.283734 0.0685823 -0.102484 0.0216477 0.313016 -0.0518982 -0.0130975 -0.0901067 -0.110046 0.118249 -0.0963723 -0.115006 -0.122662 -0.0549195 -0.0418285 0.0282741 -0.194615 -0.190332 -0.115678 0.0121804 0.0203466 -0.12895 0.24104 -0.114875 -0.0942923 0.00799086 -0.123902 0.0373538 0.0172845 0.00815627 -0.0618923 -0.0304294 -0.0216214 -0.00874838 0.165737 0.114611 0.0765999 -0.16216 -0.246354 -0.174096 -0.154904 0.0478958 0.054583 0.0465053 -0.198565 -0.045347 0.169194 -0.0771944 -0.0247999 -0.0701247 -0.00932024 0.0721671 -0.00443415 -0.0359504 -0.0819367 0.060871 -0.0516672 0.0562906 0.0540134 0.131679 0.00654338 0.119435 0.17309 0.0437915 0.0583404 -0.0472793 -0.0599842 -0.0761211 -0.248495 0.138853 -0.143099 0.021005 -0.0711184 -0.332838 -0.0376946 -0.168958 0.0598947 0.130604 0.034177 -0.208913 -0.11801 -0.0112614 -0.0235764 0.205057 -0.0409262 -0.0538414 0.0702824 0.0311542 0.172056 0.416359 0.184001 0.115139 0.18179 0.0262701 0.313242 0.0219648 0.235594 0.157755 -0.364557 0.17903 -0.00642648 0.0456322 0.00239903 -0.0974185 0.00502795 -0.0623138 -0.00523069 0.12876 -0.0481659 -0.0555262 0.0095751 -0.040223 -0.109429 -0.0804219 0.0271223 0.0100762 0.0726134 -0.0422174 0.0588521 0.0370267 0.00063107 0.0620627 -0.0389359 -0.00627301 -0.0102292 -0.0636892 -0.0602877 -0.0334009 -0.0119606 -0.0417095 -0.105729 -0.189945 -0.0399905 0.0443808 0.123898 -0.0262788 0.0741012 -0.217008 -0.454193 -0.46833 -0.154539 -0.214079 -0.127959 -0.106865 -0.337727 -0.0861766 0.241527 0.307527 0.48406 0.0410026 0.130087 0.0686159 0.257852 0.239135 0.286103 0.237126 -0.259717 -0.264631 -0.210844 0.0593087 0.137887 0.0263657 0.0187331 0.0672718 0.0804599 0.0642322 -0.119134 0.17118 -0.0187402 -0.0244741 0.11694 -0.0582048 0.0427856 0.18622 -0.082698 -0.0114619 0.00494422 0.110119 0.276585 0.156932 0.102479 0.0210328 -0.0300295 0.305206 0.243371 0.129356 -0.0692542 -0.107021 -0.094537 -0.031695 0.101101 0.251252 0.0624648 -0.203964 0.103851 0.00731376 -0.0794106 -0.171585 -0.0850759 -0.0471264 0.0199005 0.109312 -0.0420204 -0.0668153 0.0312579 0.000994893 0.0839944 0.0232035 -0.131985 0.0282473 0.119267 -0.0458641 0.361382 0.263509 0.103393 0.0664631 -0.148154 0.1163 0.128083 -0.0120408 -0.0180473 0.0107115 -0.0614656 0.0233667 0.193402 0.0557701 -0.168304 -0.0826605 0.126306 0.0820304 -0.0146161 -0.0929397 0.0140187 0.228363 0.0819912 -0.0108349 0.0985044 0.286344 0.0284426 -0.0261099 -0.151816 -0.00171088 0.0495393 0.163318 0.110666 0.0576214 -0.127239 -0.005784 -0.0283825 -0.125874 0.0264849 -0.010228 -0.0105138 -0.059388 -0.037402 0.0530678 -0.0262457 0.0259735 0.0621238 0.0841312 -0.0163969 0.0255777 0.109892 0.162161 0.129125 0.217031 0.163532 0.246949 0.133072 0.148939 0.114641 0.112753 -0.0562839 -0.229713 0.125308 0.0442465 0.00611644 0.11981 0.200433 -0.208861 -0.0216532 -0.0261162 0.338549 0.188258 0.0647064 0.105484 0.0221575 0.0312426 -0.162112 -0.151921 0.0559026 0.000426993 -0.0892375 -0.128957 -0.170021 -0.0960215 0.234084 0.20917 -0.0198938 -0.0610509 0.0500312 -0.128492 0.0043452 -0.0895255 0.0428301 0.215981 -0.0279014 -0.121769 0.113111 0.131295 0.00102039 -0.0102175 -0.191924 -0.110289 -0.0845707 0.127694 0.0400572 -0.0110379 -0.156238 -0.254557 -0.012389 -0.00275683 -0.0808754 -0.00220452 -0.244563 -0.0621198 -0.27784 -0.0525177 0.180878 -0.0437675 0.00208507 0.043017 -0.0435053 -0.0836182 -0.0921596 0.0521064 -0.0628878 0.241181 0.286948 0.304159 -0.00263537 -0.0537617 0.17913 -0.0668385 0.0942248 0.119205 -0.0390874 0.0925202 -0.104267 -0.00931919 -0.215894 -0.0312411 0.0109874 0.00776222 -0.147297 -0.128194 0.0758872 -0.0020794 -0.023023 -0.117843 0.0116908 0.0384218 -0.0860601 0.011389 -0.0789898 -0.0877133 0.000400167 -0.23128 0.184773 -0.246272 -0.168632 -0.202874 -0.00872671 -0.0183767 0.0753252 0.152182 0.0693523 -0.0298832 -0.109659 0.265417 0.0936702 0.170377 0.14732 -0.0359105 -0.192163 -0.0920744 0.0995392 0.132033 -0.240043 -0.100685 -0.160049 0.0455737 -0.0409569 -0.281321 -0.185569 -0.0311827 -0.0617507 0.00754479 0.0514752 -0.191747 -0.0564663 0.0122887 0.0110371 -0.11198 -0.117229 -0.0533875 0.0788873 0.0656046 -0.021531 0.000691152 0.128586 -0.0278238 -0.0422978 -0.0630585 0.0624877 0.00825713 0.119918 -0.146607 -0.183034 0.0237471 -0.0731468 0.208809 -0.098849 0.0625616 0.0611225 0.0336632 -0.00667776 -0.0016512 0.00524055 0.0977782 -0.0356362 -0.0259369 -0.0300779 0.000175934 -0.0399033 -0.0597092 -0.0535905 -0.0651759 0.13254 0.111981 0.0895861 0.0529382 0.0608567 0.138371 -0.054078 0.00448913 0.145173 -0.0502837 -0.0706002 -0.0680111 0.00844753 -0.0184323 0.126415 0.00467757 0.103538 0.0631165 0.0202154 -0.00188077 -0.0496858 0.0198657 0.0320151 0.00362095 0.0689595 0.0531981 -0.108177 -0.185967 -0.0638763 -0.0867218 -0.0484292 -0.0727654 -0.11247 0.129684 0.0968288 0.173067 0.139845 0.148697 0.072856 0.144233 0.127797 0.156071 0.0836382 0.0854431 0.0146607 -0.039107 -0.0111532 -0.0605723 -0.00265122 0.00674303 0.0589996 0.0770461 -0.0564503 -0.0304458 0.0394249 0.0236922 -0.0134022 -0.0510342 -0.112992 0.00489698 0.0361577 -0.0430565 -0.113416 -0.187745 -0.106904 0.0565885 -0.0422213 0.0549228 -0.0761103 -0.0595942 -0.0467304 -0.0060089 0.0315473 -0.00148831 -0.0410428 -0.0309327 0.0134592 -0.0632337 -0.047819 0.0976691 -0.0913011 0.0379394 -0.0441119 0.0545649 0.0124364 0.00888819 0.00783882 -0.0121387 -0.0238704 -0.0697588 -0.0803132 -0.0320757 -0.0550737 0.00106212 -0.0994313 -0.0986903 0.000224549 0.0452289 -0.00734891 -0.0325044 0.142691 0.125538 0.0771375 0.0482807 -0.051908 0.0549938 0.0518619 0.104299 0.0195031 0.112055 -0.0327368 -0.091668 -0.009584 0.00209498 -0.0694749 -0.0704629 -0.0692187 -0.0385611 -0.0384861 0.156966 -0.0544202 -0.18552 -0.167563 0.0682785 -0.0374687 0.0757427 0.00310579 -0.0145206 0.046548 0.0457282 -0.063436 0.00950463 0.0631847 -0.0104746 0.00768162 0.0669906 -0.00495484 0.112639 0.0810512 -0.104706 -0.112259 0.132544 -0.0651641 -0.0642556 -0.189703 -0.150121 -0.0607401 -0.0520402 -0.0749266 0.00110294 -0.133482 0.0279801 -0.0489189 -0.0417042 0.0336514 -0.00428698 0.00831571 0.0623255 -0.0225668 -0.036382 -0.0309537 -0.0146953 0.148635 -0.0552939 0.0645426 0.0724664 -0.0152628 0.0639073 0.0775882 0.041983 0.141245 0.0303022 -0.000350701 -0.010491 0.0878217 0.0447101 0.0184906 0.161567 -0.000800146 0.119358 0.0326276 -0.0529094 -0.12097 0.155325 0.0780066 0.0970122 0.057095 -0.00870361 0.0430906 0.0670959 -0.015859 -0.00775536 -0.0247377 -0.0340366 -0.210934 -0.192359 -0.126179 0.0349906 0.0185622 -0.0184018 -0.0884 -0.159267 -0.0797899 0.0579228 0.135989 0.0628995 0.0065673 0.0492227 0.241102 -0.0283538 0.0822129 0.0342051 0.00929548 0.120884 -0.0897977 -0.0802829 0.0219069 -0.057184 -0.016202 -0.0505324 0.00672798 -0.0573367 0.00783873 0.000353449 -0.0510475 -0.188142 -0.00734488 -0.0222526 -0.06977 0.113212 -0.00980155 -0.270321 -0.313403 -0.082412 0.0407668 -0.0358252 0.0643333 -0.133622 0.012618 -0.00523691 0.0612161 0.0603536 0.0665367 0.0344982 0.0483442 -0.011888 0.165002 0.109781 -0.0946257 -0.0513449 0.0424952 0.0169914 0.00229633 -0.128855 -0.0694496 0.0754936 0.105569 0.094795 -0.00764957 -0.0596185 0.028072 0.134091 0.0495975 0.133243 0.0147231 0.0458347 0.014303 -0.0385173 0.0617643 0.0157964 -0.110841 -0.0994639 -0.0269542 -0.00730684 0.0449568 0.0788859 -0.0603002 0.0635076 0.00888686 -0.0481382 0.0648658 0.0877283 0.112281 0.0541306 -0.0532971 0.200468 0.159942 -0.142478 0.14781 -0.0342065 0.00879535 -0.010436 -0.0279725 0.168257 0.184741 0.00129868 0.0210847 -0.0614439 0.00412283 -0.0634557 -0.113526 -0.225883 -0.154338 0.030807 -0.0108384 -0.000778369 -0.116796 -0.0814098 -0.0083611 0.142241 0.142993 0.182273 0.0584438 0.0128489 0.0673876 0.130545 0.0556119 0.00261391 -0.0582982 0.00958949 0.0538976 0.0244059 0.0319113 -0.0161083 0.0487713 0.00902574 0.0861709 0.035232 -0.124726 -0.178012 0.0810527 0.0111134 0.227323 0.0222739 0.091595 0.145907 -0.015341 0.0874809 0.134973 0.130534 -0.000854962 -0.179411 0.00178998 0.0515318 0.116319 0.0935788 0.166565 0.0947961 -0.0224133 -0.0744064 -0.108922 -0.0760089 -0.110381 0.0452005 -0.0040917 0.156489 0.141859 0.124345 0.0319548 -0.0220974 0.0720358 0.087602 0.0709821 -0.069056 0.0854886 0.0819191 0.0111764 0.000509641 0.00796945 -0.0864153 -0.0226523 0.049329 -0.20805 -0.00795639 0.0400815 0.13563 0.0392958 0.0212666 0.0387997 0.0641769 -0.00929733 0.0368823 0.0502014 0.0448915 -0.0719494 -0.0927714 -0.00957825 0.0404511 -0.147558 -0.0816493 0.0666254 -0.040746 0.0264798 -0.0309515 -0.0357384 -0.00134864 0.022712 0.0280106 0.0539895 -0.00631214 0.022692 0.0965987 0.142196 -0.235773 -0.0639579 -0.108061 0.123376 0.0550313 -0.307838 -0.13775 -0.205486 0.107542 0.0185842 -0.0172285 -0.174646 0.0697937 -0.0451082 -0.037916 0.106788 0.111604 0.0282529 -0.0560735 0.0178545 -0.156058 -0.22662 -0.21805 -0.0774199 -0.00414999 -0.0293377 0.154397 0.335036 0.186539 0.262523 -0.110266 -0.0622589 0.203316 0.0543088 0.00693936 -0.106718 -0.189798 0.00476115 0.0521238 0.133511 -0.0434247 -0.0323439 0.0786183 -0.104933 -0.0427049 0.198612 0.134521 0.103165 0.0909029 0.0247932 0.186727 0.191121 0.283243 0.210093 0.00651215 0.174833 0.130831 0.107871 -0.0244687 -0.141825 0.0727708 -0.0809563 0.00695336 -0.11981 -0.0325442 -0.0097895 -0.000702325 0.0459015 -0.0603904 -0.0300024 -0.0266329 0.0120142 0.0714588 0.0294573 0.0740888 0.030449 -0.0646212 -0.0183941 0.0212531 0.0262 -0.129151 -0.127715 0.0337752 -0.0617536 0.00148271 0.0459181 0.0419995 0.00630013 -0.0176824 0.0270354 0.171361 0.148409 0.0576462 -0.0122124 -0.0511216 -0.201499 -0.162202 -0.207825 0.00577847 0.105695 -0.291196 -0.372508 0.028463 -0.0739397 -0.22331 -0.18901 -0.536527 -0.0451342 0.0369352 -0.0413915 -0.043628 0.0194283 0.0870256 -0.0155814 -0.203839 -0.0454445 0.153074 0.218206 0.126152 -0.00357165 0.211151 0.159566 0.259149 -0.0577233 -0.036898 0.0712132 0.0684627 0.0527312 -0.117658 -0.147259 0.102542 0.0102028 0.0330875 -0.106508 0.0345361 0.0549354 0.0608073 -0.0541622 -0.199855 0.0233715 0.0348385 0.10341 -0.142206 -0.152488 -0.0125826 -0.156448 -0.0369336 -0.031601 0.144282 -0.0701251 0.0649829 0.0226978 0.144133 -0.0375804 -0.0282031 -0.0127683 0.00915962 0.00873062 -0.154318 -0.180718 -0.154271 0.0247469 -0.234017 0.0282936 -0.0273777 -0.023665 -0.0280099 0.109024 0.130411 0.00617173 0.158061 0.148235 0.0235925 -0.0469909 -0.000276518 0.10604 -0.160874 -0.304404 -0.010751 0.0336991 -0.0255583 -0.0494579 -0.103743 0.088897 0.00668417 0.205873 0.283772 -0.0634664 -0.088783 -0.0212555 0.194583 0.156049 -0.0726579 -0.150978 -0.0338023 0.00264174 -0.0606431 -0.233604 -0.101485 0.21012 -0.00864 0.0482996 -0.027159 -0.202193 0.0695902 -0.0642216 0.149452 0.0923928 0.0765059 -0.0294517 -0.00829244 0.309851 -0.0302425 -0.224389 -0.0131335 -0.0340988 0.0221876 -0.100943 -0.0636631 -0.0274186 0.178974 0.400541 0.0685658 0.0834005 -0.0737396 0.258659 0.181185 0.0723833 -0.196022 -0.0994292 0.138186 0.0395218 -0.131737 -0.0594835 0.172665 -0.0831354 0.0467145 -0.155955 -0.0574428 -0.0412529 -0.0393735 -0.0795545 -0.147306 -0.0944485 -0.0735981 -0.0801864 -0.0257918 -0.0337065 0.10157 -0.0172514 -0.190396 -0.2069 -0.107182 0.0602853 -0.149928 -0.239173 -0.18855 -0.0013018 -0.100187 -0.149514 -0.0476971 0.0408665 0.121948 -0.104314 -0.0771087 0.0407108 0.146847 0.116566 0.0911767 -0.0638395 -0.157513 -0.209765 -0.324069 -0.230847 -0.170305 -0.144162 -0.234854 -0.128316 0.00929826 0.0995625 -0.0455238 0.062082 0.139092 0.301553 0.250833 -0.24325 -0.0529649 0.0689071 0.122613 -0.106242 -0.316229 -0.238998 -0.126863 -0.0301867 -0.188614 -0.00149374 0.106744 0.0269265 -0.11213 -0.0652034 0.000352492 0.0137288 -0.0243949 -0.185923 0.117812 -0.0102628 -0.0399454 0.0275763 0.00344483 0.11093 -0.0324662 -0.0875203 -0.179948 0.0171103 -0.00121543 -0.0333466 0.018361 -0.0336492 -0.0261063 -0.0476558 0.039882 0.0368272 -0.0175265 -0.10979 0.154575 0.0841496 -0.0460113 -0.0693016 -0.0933722 0.0551903 0.0627688 -0.000163756 -0.0633948 -0.119902 -0.112843 -0.128465 -0.0926146 -0.17444 -0.0743201 0.188463 -0.0928122 0.0221929 0.275064 0.0747072 0.0338189 -0.012282 -0.0669219 -0.168231 -0.0896253 0.161326 0.00051994 -0.0460429 -0.0933298 0.0726052 0.165118 0.0167503 -0.0586098 -0.0179187 0.277634 0.133258 0.0134097 -0.0797897 0.0201598 0.0358716 -0.0734555 0.0048634 -0.0469783 -0.0585483 0.0240539 -0.0354059 -0.0922776 -0.0151893 -0.0785866 0.023705 0.0250984 -0.0267472 0.186742 0.160438 -0.0232949 0.000317318 0.162356 0.17482 0.0481295 0.0317209 -0.0144528 0.0674648 -0.0194526 0.0165875 -0.0869974 0.0477297 -0.0555718 -0.0737285 0.0037871 0.153011 -0.00794157 0.077101 0.0712278 0.0677684 0.278063 0.0699013 0.00552691 0.105042 0.001177 0.0338592 0.0128251 -0.133306 -0.0318553 0.232456 0.0624755 0.0644409 0.0541171 -0.0945863 -0.0026901 -0.0204261 0.0269718 -0.155362 -0.185605 0.00691327 -0.118776 -0.0385502 0.212869 0.31612 0.0851442 0.123157 0.106788 0.189947 0.0477579 -0.00792255 -0.0190157 0.11848 -0.0246163 -0.127389 -0.0745996 0.0581651 -0.00484056 -0.0260502 -0.125481 -0.298284 -0.148371 -0.109117 -0.0991928 -0.0231706 0.0548495 0.0988105 0.00732277 -0.176695 0.00512235 0.135963 -0.0259614 0.173381 -0.105544 0.118442 -0.103548 -0.0842327 0.222102 -0.127277 -0.164969 0.0878243 0.053162 -0.0176911 -0.0317558 0.142444 0.035821 0.232302 0.0418433 0.0717981 0.101423 -0.0859137 0.0764764 0.0121222 0.014915 -0.0143756 -0.0262969 0.0423057 -0.0280221 -0.0700961 -0.0604261 -0.0580074 0.0834684 -0.0196712 -0.153672 -0.15678 0.0339347 -0.0207539 0.000142682 0.0897675 0.00763959 0.082943 0.0472384 -0.0441633 -0.0569064 0.11709 0.167803 -0.0577268 0.0187633 0.211501 0.232845 0.374385 0.0359448 -0.234406 0.251467 0.206282 0.135256 0.0722701 -0.318586 -0.0714997 -0.281012 -0.203456 0.261292 0.0449392 -0.33847 -0.182734 -0.0660397 0.0934398 0.0928188 -0.251598 -0.403466 -0.0942408 -0.280639 -0.233859 -0.131932 0.0168765 -0.0528798 -0.0561811 0.0268786 -0.000835551 -0.00622203 0.266771 0.204779 -0.0942167 -0.0752425 0.10215 0.0256785 0.301843 0.173634 -0.00423266 -0.0145357 0.182197 0.102907 0.106871 -0.167061 0.0834395 0.290861 0.0952231 0.0559778 -0.101683 -0.0386176 -0.0910147 0.00451786 -0.00607825 -0.207975 0.123444 0.113388 -0.0660071 -0.00976764 0.110169 0.0816178 0.0505457 0.0962333 -0.00405533 0.23559 0.0712566 -0.0893983 -0.122902 -0.0276162 -0.00809542 -0.171297 -0.191289 0.00115183 -0.0808523 -0.0909853 -0.0838008 -0.194388 -0.0903329 -0.0159609 -0.00715581 0.00338274 0.298325 0.0436139 -0.0932263 -0.067037 -0.271144 0.1263 0.0183915 -0.0708278 -0.203099 -0.0794874 0.0681274 -0.146301 -0.00775739 -0.170902 0.159687 0.244063 0.0373571 -0.0584604 0.163188 0.136673 -0.0164879 0.0109633 -0.0117362 0.0242279 -0.0181161 -0.289882 0.205636 -0.0139385 0.0217597 0.0158238 -0.151109 0.153934 -0.0907436 0.0438896 -0.0436267 -0.0707648 -0.0672483 0.0472165 -0.0615819 0.0138178 0.197209 0.165297 0.191627 -0.134853 -0.184644 -0.068023 0.141717 0.11749 0.0196539 0.0830503 0.00381975 0.133585 0.0643773 0.362063 0.276561 0.0758958 0.16126 0.0241035 0.330982 0.139865 0.0680416 -0.113251 0.227673 0.228575 0.377975 0.163876 -0.118718 -0.253163 0.248802 0.33511 0.0452229 -0.0403978 -0.011538 0.0471377 0.0170883 0.104303 0.0118616 -0.0844255 0.084092 0.0365744 0.0807437 -0.0840622 -0.00678255 0.111852 -0.0769343 -0.0855099 0.0440679 0.140762 -0.255722 -0.0929468 -0.0504423 -0.0443368 -0.0500292 0.0630439 0.0148067 -0.0989273 -0.0490219 -0.138895 0.110461 0.0741825 0.0678963 -0.0471987 0.0486882 0.31087 0.359523 -0.00877391 -0.128105 -0.00378343 0.24953 0.117891 -0.21337 -0.0549749 0.103096 -0.109395 0.0804114 -0.18361 -0.172153 -0.103646 0.0379468 0.0429056 0.149812 0.0218405 0.219632 0.0235828 0.0684082 0.0921211 0.0687819 0.233282 -0.0407667 -0.0494938 0.0353438 -0.0609113 -0.042613 -0.026039 -0.0730311 -0.00358305 -0.0949195 -0.204609 0.0892445 0.0421376 0.076652 -0.0452966 -0.0675912 -0.0476537 -0.0980183 -0.0601243 0.0787838 -0.0531324 0.0590448 0.324553 0.149177 0.199171 0.00286307 0.184975 0.30616 0.102596 -0.00456929 -0.0639296 0.192301 0.0997064 -0.148168 0.12661 0.251018 0.0428562 -0.139678 -0.297821 -0.0543295 -0.00462981 0.0288178 0.115923 0.0804755 0.162354 -0.0264948 -0.00481865 0.0264018 0.0186801 -0.123699 -0.129403 -0.0573641 0.0704909 -0.070901 -0.203206 -0.0541013 0.0109798 -0.0123381 -0.0984374 -0.21083 -0.0511204 -0.0652887 0.00943128 0.075993 0.0678707 0.0644175 0.00226063 0.0577381 -0.129812 0.000322895 0.0331661 -0.050086 0.0908168 0.0925759 0.0543473 0.034537 -0.11474 0.315431 0.0551052 0.0699691 0.112011 -0.0192853 -0.0175864 0.0659637 0.15731 0.0730645 0.0233396 0.139628 0.0627582 -0.043096 -0.0314282 0.0246074 -0.0346227 -0.0778161 -0.154094 0.0619848 0.0214969 0.194147 -0.00344317 0.0574154 -0.0276918 0.125598 0.019205 -0.114956 -0.251984 -0.0664264 0.0657198 -0.179026 -0.0427527 -0.0757032 -0.0375635 0.00513638 0.0627728 -0.0170122 -0.0932228 -0.0236943 -0.0347671 -0.0418701 -0.0341913 0.117529 0.100782 0.0918073 0.116933 0.0147633 -0.0327605 0.118878 -0.168011 0.1299 0.0337791 0.0195315 0.130383 -0.194789 -0.275327 -0.0713218 0.0762825 -0.0290706 -0.0582907 0.0654042 -0.0680013 0.0149928 0.0178106 0.137638 0.0964637 0.0528311 -0.0201539 0.0209784 0.210874 0.188812 0.0667729 0.0496436 -0.0373552 0.0897355 -0.00316666 0.0559047 0.0300081 -0.0826186 0.326707 -0.00316315 -0.0414521 -0.263901 -0.086759 -0.118499 -0.0488414 -0.118131 -0.0187101 0.023057 0.0281709 0.0611383 -0.0151559 -0.0462203 -0.0353881 0.00491989 0.0341116 0.0696836 -0.0528679 -0.0251681 0.0134123 -0.0857967 0.000213839 -0.0701977 0.0140901 -0.141409 0.00390687 -0.0216959 0.00543888 -0.00855803 0.116236 0.143451 0.0639454 0.0150617 0.0784055 -0.0598278 -0.052527 -0.117523 -0.0850523 0.0623805 0.209899 0.0276523 -0.277527 -0.167898 -0.0239688 0.224395 0.0923742 -0.184921 0.224269 0.0556224 -0.216676 -0.0519597 -0.0648866 -0.044354 -0.11905 0.00722044 0.154265 0.171983 0.0100069 -0.164965 0.0020991 -0.0654953 -0.210458 -0.0405275 -0.0440094 -0.029809 -0.247318 -0.0972661 0.138849 0.107786 0.0362468 0.105483 -0.0298335 -0.105291 -0.0514278 0.100175 0.0866671 -0.0424149 -0.257946 0.0710883 0.030063 0.0840751 0.0753617 -0.08125 -0.121293 0.146751 0.013274 -0.0105419 -0.0651071 0.0474743 0.0516923 0.0565328 0.0520339 0.0528421 0.00129561 0.106262 0.234831 0.113906 0.101084 -0.0767568 -0.0625572 -0.012602 -0.112828 0.0586877 -0.0170812 -0.17062 -0.124004 -0.0514651 -0.111144 -0.0239021 -0.0204657 -0.0480116 0.0827333 0.0192344 0.0105112 0.0440587 0.107257 -0.19673 -0.0162282 0.111659 0.155497 0.125632 -0.285522 -0.225737 0.0412448 0.0611062 0.04426 -0.132458 -0.00107018 0.166021 -0.0596073 0.12545 0.0612452 0.0519146 -0.0524508 -0.0242583 0.0814368 0.121404 0.169648 0.179556 0.00950228 -0.0386761 0.0168649 0.0280481 -0.0037984 -0.0346667 -0.0499994 -0.0511345 0.170858 0.0501992 -0.188581 -0.000961218 0.0325741 0.0788361 -0.0135654 0.135685 0.0727437 0.011551 -0.0618802 -0.110109 0.0415503 0.0887631 0.0769292 0.000679137 -0.0520524 -0.113518 -0.227272 -0.180344 0.223011 0.243812 -0.142819 -0.130984 0.317363 -0.015076 0.109641 -0.0960448 0.10157 -0.0614256 0.0662716 -0.0222998 -0.130101 -0.164099 0.123077 0.113 0.0667779 0.014823 -0.0601592 -0.0786462 0.0350772 0.0308728 0.0250218 -0.148414 -0.163793 -0.328705 -0.0416563 0.0360888 -0.140954 -0.126788 -0.126031 0.0109846 0.027434 -0.0913209 -0.0763746 0.100273 -0.0268138 0.251735 0.118534 0.0263578 0.0491708 -0.0842274 0.101557 0.069148 0.156031 0.0228264 0.0554378 -0.00275475 0.0783615 0.0607047 0.0524887 -0.0233595 -0.0997612 0.00205426 -0.278495 -0.0854878 -0.00947639 -0.106779 -0.213006 -0.149879 -0.104182 -0.163837 -0.232276 -0.457161 0.0849841 0.0186286 -0.258804 -0.024832 -0.0193768 -0.125235 0.107864 0.0450697 0.0237071 -0.110692 -0.154706 -0.0636583 0.0101431 -0.0253513 -0.079868 -0.14018 -0.129766 -0.183517 0.0544639 -0.112838 -0.0923861 -0.108 0.102657 0.0392961 -0.102828 0.0123055 0.0593626 -0.0359954 0.0815026 0.0642644 -0.0685543 -0.0745948 -0.0285169 0.0185674 -0.145705 -0.107193 -0.000478214 -0.184511 -0.267351 -0.42401 0.000908933 0.160159 0.194907 -0.0915813 -0.10157 0.0808353 0.219077 0.197702 -0.0953046 -0.029135 0.041165 0.0281827 0.0271091 -0.0207437 0.00129251 0.0971556 0.132544 0.17706 -0.0987447 0.0229474 0.137006 -0.10862 0.0317736 -0.0617535 0.0908123 0.0749936 0.0580277 0.1929 -0.00937464 0.0520233 0.0462421 0.315201 0.223184 -0.00304198 0.0666557 0.0634372 -0.146394 -0.0916687 0.0612839 -0.0630053 -0.226836 0.0155709 -0.00415801 -0.0235543 -0.184836 -0.0532419 -0.107286 0.0260906 -0.124111 -0.199901 0.00960895 0.0587778 -0.0561917 0.371935 0.0708693 -0.128006 -0.169242 0.0286176 0.0734075 -0.017566 -0.0538279 0.0623733 -0.00618929 -0.0380219 0.0735214 0.0274458 -0.0743224 -0.175284 -0.129103 -0.311252 -0.0350298 0.0272771 -0.0233397 0.00334735 0.049416 0.0816555 0.081894 0.0520633 0.0976053 0.207432 0.0599493 0.00844078 0.0285666 0.0768205 -0.0362009 -0.0378588 0.181141 0.0222828 -0.0906852 -0.139643 0.0872731 0.202863 0.0031004 0.0390681 -0.0397449 0.0547668 -0.0306882 0.0303586 0.169987 -0.0222299 -0.200899 -0.400089 0.0463186 0.0251068 -0.0964604 -0.275737 -0.166521 0.0399 -0.031568 -0.0646895 0.26934 0.149465 0.0575081 0.193293 -0.0207759 -0.00449982 -0.0111572 -0.256469 0.174838 -0.0949078 -0.152869 -0.0528053 -0.287256 0.174632 -0.0510646 -0.108732 0.0815862 0.0095124 -0.118593 0.0531863 -0.237406 -0.0697907 -0.0268429 0.242909 0.412812 0.134144 -0.136182 0.0124579 -0.0218577 0.0997566 -0.0627092 -0.109116 0.0115787 0.06928 0.0333039 -0.0287846 -0.0141464 -0.0708711 0.180788 0.182562 0.0217111 -0.0241221 -0.0344073 0.101608 0.0475452 -0.00204043 0.00789112 -0.0361484 -0.106806 0.00601847 0.00616527 0.127772 0.00201552 -0.379995 -0.2053 0.0156261 -0.0696543 -0.235734 -0.190974 0.343341 -0.0121729 -0.184409 -0.271902 0.190129 0.427403 0.0623454 -0.402671 -0.280033 0.0594345 0.219516 0.0260996 -0.229921 -0.374768 -0.0436565 -0.118842 -0.228655 -0.162292 0.0683489 -0.025525 0.0079638 -0.146825 -0.0558659 -0.0069874 0.00441008 -0.0213542 -0.127781 -0.06524 -0.0082525 0.111321 -0.114478 0.195291 0.0797536 -0.0645013 -0.0355263 0.0440568 0.189453 -0.0508556 0.0111434 -0.00908145 0.0117667 0.401098 0.198443 0.0450078 0.104815 0.126483 0.170681 0.0307121 -0.191677 -0.0366146 -0.220478 0.0123103 0.0484876 -0.00963371 -0.213439 -0.230099 -0.0297448 0.103513 -0.0557306 0.0134215 0.186898 0.00196223 0.0890517 -0.02577 0.125634 0.0613253 -0.109103 0.0494911 -0.0936211 -0.149454 -0.301508 -0.283783 0.105483 -0.0290737 0.0476398 -0.134644 -0.340106 0.0729581 0.111339 0.236153 0.016695 0.0931017 0.0960223 0.048401 -0.129441 -0.146429 0.325687 0.0927398 -0.0440912 -0.05973 -0.0722698 0.157925 0.298328 -0.0634758 -0.0846477 -0.484842 -0.0235052 0.106162 0.174994 -0.0490317 -0.159325 -0.126497 -0.0197673 0.00690444 -0.136834 0.0083763 -0.036458 -0.180283 0.0162608 0.096838 0.127609 -0.16669 -0.0713441 0.163843 -0.0729521 -0.0236288 0.0688132 0.271194 0.165421 -0.0786309 -0.150108 -0.0799363 -0.157914 -0.168501 0.00624393 -0.10665 -0.0401302 0.139568 -0.00636552 -0.0691815 -0.304309 0.307075 0.122562 0.227254 -0.142347 -0.18486 0.270746 -0.0197304 -0.134318 -0.00885997 0.325715 0.0868892 0.0465575 0.0883877 -0.0219002 -0.2176 -0.0311698 -0.0102039 -0.115681 -0.0153837 0.0810766 -0.0566485 0.147121 -0.0307699 0.183091 0.156385 -0.0483441 0.002178 -0.00359939 0.148619 -0.06588 0.0682815 0.0536275 -0.167181 -0.184985 0.151931 0.149784 -0.205524 -0.0525268 -0.00264558 0.0131332 0.354601 0.0404814 -0.179509 0.0366554 0.0104181 0.0303792 0.0199328 -0.24106 -0.293408 -0.190409 -0.189087 0.0549434 -0.0608212 -0.45376 -0.0895644 0.0940242 -0.0327883 -0.254772 0.0311089 0.176478 0.164802 -0.255357 -0.00912618 -0.0422316 -0.306917 -0.362848 0.0334365 0.126925 -0.028622 -0.174465 -0.0601369 0.204433 0.0162086 0.030648 -0.0528414 -0.0168587 -0.192342 0.114372 -0.0214871 0.0534193 -0.0911486 -0.035841 0.0688818 -0.0522946 0.00950369 -0.0436175 0.225403 0.123293 0.0267811 -0.0138147 0.0471512 -0.0412821 -0.0283927 0.0722624 0.0893105 -0.0944847 -0.0805183 -0.0964634 -0.200434 -0.18046 0.196598 0.350267 -0.094708 -0.351312 -0.04718 0.355201 0.233901 -0.13736 0.00935476 0.287587 0.0656792 0.0270052 -0.109948 -0.197898 -0.183795 0.305131 0.163232 0.232891 -0.00384718 0.0116897 -0.0955182 -0.063337 -0.165972 -0.0508382 -0.170058 -0.293566 -0.120168 -0.188034 0.0166454 -0.107618 -0.126628 -0.299184 -0.144053 0.0293323 -0.077154 0.103759 0.0471712 0.0552845 0.0730734 -0.057931 0.00450367 -0.0651758 0.0246026 0.14754 0.180709 0.083865 0.0678061 -0.0382522 0.251382 -0.210486 -0.00964223 0.0548702 0.0343161 -0.19972 -0.169172 0.0381288 0.0855978 0.0553167 0.131073 0.129335 -0.00269489 -0.0120628 -0.0412735 
bias: 
-0.00266525 0.0745533 0.0645662 0.0696103 0.0790175 -0.00886203 0.0636577 -0.013837 0.259908 0.073345 
